{"SEQL.0.weight": [[0.20334264636039734, 0.21608121693134308, 0.03693395480513573, -0.07045669853687286], [0.4726322591304779, 0.10558244585990906, -0.6383639574050903, 0.3719231188297272], [0.213925302028656, 0.4577120840549469, 0.12321881204843521, -0.12957049906253815], [-0.22304444015026093, -0.07449838519096375, 0.09905046224594116, -0.012268658727407455], [-0.15235303342342377, 0.3260688781738281, -0.026350751519203186, -0.3980139195919037], [0.2703091502189636, 0.2551461160182953, 0.03929184004664421, -0.29886698722839355], [-0.1280667632818222, 0.4425034821033478, -0.15561486780643463, -0.2407599538564682], [-0.4497329890727997, 0.3901192247867584, 0.3583851754665375, -0.023387793451547623], [-0.2560916244983673, -0.28458505868911743, -0.05671301484107971, -0.47028985619544983], [0.5388206839561462, 0.3539987802505493, -0.17192454636096954, -0.34403175115585327], [-0.2813150882720947, 0.17101746797561646, 0.02668663114309311, 0.2938231825828552], [-0.48544153571128845, -0.14266955852508545, -0.21394497156143188, 0.14281488955020905], [0.1296459436416626, 0.24116133153438568, 0.4659416377544403, -0.36288535594940186], [-0.11761386692523956, -0.4175293743610382, -0.12526287138462067, 0.21498088538646698], [0.17466068267822266, -0.3435947895050049, -0.21156324446201324, 0.5055856704711914], [-0.48249420523643494, -0.16359786689281464, -0.004298130050301552, 0.5286211371421814], [0.27297917008399963, -0.032896872609853745, 0.3707287609577179, -0.036810122430324554], [0.203443244099617, -0.3076719641685486, 0.26598799228668213, 0.27996817231178284], [0.10749063640832901, 0.4093219041824341, 0.1622924953699112, -0.42521172761917114], [0.42420610785484314, -0.45301005244255066, -0.1237216368317604, 0.16417962312698364], [-0.24397549033164978, -0.36586353182792664, -0.1726788580417633, 0.1705649048089981], [0.37571829557418823, -0.38288527727127075, -0.47724786400794983, 0.06689852476119995], [0.45306551456451416, -0.06003566458821297, 0.1305919587612152, 0.008375784382224083], [0.4629649519920349, 0.000195386353880167, -0.20024144649505615, 0.31247442960739136], [0.33489447832107544, -0.05661263316869736, -0.18227680027484894, 0.3676590919494629], [-0.3771315813064575, 0.32227087020874023, 0.49006131291389465, -0.34851035475730896], [-0.37559178471565247, 0.05001995712518692, 0.16809788346290588, 0.5152496099472046], [-0.08662194013595581, 0.2792084813117981, -0.13271552324295044, 0.2891634702682495], [-0.19371621310710907, -0.07395908981561661, -0.34963858127593994, -0.31033116579055786], [-0.08097229897975922, 0.3481616675853729, -0.003986976575106382, -0.4575555622577667], [-0.2070712149143219, -0.07035864144563675, 0.12474118918180466, 0.16933950781822205], [0.11403007805347443, -0.42461204528808594, -0.1424921751022339, 0.23939348757266998], [-0.44968023896217346, -0.1719459444284439, 0.18832464516162872, -0.42815282940864563], [0.17340144515037537, 0.1612938940525055, -0.42334407567977905, 0.13793909549713135], [-0.4682760536670685, -0.08749378472566605, 0.3905792534351349, 0.3220392167568207], [0.3893289268016815, -0.2144947350025177, -0.023688480257987976, -0.4833068251609802], [-0.24196091294288635, -0.1461600959300995, -0.2185516059398651, 0.43561050295829773], [-0.20144982635974884, 0.4188764989376068, 0.18225818872451782, 0.4571443498134613], [-0.2146187722682953, -0.10502640902996063, -0.21074646711349487, 0.39403167366981506], [-0.07782509177923203, 0.05712379515171051, 0.40121400356292725, -0.38867485523223877], [-0.11145254224538803, 0.19383028149604797, 0.13647036254405975, 0.21934086084365845], [-0.06676594913005829, 0.234196275472641, 0.1169043779373169, 0.42496392130851746], [-0.3573446571826935, -0.2186642289161682, 0.25126370787620544, 0.11633232235908508], [0.17004357278347015, 0.29643741250038147, 0.4453260004520416, 0.2658081352710724], [0.44414347410202026, -0.11169014871120453, -0.4928915202617645, 0.37198948860168457], [-0.27787065505981445, -0.29410091042518616, -0.36470359563827515, 0.1868787258863449], [-0.33248448371887207, 0.41681966185569763, -0.37048569321632385, -0.1893504559993744], [-0.0360783152282238, -0.16844545304775238, 0.31867796182632446, 0.3338910639286041], [-0.17392516136169434, -0.058623090386390686, 0.3193589448928833, 0.4570816457271576], [-0.283671110868454, -0.3039228022098541, 0.059873487800359726, -0.48692500591278076], [-0.19958141446113586, 0.2838897109031677, 0.46102166175842285, -0.09682127088308334], [-0.09088729321956635, -0.3727427124977112, -0.4833989143371582, 0.1258091777563095], [0.24830611050128937, 0.30804434418678284, 0.3160727322101593, 0.03464942425489426], [0.11158260703086853, -0.25655078887939453, -0.4452679753303528, 0.1173483207821846], [-0.2597253620624542, -0.15078236162662506, 0.3682693541049957, -0.24638631939888], [0.569121778011322, 0.44800204038619995, -0.39700815081596375, -0.5045029520988464], [-0.11198454350233078, -0.007499347440898418, 0.11714854836463928, -0.3897973597049713], [-0.3849368989467621, -0.4010646343231201, 0.07819869369268417, -0.07620467990636826], [-0.07519786804914474, -0.0008280243491753936, -0.2695744037628174, -0.539005696773529], [-0.3796580731868744, -0.23413370549678802, -0.09774794429540634, 0.0013806221541017294], [-0.049292176961898804, 0.15786750614643097, -0.050600674003362656, 0.52249675989151], [0.10201609134674072, 0.042126476764678955, 0.3693423271179199, -0.12751919031143188], [-0.26039251685142517, 0.1323293298482895, -0.11457226425409317, -0.45219531655311584], [0.48115307092666626, -0.43920189142227173, -0.004275398328900337, -0.06882213801145554], [0.275026798248291, 0.2720644772052765, -0.009351716376841068, -0.4927719533443451], [-0.5347686409950256, 0.3468743860721588, 0.1909528374671936, 0.5253422856330872], [0.28839072585105896, 0.16338428854942322, -0.4692635238170624, 0.06488986313343048], [0.33427703380584717, -0.11737112700939178, -0.2939070761203766, -0.13312304019927979], [0.07611887902021408, 0.06097913905978203, -0.4986652433872223, -0.33857715129852295], [-0.40285393595695496, -0.3938385546207428, 0.28544482588768005, -0.22623257339000702], [-0.26743030548095703, -0.20391923189163208, 0.27809765934944153, -0.3161689043045044], [-0.4446505904197693, 0.09652993083000183, -0.17686296999454498, 0.017779555171728134], [-0.1388530284166336, 0.4130774438381195, 0.36448684334754944, 0.5375464558601379], [0.333778977394104, 0.2036902904510498, -0.20639419555664062, 0.2669588327407837], [-0.4593361020088196, 0.3680058717727661, -0.45665788650512695, 0.31205475330352783], [0.3953365683555603, 0.14604978263378143, -0.38365140557289124, 0.33239248394966125], [0.3736477494239807, -0.24850666522979736, 0.6657888889312744, 0.18378473818302155], [-0.08090635389089584, -0.4250723719596863, 0.6619415879249573, 0.2515154182910919], [-0.40766993165016174, -0.4783516228199005, -0.05341663956642151, -0.14927944540977478], [0.4124234914779663, -0.1329800933599472, -0.3362349271774292, -0.28961366415023804], [-0.39987996220588684, 0.27196842432022095, 0.27198389172554016, -0.34416142106056213], [-0.15265853703022003, 0.48980969190597534, -0.2907593548297882, 0.079970583319664], [-0.06575532257556915, 0.25484567880630493, 0.027963316068053246, 0.4700031280517578], [-0.4309522211551666, 0.463722288608551, 0.31975728273391724, 0.47385725378990173], [0.5473667979240417, -0.09117534756660461, -0.318299800157547, 0.10192626714706421], [0.30806711316108704, -0.28976166248321533, 0.2971537709236145, -0.16604137420654297], [-0.5847023129463196, -0.2300719916820526, -0.09816984087228775, 0.5416926741600037], [-0.3544411063194275, -0.05134068801999092, 0.4877156615257263, 0.1890781819820404], [0.5733925104141235, 0.48563066124916077, -0.4215076267719269, -0.1621241569519043], [0.20540212094783783, 0.45225048065185547, -0.20138639211654663, -0.3137201964855194], [0.362888365983963, 0.2608494460582733, -0.1686028689146042, -0.03542593866586685], [-0.29750823974609375, -0.4276801645755768, 0.010412625037133694, 0.4608580470085144], [-0.5034701228141785, 0.3299613296985626, 0.45798560976982117, -0.3263794779777527], [-0.39124324917793274, -0.3180137872695923, 0.470903217792511, 0.3574385344982147], [-0.30598148703575134, 0.2411690205335617, -0.020196346566081047, -0.3103729486465454], [-0.3868774175643921, -0.39191433787345886, 0.40059348940849304, 0.47275081276893616], [-0.17272824048995972, -0.032994240522384644, 0.3626704216003418, -0.2794279456138611], [0.26331156492233276, -0.09327621012926102, 0.30500349402427673, 0.3528890013694763], [0.04982380196452141, -0.30272534489631653, 0.01146943774074316, 0.3318321406841278], [0.5283991694450378, -0.20450642704963684, -0.568779468536377, -0.44162851572036743], [-0.11949147284030914, -0.20576702058315277, -0.24541613459587097, -0.14630907773971558], [-0.03581118583679199, -0.26975125074386597, 0.4143018126487732, -0.21010977029800415], [-0.2986721694469452, -0.26796025037765503, 0.1599113792181015, -0.24671591818332672], [-0.14449119567871094, 0.23081010580062866, 0.11402803659439087, 0.07315635681152344], [0.20928359031677246, -0.02543705701828003, 0.47287726402282715, -0.14361757040023804], [-0.4285967946052551, -0.2892538905143738, 0.4699884057044983, 0.2974782884120941], [-0.21405665576457977, 0.08431003987789154, 0.11447117477655411, 0.14413690567016602], [0.14426061511039734, -0.26467472314834595, 0.13864123821258545, 0.13652123510837555], [-0.035219404846429825, 0.0818709060549736, 0.20992325246334076, -0.020119205117225647], [-0.09178339689970016, 0.20088878273963928, 0.03693787008523941, 0.42994895577430725], [-0.3338446319103241, -0.0012074258411303163, -0.26803484559059143, 0.15335111320018768], [0.28043749928474426, -0.12467855960130692, -0.43754807114601135, 0.1083630695939064], [0.17254462838172913, 0.03504010662436485, -0.5016987919807434, -0.6004581451416016], [-0.3940446376800537, 0.3479965925216675, 0.12522459030151367, -0.04908861592411995], [-0.21998797357082367, 0.33479952812194824, 0.3114583194255829, 0.4221552610397339], [-0.1103411316871643, 0.2579187750816345, -0.28438669443130493, 0.20079761743545532], [0.21059484779834747, 0.03787119686603546, -0.3679695129394531, -0.2660408616065979], [0.2175436168909073, -0.07166358083486557, -0.31089913845062256, 0.11819463223218918], [-0.35493576526641846, 0.0900663509964943, 0.19372519850730896, 0.48257365822792053], [-0.06641332805156708, -0.3130994439125061, 0.4011026918888092, 0.20272697508335114], [0.4682144224643707, -0.05710006132721901, -0.22721225023269653, -0.44413599371910095], [-0.4687187075614929, -0.17943212389945984, 0.010188687592744827, 0.49353572726249695], [-0.3016396462917328, 0.43481457233428955, -0.08728799968957901, 0.02804509922862053], [-0.13649067282676697, -0.3007034361362457, 0.0966397374868393, -0.19069434702396393], [0.054277773946523666, -0.44257646799087524, 0.19571644067764282, -0.046010520309209824], [-0.37196844816207886, -0.4657394587993622, -0.4657086431980133, 0.04218133166432381], [0.11090637743473053, 0.24095217883586884, 0.0096276318654418, -0.4848347306251526], [-0.528648316860199, 0.17444345355033875, 0.03993060439825058, 0.5131983160972595]], "SEQL.0.bias": [-0.04905034974217415, 0.18338645994663239, 0.5491551756858826, 0.2835480868816376, 0.2875024378299713, -0.30202242732048035, 0.09908517450094223, 0.13927488029003143, -0.27660486102104187, -0.3452213704586029, 0.49406975507736206, -0.3039214313030243, 0.32571202516555786, 0.4241328239440918, -0.3264620900154114, -0.36008235812187195, -0.1386294662952423, 0.023543715476989746, 0.1249835193157196, 0.039082616567611694, -0.234388068318367, 0.3797748386859894, 0.10162335634231567, 0.37600940465927124, 0.3718721270561218, 0.491109699010849, -0.2807152271270752, -0.41423892974853516, -0.010609879158437252, -0.3294426500797272, -0.07014933228492737, 0.35133010149002075, 0.5001031756401062, 0.4774617850780487, -0.24118925631046295, -0.23449905216693878, -0.07367093861103058, -0.12307345867156982, -0.21583686769008636, 0.24122919142246246, 0.4721564054489136, -0.018110092729330063, 0.5468682646751404, 0.4895302653312683, -0.07562970370054245, 0.08954270929098129, -0.31449857354164124, 0.47599509358406067, -0.3632456660270691, -0.3521290719509125, 0.07971459627151489, 0.4133656322956085, 0.1329176425933838, 0.5129337906837463, -0.05851563438773155, -0.48735034465789795, -0.15855419635772705, 0.5060356855392456, -0.09798208624124527, 0.35879647731781006, -0.0792374238371849, -0.38552796840667725, -0.2943365275859833, 0.3534633219242096, -0.04002773016691208, -0.23417769372463226, 0.5081396102905273, 0.2129419893026352, -0.21017052233219147, -0.11821840703487396, 0.2768789231777191, 0.3271086812019348, -0.20419344305992126, -0.4566348195075989, -0.2662096619606018, 0.3799256682395935, -0.19279564917087555, -0.22968684136867523, -0.10596171766519547, 0.12685155868530273, 0.2552141845226288, 0.4371381402015686, -0.06437581777572632, -0.001967922318726778, 0.17101359367370605, 0.10154242813587189, -0.455888956785202, -0.09804457426071167, -0.4265393018722534, 0.27065324783325195, 0.4696727991104126, -0.4034023582935333, 0.27706703543663025, -0.3987373113632202, 0.5042070746421814, -0.12626047432422638, 0.46240800619125366, 0.44586488604545593, 0.2563629746437073, -0.19873128831386566, 0.1275019645690918, -0.28827929496765137, 0.14557649195194244, -0.36882901191711426, -0.4475501775741577, -0.42817404866218567, -0.018334394320845604, -0.1013004407286644, 0.32226794958114624, -0.06027251109480858, -0.015518369153141975, -0.4713676869869232, -0.3626694977283478, 0.43359869718551636, -0.005958391819149256, -0.26044195890426636, -0.06911369413137436, 0.2711898684501648, -0.1796674281358719, -0.2637925446033478, -0.241498202085495, -0.31716519594192505, -0.33449798822402954, 0.10316833853721619, -0.3196866810321808, -0.47043803334236145, 0.023258989676833153, -0.1338922083377838], "SEQL.2.weight": [[-0.04441700875759125, 0.05025837570428848, 0.11337071657180786, 0.0985463336110115, 0.06297232210636139, -0.06006346642971039, -0.057517945766448975, 0.011502435430884361, -0.10240102559328079, 0.0246291346848011, 0.04488316923379898, -0.0887499675154686, 0.0922706350684166, -0.05096152424812317, -0.05387621000409126, -0.02963617816567421, 0.07310067862272263, 0.07364889234304428, -0.03982878848910332, 0.08105893433094025, 0.049424413591623306, -0.03462990000844002, 0.014671976678073406, 0.09396972507238388, -0.0032275444827973843, -0.03262253850698471, -0.03548296168446541, 0.055396728217601776, 0.0015531873796135187, -0.11476276814937592, 0.04236122965812683, 0.057114701718091965, 0.08545103669166565, 0.12822407484054565, -0.04286317154765129, -0.05257365107536316, -0.04976503923535347, 0.005915720481425524, 0.015260363928973675, 0.046150773763656616, -0.004320173524320126, -0.05751466006040573, 0.040023598819971085, 0.010447951033711433, 0.013880639337003231, 0.005824293941259384, -0.048902686685323715, -0.014100256375968456, -0.11113610118627548, -0.07804998010396957, 0.06547190248966217, 0.10482747852802277, 0.08307600766420364, 0.10895425826311111, 0.009769553318619728, -0.04560507461428642, -0.08646818995475769, -0.007788370829075575, -0.10438884794712067, -0.04219025373458862, -0.09706376492977142, 0.016208268702030182, -0.0700255036354065, 0.05290966480970383, -0.042863816022872925, -0.091774120926857, 0.09385993331670761, -0.05096496641635895, -0.02466261200606823, -0.036139871925115585, 0.056169405579566956, 0.04907815530896187, -0.132915198802948, -0.01987048238515854, -0.032978203147649765, 0.011821194551885128, -0.08848334103822708, -0.10392477363348007, 0.014737021178007126, 0.03397383540868759, -0.053688205778598785, 0.12110203504562378, 0.036387477070093155, -0.12253228574991226, 0.08974943310022354, 0.11482399702072144, 0.0016604065895080566, 0.02528848871588707, 0.04258072376251221, -0.03606303408741951, 0.0786004438996315, -0.04491453245282173, -0.06728839129209518, -0.1136259213089943, 0.008081434294581413, -0.030784742906689644, 0.004676983691751957, 0.09163417667150497, 0.08726386725902557, -0.16334833204746246, -0.04116271436214447, -0.014773018658161163, 0.026904121041297913, -0.02409781515598297, -0.014061793684959412, -0.0051479460671544075, 0.02614433877170086, 0.02326345071196556, 0.06862013041973114, 0.03598848357796669, 0.08547559380531311, 0.019278723746538162, -0.02459285780787468, 0.08763325214385986, -0.1114511787891388, -0.013821445405483246, -0.12542682886123657, 0.06536039710044861, -0.019269783049821854, -0.05435233190655708, -0.09854727238416672, -0.032854896038770676, 0.06424367427825928, 0.06028413400053978, -0.03797478601336479, 0.001418517087586224, -0.02597822993993759, -0.0031677712686359882], [0.01790281943976879, 0.043213583528995514, 0.09226547926664352, -0.022806158289313316, -0.06656847149133682, -0.11900968104600906, -0.048303112387657166, -0.0005706257652491331, -0.07555070519447327, -0.030391875654459, 0.027005139738321304, -0.08058089017868042, -0.0071663870476186275, 0.0030392499174922705, 0.059690412133932114, -0.08646728843450546, 0.01661325991153717, 0.06388136744499207, -0.004371422342956066, 0.0843280479311943, -0.00794111005961895, 0.07903999835252762, -0.014203723520040512, 0.035167258232831955, 0.05658860504627228, 0.07413038611412048, -0.11455557495355606, -0.025469273328781128, 0.023398542776703835, -0.028580456972122192, -0.05571757256984711, -0.0458386205136776, 0.08281823247671127, -0.030579257756471634, 0.015601320192217827, -0.04832928627729416, -0.08657868951559067, -0.13057586550712585, 0.035326290875673294, 0.0027564922347664833, -0.03694736957550049, 0.04570898413658142, 0.001955589046701789, 0.08689005672931671, -0.04531164839863777, 0.03486407548189163, -0.08263136446475983, 0.017097337171435356, -0.044461093842983246, -0.09591874480247498, 0.09473925083875656, -0.0057675461284816265, -0.020114080980420113, -0.031861573457717896, -0.09386150538921356, -0.10311093926429749, -0.013390455394983292, -0.05305173248052597, 0.030088156461715698, 0.08273547142744064, -0.04589157924056053, 0.04612866789102554, -0.10969288647174835, -0.043918512761592865, 0.043015312403440475, -0.08779276907444, 0.06386304646730423, -0.004751026630401611, 0.010959106497466564, -0.033792849630117416, 0.10468799620866776, -0.02629791386425495, -0.020121345296502113, -0.04381774738430977, 0.06029938906431198, 0.10551589727401733, -0.10512587428092957, -0.0381912924349308, 0.07917118072509766, -0.03359069675207138, -0.007870059460401535, 0.10720622539520264, 0.017672672867774963, 0.02621283568441868, -0.006934435106813908, 0.05167574808001518, -0.016371574252843857, -0.12592017650604248, -0.11488981544971466, 0.013878997415304184, -0.0025009410455822945, -0.08319230377674103, 0.10422421246767044, 0.0030747069977223873, 0.10239493101835251, -0.02278856560587883, -0.04010201245546341, 0.010304036550223827, 0.06845787912607193, -0.17971132695674896, -0.04373349994421005, 0.0679488554596901, 0.09189997613430023, 0.03506883233785629, 0.08019248396158218, -0.06521693617105484, 0.011170719750225544, -0.006177466828376055, 0.04664430394768715, 0.0342738963663578, 0.07372993230819702, -0.0016739070415496826, -0.09042248874902725, 0.08501271158456802, -0.011857269331812859, 0.01820029318332672, -0.04355820640921593, -0.03736241161823273, -0.00969495065510273, -0.03234260901808739, -0.06826934218406677, 0.047983817756175995, -0.053969964385032654, 0.03125923126935959, -0.04626430571079254, -0.023731233552098274, -0.025048037990927696, -0.0022221494000405073], [0.07801414281129837, 0.049530260264873505, 0.02911376953125, 0.04498880356550217, 0.012049011886119843, 0.04716672748327255, -0.08115402609109879, -0.030159063637256622, -0.06897308677434921, -0.08271081000566483, -0.022697165608406067, 0.08024483174085617, 0.007358215749263763, -0.011440962553024292, -0.03010522946715355, -0.012585736811161041, 0.03932312875986099, -0.02552289515733719, -0.07635796070098877, -0.04735630378127098, -0.00027918070554733276, 0.07940281182527542, -0.03695539012551308, -0.032104454934597015, 0.007328703999519348, -0.03579132258892059, -0.08078891038894653, 0.00461222231388092, 0.036616988480091095, 0.059988416731357574, -0.01250562071800232, -0.04931142181158066, 0.03727332502603531, -0.0644814670085907, -0.05718205124139786, -0.07906413823366165, 0.0015790313482284546, -0.07937300205230713, -0.051506903022527695, 0.0798771008849144, -0.011560499668121338, 0.06315713375806808, 0.03406260907649994, 0.07167335599660873, 0.03853369504213333, -0.07079862058162689, 0.026251815259456635, -0.06805073469877243, 0.06943168491125107, 0.008914008736610413, -0.004295125603675842, -0.01481211930513382, -0.03405559062957764, 0.001992069184780121, 0.02631167322397232, -0.0825767070055008, 0.04145243018865585, -0.05995436757802963, -0.024818412959575653, 0.008867360651493073, 0.06986919790506363, -0.03449477255344391, -0.07267560064792633, -0.06303399056196213, -0.007640950381755829, -0.03542126342654228, -0.0508086271584034, 0.08502740412950516, 0.07625328749418259, -0.052158474922180176, -0.06856413185596466, -0.007142901420593262, 0.04612009972333908, 0.012869827449321747, -0.06118544191122055, -0.0701601654291153, -0.04800008609890938, -0.02004578709602356, -0.017770566046237946, -0.02574608474969864, -0.020281031727790833, -0.008324623107910156, -0.051284514367580414, 0.04359572380781174, 0.04997996240854263, -0.08493709564208984, 0.008243471384048462, 0.057343848049640656, -0.015389956533908844, -0.03195173665881157, -0.051277097314596176, -0.025812633335590363, 0.04800569266080856, -0.016956709325313568, -0.00592794269323349, -0.042817920446395874, 0.08728329092264175, 0.01801922172307968, -0.020640090107917786, 0.08543164283037186, -0.06594578921794891, -0.010114051401615143, 0.06887301057577133, 0.048325665295124054, 0.08076869696378708, -0.00032463669776916504, 0.006850443780422211, 0.03258194029331207, -0.04187827929854393, -0.028758805245161057, -0.025472670793533325, -0.05823517590761185, 0.012668952345848083, -0.0020488128066062927, 0.0372132882475853, 0.05124502629041672, -0.0014194846153259277, -0.08718471974134445, 0.006900176405906677, 0.020758777856826782, -0.08241342008113861, 0.08534454554319382, 0.04645168036222458, -0.06784509122371674, -0.0467173270881176, -0.08079545199871063, 0.04512204974889755, -0.0397421158850193], [-0.0014442040119320154, 0.023479487746953964, 0.007066965568810701, 0.0869058147072792, 0.002832543570548296, -0.005963466130197048, -0.044037673622369766, 0.021943969652056694, -0.0742323249578476, -0.11493418365716934, 0.02204250358045101, 0.03083309717476368, 0.0659131109714508, 0.07318087667226791, -0.09514540433883667, -0.00035749509697780013, 0.058670561760663986, -0.018785154446959496, 0.02921796776354313, 0.08252685517072678, 0.023602131754159927, -0.0548708513379097, 0.10818052291870117, 0.03142528235912323, 0.026087796315550804, 0.05401970446109772, -0.05155276879668236, 0.02853827178478241, 0.003733219113200903, 0.031718235462903976, -0.08954821527004242, -0.03416324779391289, 0.042543139308691025, 0.11924758553504944, -0.03999554365873337, -0.1122136190533638, -0.0476040355861187, -0.1484176218509674, -0.041830603033304214, 0.048756904900074005, 0.07923025637865067, 0.028449850156903267, 0.029455527663230896, 0.0929521843791008, 0.07208682596683502, -0.005569493398070335, -0.09261802583932877, 0.03265361860394478, -0.12114806473255157, -0.0625576302409172, -0.01054137758910656, -0.018686214461922646, 0.07683807611465454, 0.10267356038093567, -0.038906533271074295, -0.0583176426589489, -0.10831499099731445, 0.11323411017656326, -0.046232208609580994, 0.0843881219625473, -0.022957364097237587, -0.08587991446256638, 0.033458441495895386, 0.05665958300232887, 0.005099370144307613, -0.20593205094337463, 0.03755330294370651, -0.0028889384120702744, -0.10664842277765274, 0.029657496139407158, 0.10244034230709076, -0.02496274933218956, -0.15066970884799957, -0.08148814737796783, 0.030459292232990265, -0.028156543150544167, -0.007881244644522667, 0.023843884468078613, 0.06511640548706055, 0.008998316712677479, 0.10673210769891739, 0.1251729279756546, 0.014260124415159225, -0.15514734387397766, -0.008455737493932247, 0.024400930851697922, -0.09702423959970474, -0.08098592609167099, -0.11486257612705231, 0.03926596790552139, 0.023056907579302788, 0.03903719410300255, 0.026016369462013245, -0.031033165752887726, 0.06889007240533829, -0.02457945980131626, 0.05709990859031677, 0.04108884185552597, 0.04965480789542198, -0.045628633350133896, -0.06933576613664627, 0.07301761955022812, 0.04618999734520912, 0.013580471277236938, 0.03923279792070389, -0.11679428815841675, 0.0031782924197614193, -0.042569320648908615, -0.029874883592128754, -0.06730532646179199, 0.05056856945157051, 0.07768997550010681, -0.10524187982082367, 0.07890944927930832, 0.017481191083788872, -0.07107663154602051, -0.1111561730504036, -0.023260056972503662, -0.13520373404026031, -0.09196513891220093, -0.06805437058210373, -0.043227843940258026, 0.029644886031746864, 0.004168314393609762, 0.028422445058822632, 0.09337162971496582, -0.014891593717038631, -0.06583959609270096], [0.004313700832426548, -0.059963952749967575, -0.05757681652903557, 0.02341334894299507, -0.023603662848472595, 0.06553205102682114, -0.004937056452035904, 0.03835010901093483, -0.060447853058576584, -0.013243183493614197, -0.017588980495929718, 0.07978269457817078, -0.0398431122303009, -0.004345213994383812, 0.008524538949131966, -0.0364290252327919, -0.0032826289534568787, -0.07481216639280319, 0.007083813659846783, -0.07871246337890625, -0.049048252403736115, -0.033628422766923904, 0.013877833262085915, 0.0518360398709774, 0.004403209313750267, 0.09015589207410812, -0.05902133136987686, 0.021782979369163513, -0.07782243937253952, -0.037828464061021805, 0.029529575258493423, -0.06509193032979965, 0.006903920788317919, -0.043443161994218826, 0.022655801847577095, -0.07182969152927399, -0.035698238760232925, 0.007884473539888859, 0.0373823307454586, -0.0823633149266243, 0.028664177283644676, 0.0011519886320456862, -0.03716946020722389, 0.00516902282834053, 0.037433575838804245, -0.07002183049917221, -0.0035376367159187794, 0.029848570004105568, -0.0726759135723114, 0.02355192042887211, -0.04776143655180931, 0.05408331751823425, -0.03096587397158146, 0.031238609924912453, 0.06493010371923447, -0.01289166510105133, 0.02016148529946804, -0.07628290355205536, -0.06810174137353897, 0.061112042516469955, -0.04162929207086563, 0.01154288649559021, -0.0805320292711258, 0.011544591747224331, -0.07689329236745834, -0.09183637797832489, 0.0358494333922863, -0.06830823421478271, 0.044684942811727524, 0.0388660654425621, 0.031416796147823334, 0.03399191424250603, -0.04441404342651367, -0.05251888185739517, -0.07072456926107407, -0.0015340225072577596, -0.09173719584941864, -0.03690962493419647, -0.019528880715370178, -0.0691724345088005, 0.018393581733107567, -0.01227955799549818, 0.04824184253811836, -0.029807820916175842, 0.07209061831235886, 0.08652030676603317, 0.08356413245201111, 0.08147726207971573, 0.07481557875871658, 0.005757124628871679, -0.04492383822798729, 0.06120928004384041, -0.035675764083862305, 0.06191782280802727, 0.038082025945186615, 0.05729542300105095, 0.029460309073328972, -0.0718226507306099, 0.00040649966103956103, 0.06845440715551376, 0.040677234530448914, -0.03728863224387169, 0.0797395259141922, -0.08178367465734482, -0.006619155406951904, 0.002967419568449259, -0.06982015818357468, -0.06951306760311127, 0.028773203492164612, -0.02599305659532547, -0.006351245567202568, 0.02412893995642662, -0.032026924192905426, 0.002882345812395215, -0.0683835819363594, 0.016915924847126007, 0.08031832426786423, 0.028360040858387947, -0.08174923062324524, -0.020688341930508614, 0.06642821431159973, 0.0669848769903183, -0.05433405190706253, -0.04163332283496857, -0.03421057015657425, 0.08089808374643326, -0.08381781727075577, 0.021124323830008507], [0.04235884174704552, 0.06335925310850143, 0.011524694040417671, -0.03873787075281143, 0.09825901687145233, 0.05589842051267624, 0.05004824697971344, 0.0535099022090435, -0.14420001208782196, 0.014355993829667568, 0.0058279880322515965, 0.07093684375286102, 0.105552077293396, -0.06870409846305847, 0.06103077903389931, -0.06220991536974907, -0.017102299258112907, 0.029416652396321297, -0.04957946762442589, 0.045200224965810776, -0.062127500772476196, 0.07184235006570816, 0.05231533944606781, 0.06881222128868103, -0.035876400768756866, -0.02784164436161518, -0.06399770081043243, 0.03936021775007248, 0.058851197361946106, 0.027643302455544472, 0.03112105466425419, -0.0009032383095473051, -0.03912073373794556, 0.043108802288770676, 0.017703834921121597, -0.015899846330285072, -0.09523501992225647, -0.07929469645023346, -0.05485992506146431, 0.09694692492485046, 0.044898562133312225, 0.029549995437264442, 0.10356966406106949, 0.003382225753739476, 0.019332488998770714, -0.07919232547283173, 0.058090873062610626, 0.08341632783412933, -0.04455246403813362, -0.07896881550550461, 0.015130234882235527, 0.056724827736616135, -0.03602280840277672, -0.0013012023409828544, -0.06806056201457977, 0.03253969922661781, -0.09883296489715576, 0.024656176567077637, -0.02490423247218132, 0.023540178313851357, 0.034182216972112656, 0.004313953220844269, 0.05692338943481445, 0.06723791360855103, -0.025329764932394028, -0.14721259474754333, -0.03135038912296295, 0.06624054163694382, -0.094650998711586, -0.029321640729904175, 0.01642949879169464, -0.029862502589821815, -0.16232725977897644, -0.022088274359703064, 0.022110238671302795, 0.0965152233839035, -0.09688413888216019, 0.00478352652862668, -0.004808336030691862, -0.020800385624170303, 0.029781939461827278, 0.05768590047955513, -0.03875289112329483, -0.06102880835533142, 0.10640375316143036, 0.03450971841812134, -0.11549694091081619, -0.09035839140415192, -0.10645756870508194, -0.033688902854919434, 0.11391881853342056, 0.06359118223190308, 0.00583729287609458, 0.006636945065110922, 0.03400209918618202, -0.0662887766957283, -0.036513082683086395, -0.049831222742795944, -0.05630483478307724, -0.14770053327083588, -0.01975022628903389, -0.03355610743165016, 0.04779710993170738, -0.06278762221336365, -0.009747818112373352, -0.09446754306554794, -0.0006314480560831726, 0.07022389769554138, -0.037540555000305176, -0.10777091234922409, -0.0008650585077702999, -0.07851118594408035, -0.03813530132174492, 0.016953591257333755, -0.0984024628996849, -0.029687143862247467, -0.10075303912162781, 0.04958698898553848, -0.0518057718873024, -0.07937343418598175, -0.06066552922129631, 0.05206644907593727, -0.021206365898251534, 0.01888524368405342, -0.037416134029626846, 0.03707524389028549, -0.06488952040672302, -0.03899812325835228], [-0.04615727812051773, 0.08336704224348068, -0.06839658319950104, 0.04239014536142349, -0.008908390998840332, -0.036226216703653336, 0.03282877802848816, -0.0783497765660286, -0.06719830632209778, 0.038897328078746796, 0.011667430400848389, -0.04196391999721527, -0.07467435300350189, -0.014497853815555573, 0.0007074698805809021, 0.07840394228696823, 0.0777011290192604, -0.01786240190267563, 0.023164063692092896, 0.0027165040373802185, 0.036760322749614716, 0.0463823601603508, 0.05403391271829605, 0.02777726948261261, 0.027195699512958527, -0.08382648974657059, 0.02002207189798355, 0.07647743076086044, 0.0586223378777504, -0.06004880368709564, -0.03557147458195686, -0.021272145211696625, -0.02017800509929657, 0.062040574848651886, 0.050021879374980927, -0.04822445660829544, -0.04466744139790535, 0.018323488533496857, 0.003187514841556549, -0.0676187127828598, -0.058521732687950134, -0.035715553909540176, 0.021564066410064697, 0.04011579602956772, -0.08513346314430237, -0.028958961367607117, -0.05259349197149277, 0.08556140214204788, 0.020745016634464264, -0.08438253402709961, -0.07840979844331741, -0.04480040445923805, 0.04998130351305008, -0.0606602281332016, 0.031919680535793304, 0.04508370906114578, -0.01671268790960312, -0.002812586724758148, 0.08077419549226761, -0.040916718542575836, -0.05066385120153427, 0.01024644821882248, -0.035160649567842484, 0.009651951491832733, -0.07561385631561279, -0.024543397128582, -0.01133677363395691, 0.037891142070293427, -0.03145437315106392, -0.04323774576187134, -0.036219630390405655, 0.04342567175626755, -0.06629578024148941, 0.019871681928634644, 0.00791776180267334, -0.01255616545677185, -0.00279255211353302, -0.07032613456249237, 0.05338641256093979, 0.024908393621444702, -0.019518405199050903, 0.013058185577392578, -0.04400188848376274, 0.058039359748363495, 0.050504170358181, -0.02807735651731491, -0.016203798353672028, 0.003418274223804474, 0.008409932255744934, -0.01885971426963806, -0.04321783035993576, -0.08750961720943451, 0.024264656007289886, -0.0004918202757835388, 0.06626337021589279, -0.04920552670955658, -0.04184043034911156, 0.06493528932332993, -0.040411576628685, 0.013643279671669006, -0.08249302208423615, -0.016927607357501984, 0.04211141914129257, 0.007760874927043915, -0.03137626126408577, -0.0072464123368263245, 0.036785341799259186, 0.007998108863830566, -0.07677404582500458, 0.07695203274488449, 0.07286425679922104, -0.03027953952550888, 0.051801152527332306, -0.07693735510110855, 0.05664467066526413, 0.0657215341925621, -0.06781519204378128, -0.07777196913957596, 0.030021220445632935, -0.06486640870571136, -0.016860611736774445, 0.06364329904317856, -0.0015098154544830322, -0.06961463391780853, -0.0175011083483696, 0.0665043368935585, -0.08324676007032394, -0.02517937868833542], [-0.07322481274604797, 0.0944923609495163, 0.17181357741355896, 0.15793369710445404, 0.005745052359998226, -0.02911929041147232, 0.06835523992776871, 0.01966734603047371, -0.14283797144889832, -0.03116549178957939, 0.04942360147833824, -0.1064729392528534, 0.07541440427303314, 0.0307101272046566, -0.019044548273086548, 0.0012637665495276451, 0.00743836397305131, 0.04437604174017906, 0.05977768450975418, 0.10631892085075378, 0.053736843168735504, 0.1629166603088379, 0.13362525403499603, 0.1257040947675705, 0.04216613247990608, 0.07931272685527802, -0.056196119636297226, 0.05619121342897415, 0.009465533308684826, -0.009499335661530495, -0.04805668443441391, 0.059112247079610825, 0.14141055941581726, 0.16976025700569153, -0.13018299639225006, -0.1907498836517334, -0.019772451370954514, -0.14256274700164795, -0.05616651102900505, 0.023149792104959488, 0.024976905435323715, -0.08674022555351257, 0.023264963179826736, 0.18569204211235046, -0.007399748545140028, 0.024928387254476547, -0.16189931333065033, 0.04279686510562897, -0.06052025035023689, -0.17258353531360626, 0.025558631867170334, 0.14791615307331085, 0.03230682760477066, 0.036352600902318954, -0.05144661292433739, -0.14425455033779144, -0.08000384271144867, 0.05815472453832626, -0.053391046822071075, 0.035616435110569, -0.12957987189292908, -0.08383128046989441, -0.07030084729194641, 0.10778141021728516, 0.023027950897812843, -0.2996467053890228, 0.09735337644815445, 0.08038032054901123, -0.23767615854740143, -0.08071786910295486, 0.11142950505018234, 0.024031417444348335, -0.14528436958789825, -0.002218902111053467, -0.07774238288402557, 0.0129642179235816, -0.03154706954956055, -0.037805940955877304, -0.05668828636407852, 0.0729677602648735, -0.017317775636911392, 0.055813610553741455, -0.09854438900947571, -0.031894903630018234, 0.06018069386482239, 0.10023440420627594, -0.1300303339958191, -0.09068918228149414, -0.08494415134191513, 0.08466838300228119, 0.07931092381477356, -0.08581018447875977, 0.12369012832641602, -0.12179888039827347, 0.09567855298519135, -0.0848669782280922, 0.13246901333332062, 0.07365578413009644, 0.012359618209302425, -0.19194303452968597, 0.032689113169908524, 0.05153486877679825, 0.07384903728961945, 0.06298669427633286, -0.00278269499540329, -0.10699255019426346, -0.057673510164022446, 0.051795411854982376, 0.08786863833665848, -0.08296822756528854, 0.07536302506923676, -0.043507687747478485, -0.1887427568435669, 0.05067823454737663, -0.1563398838043213, 0.02379222959280014, -0.15838252007961273, 0.00818677805364132, -0.12830430269241333, -0.06439540535211563, -0.19990837574005127, -0.15235762298107147, -0.08485765010118484, 0.08063483983278275, 0.023677540943026543, 0.07816778123378754, -0.05067507550120354, -0.16113676130771637], [0.024482108652591705, 0.10382240265607834, -0.012041275389492512, 0.0798334851861, -0.042165227234363556, -0.04651622846722603, 0.005243040155619383, 0.049480464309453964, -0.07461082935333252, -0.07631231099367142, 0.05387284606695175, 0.0330728217959404, 0.009585919789969921, 0.11876416951417923, 0.0743202194571495, 0.03554694354534149, 0.07462058961391449, 0.0231630839407444, 0.08246178925037384, 0.09790704399347305, -0.026662088930606842, 0.09968146681785583, 0.063936248421669, -0.04351384565234184, 0.03982466831803322, 0.05639556422829628, 0.034826382994651794, 0.03384775668382645, -0.08717531710863113, 0.006266007199883461, -0.030082961544394493, -0.005727505777031183, -0.010273358784615993, 0.02738039568066597, -0.060168102383613586, -0.0022305885795503855, 0.04576437175273895, -0.012188601307570934, -0.03306690603494644, 0.07549522072076797, 0.11980711668729782, -0.10618681460618973, 0.045664090663194656, 0.07143434882164001, -0.006577443331480026, -0.06464483588933945, -0.03789990395307541, -0.03701285272836685, -0.07162397354841232, -0.1546645313501358, 0.10201610624790192, 0.048076990991830826, 0.04185103252530098, -0.015247859992086887, 0.032419703900814056, -0.09108190983533859, -0.12558385729789734, -0.03441542759537697, 0.03213696926832199, 0.08169766515493393, -0.09270207583904266, -0.055167168378829956, -0.03371370583772659, 0.08760382235050201, -0.07840371876955032, -0.1034078299999237, 0.01405974943190813, -0.04235606640577316, -0.1320284605026245, -0.005621764808893204, 0.05303780362010002, 0.047326844185590744, -0.18995529413223267, -0.08435516804456711, 0.07242799550294876, 0.014567716047167778, -0.11812292784452438, -0.10557063668966293, 0.09309402853250504, -0.07967901974916458, 0.013253218494355679, 0.04333321377635002, -0.10530227422714233, -0.028592996299266815, 0.04263061285018921, 0.028635825961828232, -0.08091685175895691, -0.06279410421848297, 0.022689439356327057, 0.05401410907506943, 0.12587444484233856, 0.0007594379130750895, -0.017430361360311508, -0.10614706575870514, -0.03979652002453804, -0.04882238060235977, 0.057242218405008316, -0.05375712737441063, 0.09313901513814926, -0.11921080201864243, 0.015573300421237946, 0.006362982094287872, 0.09187833964824677, 0.03306662291288376, -0.03147372603416443, -0.12492290884256363, -0.08537521213293076, 0.030530013144016266, 0.013939055614173412, -0.029626233503222466, 0.08352597057819366, 0.003705384209752083, -0.16012246906757355, 0.08761170506477356, -0.07680848985910416, 0.06658480316400528, 0.016585366800427437, 0.03133999556303024, -0.08892767876386642, -0.01941661164164543, -0.10374588519334793, -0.09364242851734161, -0.06728783249855042, 0.042012229561805725, -0.03768795728683472, 0.013273477554321289, -0.03374313935637474, 0.008100969716906548], [0.07829231023788452, 0.028003662824630737, 0.026859939098358154, -0.005249109119176865, -0.08130118995904922, 0.006937927566468716, -0.04181455820798874, -0.034468721598386765, -0.029935523867607117, -0.06148402392864227, 0.04229787737131119, -0.007247269153594971, 0.0413566492497921, -0.04597964882850647, 0.052163951098918915, 0.07216278463602066, -0.010524973273277283, 0.06287231296300888, -0.06802516430616379, -0.07229685038328171, -0.0789438933134079, -0.0373242162168026, -0.007896728813648224, -0.013923553749918938, 0.04498276859521866, -0.031115923076868057, 0.016490690410137177, 0.05446501821279526, 0.02458157390356064, -0.022390766069293022, -0.0820290818810463, -0.041534390300512314, -0.030823078006505966, -0.0699741542339325, -0.05168679729104042, 0.02115696668624878, -0.03590250760316849, 0.07252684980630875, -0.03294060751795769, 0.05819154530763626, 0.06632386147975922, -0.0636950433254242, -0.014914062805473804, -0.07849844545125961, 0.04106026142835617, -0.07084846496582031, -0.006470220163464546, -0.0024303251411765814, -0.023898907005786896, -0.05790615454316139, 0.06023877486586571, 0.054543979465961456, -0.013303473591804504, -0.053139813244342804, -0.04605812579393387, -0.09388887137174606, -0.0695331022143364, -0.09690628200769424, -0.03139050304889679, -0.050356220453977585, 0.06265469640493393, 0.08501585572957993, -0.02763652801513672, -0.028436772525310516, 0.0014454955235123634, 0.00609559565782547, 0.07343088090419769, 0.03756512701511383, -0.007968464866280556, 0.07891938835382462, -0.02363346889615059, -0.04502490162849426, -0.02472808212041855, 0.055597104132175446, -0.059127382934093475, 0.02646338753402233, -0.06205752491950989, -0.00657401978969574, 0.031110547482967377, 0.07238343358039856, 0.0053195105865597725, -0.08558309078216553, 0.006178274750709534, -0.015316419303417206, -0.07133779674768448, 0.04353230446577072, 0.04492723196744919, 0.04404260963201523, 0.010404568165540695, 0.06841525435447693, 0.0702378898859024, -0.03572967275977135, -0.014683766290545464, -0.012048780918121338, -0.04601640626788139, 0.0830530896782875, 0.047787394374608994, 0.03535311296582222, -0.02327585220336914, -0.059593360871076584, 0.046897731721401215, -0.04528680816292763, -0.07956672459840775, -0.03498286381363869, 0.08684440702199936, -0.025049999356269836, 0.011192835867404938, 0.027790986001491547, 0.03741663694381714, 0.06961294263601303, -0.004752032458782196, -0.08601386845111847, 0.0692889466881752, -0.0631428137421608, -0.03137759119272232, 0.060592301189899445, -0.05137940123677254, -0.03738250210881233, 0.01796344667673111, 0.03171772509813309, 0.044790737330913544, -0.05027831345796585, 0.0010872408747673035, -0.001919410191476345, -0.030123744159936905, 0.04219699651002884, -0.08814176917076111, -0.02539348602294922], [-0.018145017325878143, -0.016305595636367798, -0.07135176658630371, 0.07118687033653259, 0.06664392352104187, 0.0012254416942596436, -0.08143863826990128, -0.0029159560799598694, 0.05942709743976593, 0.08632458001375198, 0.04493533447384834, -0.07336496561765671, -0.06424801796674728, -0.08802931010723114, -0.07377450913190842, 0.0734088197350502, 0.08013737946748734, 0.05575086921453476, -0.04093118757009506, -0.040638718754053116, 0.07112088054418564, -0.04862217605113983, 0.021466843783855438, 0.0005923658609390259, 0.012389346957206726, -0.08523575961589813, 0.02393525093793869, 0.07752449065446854, 0.004413105547428131, -0.08514133840799332, -0.05474931374192238, 0.0681314766407013, -9.091757237911224e-05, 0.03357043117284775, 0.07756797224283218, -0.03982127085328102, 0.08117479830980301, -0.0572359673678875, -0.05283697322010994, -0.08222398161888123, 0.009141459129750729, 0.08792795985937119, -0.06885923445224762, -0.08745437860488892, 0.05688708275556564, -0.08299637585878372, -0.019863974303007126, -0.07260023802518845, 0.07413292676210403, 0.06435412913560867, 0.0233501847833395, -0.0004990599118173122, -0.04725292697548866, 0.0371863916516304, 0.07837104052305222, 0.07429344207048416, 0.0457470566034317, 0.04661349207162857, -0.02103877067565918, -0.08424177765846252, -0.026665110141038895, 0.008248664438724518, 0.019708454608917236, -0.0854291245341301, -0.05271745100617409, -0.025482729077339172, -0.07318331301212311, -0.08445797115564346, -0.0513891763985157, 0.057193875312805176, 0.03393847495317459, -0.022093985229730606, -0.08707990497350693, -0.07595009356737137, 0.07798752933740616, 0.08084060996770859, 0.05073336511850357, -0.007374383509159088, -0.09563028812408447, -0.06326406449079514, -0.013746154494583607, 0.0779317170381546, 0.06721659749746323, -0.01906130090355873, -0.01865246891975403, 0.0037834562826901674, 0.0581444576382637, -0.08443139493465424, 0.007650725543498993, -0.03027944080531597, 0.08365914970636368, 0.023900941014289856, 0.0790981575846672, -0.08040023595094681, 0.059388428926467896, 0.019199177622795105, 0.06832568347454071, -0.051400113850831985, -0.010760481469333172, -0.056649208068847656, -0.013720327988266945, -0.03781421482563019, -0.02187175676226616, 0.02538379281759262, -0.050406575202941895, 0.00021861493587493896, 0.04862551391124725, -0.04915473237633705, -0.08991718292236328, -0.049217432737350464, -0.05136068910360336, -0.060462549328804016, -0.013414055109024048, 0.01062991563230753, 0.002285800874233246, 0.02891676127910614, -0.04650238901376724, 0.01341638807207346, -0.07845655083656311, 0.04871363192796707, 0.055947594344615936, -0.0743958055973053, -0.028796982020139694, -0.0831821858882904, 0.07437015324831009, -0.06372914463281631, -0.05823325365781784, 0.06194383651018143], [-0.08100809901952744, -0.04825527220964432, -0.004012002144008875, -0.030192265287041664, 0.09544308483600616, 0.0016912698047235608, 0.006606235634535551, 0.09256643801927567, -0.11566510051488876, 0.02382107824087143, -0.00958717055618763, 0.04342221841216087, 0.023775240406394005, -0.02556847594678402, 0.015367839485406876, -0.08340470492839813, -0.069639652967453, 0.08358202874660492, 0.00454450910910964, 0.04567703232169151, -0.014235593378543854, 0.019969068467617035, 0.055618900805711746, 0.06146043911576271, 0.0723423883318901, 0.10200569778680801, -0.1334085464477539, -0.0569014698266983, -0.09465716034173965, 0.005593650974333286, 0.025960125029087067, 0.002638799138367176, 0.09629598259925842, 0.14202985167503357, -0.10973155498504639, -0.1055436059832573, 0.07277055829763412, -0.05043669417500496, 0.03848404437303543, 0.06277669966220856, 0.06279172748327255, -0.07772989571094513, -0.008343658410012722, 0.08808673173189163, 0.0588141568005085, 0.03823764622211456, 0.02880055457353592, 0.009430356323719025, -0.09384113550186157, -0.03241482749581337, 0.010851528495550156, 0.03671661391854286, 0.11244815587997437, 0.08214236795902252, -0.03234962746500969, -0.039421021938323975, -0.113481804728508, 0.12274758517742157, 0.020848315209150314, 0.003367613535374403, -0.0002528342301957309, 0.08632449060678482, 0.0008087028982117772, 0.09553936123847961, -0.007957009598612785, -0.11631988734006882, 0.04176155477762222, -0.04024076461791992, -0.10555605590343475, -0.035253167152404785, 0.00012254249304533005, 0.0823134109377861, -0.05211345851421356, -0.08155534416437149, -0.030768726021051407, 0.08728308975696564, -0.08257768303155899, -0.10539595037698746, -0.07377560436725616, -0.0042482721619307995, 0.06074880436062813, 0.1126030758023262, 0.014000010676681995, -0.06384263187646866, 0.0724114328622818, 0.0761810690164566, -0.06415516883134842, -0.008561037480831146, -0.1531970053911209, -0.022848568856716156, 0.09388041496276855, -0.08357565104961395, 0.07229720801115036, -0.07506575435400009, 0.12371870875358582, -0.09782908111810684, 0.04173779860138893, -0.025934971868991852, 0.021072210744023323, -0.17418339848518372, -0.04583233967423439, 0.06653865426778793, 0.04013659805059433, -0.07765877991914749, -0.04980625584721565, 0.044602759182453156, -0.026917411014437675, -0.0024347659200429916, 0.13013982772827148, 0.0004641088889911771, -0.06615184247493744, -0.02729538455605507, -0.15304331481456757, 0.03220530226826668, -0.08128739148378372, -0.06549357622861862, -0.09733998030424118, 0.002526801312342286, -0.11549313366413116, 0.0528503842651844, -0.039885420352220535, -0.07247311621904373, -0.052542537450790405, -0.04661201685667038, -0.04426772892475128, 0.05444805696606636, 0.04297081008553505, 0.012830683030188084], [-0.052365511655807495, 0.05024311691522598, 0.1902812123298645, 0.15749724209308624, -0.034921787679195404, -0.09612573683261871, -0.050721604377031326, 0.021442634984850883, -0.04033822938799858, -0.1682756245136261, 0.11967877298593521, -0.06647633016109467, 0.08387619256973267, 0.08155304193496704, -0.0012106401845812798, -0.031069539487361908, -0.047531016170978546, 0.06878570467233658, 0.08179426938295364, -0.017714709043502808, 0.049650054425001144, 0.07055147737264633, 0.13672979176044464, 0.16193827986717224, 0.12298058718442917, 0.03209184855222702, -0.09927041083574295, 0.010909847915172577, -0.050399161875247955, -0.036178991198539734, 0.0027646825183182955, -0.006975823547691107, 0.07444915175437927, 0.16573907434940338, -0.03538956493139267, -0.11386796832084656, -0.05699742212891579, -0.11985443532466888, -0.12244150042533875, 0.1024487242102623, 0.1502464860677719, -0.07451231777667999, 0.06612029671669006, 0.03270053118467331, 0.06288153678178787, 0.04435659945011139, -0.19198152422904968, -0.007593895308673382, -0.03317173197865486, -0.08203371614217758, 0.1392945796251297, 0.1137690469622612, 0.019040536135435104, 0.04969968646764755, -0.037024520337581635, -0.0894550085067749, -0.13361965119838715, 0.03966708481311798, -0.06587778031826019, 0.1458035558462143, -0.035302914679050446, -0.05573153495788574, -0.16368193924427032, 0.18479280173778534, -0.08755911141633987, -0.21050091087818146, 0.14080289006233215, 0.08053366839885712, -0.1460004299879074, -0.05376054346561432, 0.11809874325990677, 0.1321253776550293, -0.14836838841438293, 0.053618498146533966, -0.08561473339796066, 0.1860169619321823, -0.0321953222155571, 0.008708171546459198, -0.06937459856271744, 0.0950498953461647, 0.08395858854055405, 0.06855318695306778, -0.10297927260398865, -0.024573959410190582, 0.06784198433160782, 0.057793572545051575, -0.06216346099972725, -0.16511236131191254, -0.20504900813102722, -0.02764240652322769, 0.06113822013139725, 0.002442315686494112, 0.11318039894104004, -0.06597178429365158, 0.029973100870847702, 0.06343656778335571, 0.13434238731861115, 0.14194099605083466, -0.02229282632470131, -0.1308164745569229, 0.08759892731904984, 0.022414661943912506, 0.07772830873727798, 0.06733957678079605, 0.05693862587213516, -0.12490630149841309, -0.010355872102081776, 0.05067470669746399, 0.09144235402345657, -0.025148149579763412, 0.04926585406064987, 0.03046651929616928, -0.19166713953018188, 0.19710029661655426, -0.020936546847224236, 0.058112241327762604, -0.0708780288696289, 0.06154848635196686, -0.17191973328590393, -0.1337505578994751, -0.11266673356294632, -0.07669465243816376, -0.04871664568781853, 0.08330976963043213, -0.031282514333724976, -0.030584072694182396, 0.046846337616443634, -0.05045757815241814], [-0.06495698541402817, 0.05572976544499397, 0.03652895614504814, 0.04874452203512192, 0.06626173853874207, -0.12200919538736343, -0.05583901330828667, 0.07996374368667603, -0.1025538370013237, -0.12981316447257996, 0.09959860146045685, -0.04215971380472183, -0.03330548107624054, 0.0893397405743599, -0.03937665745615959, -0.09829723834991455, 0.010505840182304382, -0.03322356939315796, 0.05285916104912758, -0.01904532127082348, 0.05707823112607002, -0.013389886356890202, 0.04474974423646927, -0.03732750937342644, 0.12034406512975693, -0.019381778314709663, -0.009395490400493145, 0.03040364384651184, -0.1167774647474289, -0.02137479931116104, -0.10459574311971664, 0.016318311914801598, 0.1004321500658989, 0.04140351712703705, 0.022536367177963257, -0.022785566747188568, 0.07096576690673828, -0.09583473205566406, 0.03055284544825554, -0.05318106710910797, 0.11827494204044342, -0.07805030792951584, 0.10849476605653763, 0.02070228010416031, 0.08976426720619202, -0.005469943396747112, -0.09290362894535065, 0.018040236085653305, -0.025285445153713226, -0.0822853147983551, 0.03745080530643463, 0.03338044136762619, -0.024805651977658272, 0.08029376715421677, -0.006956095807254314, -0.0009123188792727888, -0.005530762020498514, -0.029979480430483818, -0.0014608007622882724, 0.07937528192996979, -0.09980371594429016, 0.007412470877170563, 0.01902543008327484, 0.010461699217557907, -0.0914275199174881, -0.16666312515735626, 0.05789230018854141, 0.09914052486419678, -0.0010569626465439796, 0.034334972500801086, 0.02708025835454464, -0.03042115643620491, -0.11740197241306305, -0.03542965278029442, -0.018830440938472748, -0.04313291236758232, -0.109977588057518, -0.03318832442164421, -0.024780593812465668, 0.06042485684156418, 0.09808174520730972, 0.11690405011177063, -0.1392054706811905, -0.002207817742601037, -0.004003121517598629, -0.04793627932667732, -0.05130594223737717, -0.15950289368629456, -0.06679646670818329, -0.06941753625869751, 0.11288521438837051, -0.08230438083410263, 0.02943657897412777, -0.013666348531842232, 0.1116628348827362, 0.04943423718214035, 0.09765216708183289, 0.016500329598784447, -0.02041902393102646, -0.05462990328669548, -0.04009384661912918, -0.04244759678840637, 0.017296085134148598, 0.0848068818449974, -0.04682101681828499, -0.1046062484383583, -0.07408804446458817, -0.008978893049061298, -0.007865672931075096, -0.025690598413348198, -0.02235124073922634, 0.038120582699775696, -0.026372259482741356, 0.07034175097942352, -0.05035249516367912, -0.025335058569908142, -0.040470872074365616, -0.04343758523464203, 0.011770945973694324, -0.11944633722305298, -0.1470593512058258, 0.03776957467198372, -0.06585011631250381, -0.02839544788002968, -0.05745112523436546, 0.05868357792496681, -0.07895945012569427, -0.0532175749540329], [0.07114308327436447, -0.0025439057499170303, -0.06660530716180801, -0.04293043911457062, -0.006130099296569824, 0.0009720250964164734, 0.04452439397573471, -0.03248242661356926, -0.022870726883411407, -0.052748214453458786, 0.008506611920893192, -0.020854637026786804, -0.03286910429596901, 0.06253305822610855, 0.0713619738817215, -0.0073014600202441216, 0.008614234626293182, 0.0516197606921196, -0.046364925801754, 0.07549994438886642, 0.06760835647583008, -0.09383416920900345, -0.03709585964679718, -0.016586052253842354, -0.08824324607849121, -0.08848369121551514, -0.09266563504934311, 0.06246443837881088, -0.02706119418144226, 0.054808683693408966, 0.04577924683690071, 0.07575172930955887, -0.09391114115715027, -0.05597405880689621, -0.0057257357984781265, 0.0609196200966835, 0.030920008197426796, -0.006555415689945221, -0.09814076125621796, 0.0783902183175087, 0.014227098785340786, -0.009905551560223103, 0.04913207143545151, -0.05307479202747345, -0.07854755967855453, -0.08169567584991455, -0.06644709408283234, -0.047672614455223083, -0.07330108433961868, 0.0809970572590828, -0.047025978565216064, 0.02257746085524559, 0.04747515171766281, 0.060930829495191574, 0.027091048657894135, -0.001882202923297882, 0.07565010339021683, 0.0632624477148056, -0.04189896211028099, 0.005883756093680859, -0.09743897616863251, -0.021680548787117004, 0.02570280432701111, -0.021969974040985107, -0.07124346494674683, 0.04172951728105545, 0.027866866439580917, -0.07214026898145676, 0.0600687637925148, 0.06087347865104675, -0.08449336886405945, 0.010305662639439106, 0.013677865266799927, 0.018601492047309875, 0.08350446075201035, -0.044243842363357544, 0.05284963920712471, -0.05510350316762924, -0.07022726535797119, 0.01476503536105156, -0.05626393482089043, 0.0058133238926529884, 0.07560271769762039, -0.008198164403438568, 0.04784374311566353, 0.006544156931340694, 0.03660108894109726, -0.0007026279345154762, 0.05112204700708389, -0.05174492672085762, 0.0372285321354866, 0.07793113589286804, 0.009436540305614471, 0.007206102833151817, 0.033327616751194, -0.08468659967184067, -0.09785142540931702, -0.0757341980934143, -0.052143801003694534, -0.0626036524772644, -0.09478061646223068, 0.056722767651081085, 0.07020866870880127, 0.03791353851556778, 0.03530672937631607, -0.08675777912139893, -0.0852179154753685, -0.028768476098775864, -0.014044237323105335, 0.04943283274769783, -0.03594743832945824, 0.010447710752487183, 0.03691687434911728, 0.020270023494958878, -0.06502589583396912, 0.04038279503583908, -0.02891804650425911, -0.05672188475728035, -0.0365908183157444, 0.00392892025411129, 0.04254811257123947, 0.054977897554636, 0.032735563814640045, 0.01681394875049591, 0.01844336837530136, -0.03392484039068222, 0.0010504797101020813, 0.03760233521461487], [-0.06424363702535629, -0.08383037149906158, -0.0955192968249321, -0.05402519553899765, -0.058593861758708954, 0.014665024355053902, 0.06659391522407532, -0.0361565537750721, -0.05266156792640686, -0.0845300704240799, -0.025798363611102104, -0.07218510657548904, 0.024930156767368317, 0.03410588949918747, 0.07172998040914536, -0.07827247679233551, -0.07810106128454208, -0.042168568819761276, -0.013034801930189133, -0.045198798179626465, -0.02105337753891945, 0.03234446793794632, -0.06175881624221802, 0.04885099083185196, -0.030068691819906235, -0.016500480473041534, -0.03205246105790138, 0.0192435160279274, -0.08603926748037338, -0.07025907188653946, -0.03396584838628769, 0.04165860265493393, 0.04355618357658386, 0.036963604390621185, -0.014670075848698616, 0.0819605216383934, 0.07224336266517639, 0.010586472228169441, -0.021962089464068413, -0.07919057458639145, 0.029306478798389435, -0.07142394036054611, -0.05742717161774635, 0.030295372009277344, -0.06742358207702637, -0.0721956193447113, -0.03832129016518593, -0.03524336218833923, -0.06444673240184784, 0.028142742812633514, 0.0075669484212994576, -0.024238426238298416, -0.0632619708776474, -0.0540730357170105, 0.0572122186422348, -0.036500148475170135, 0.001851108856499195, -0.03270157799124718, -0.04717102274298668, -0.024059563875198364, 0.006421881727874279, -0.07820848375558853, -0.06299383193254471, -0.08752092719078064, 0.05872025340795517, -0.06019091606140137, -0.021055687218904495, -0.042439766228199005, -0.08273859322071075, 0.027489177882671356, 0.009309491142630577, 0.059206120669841766, -0.07098695635795593, 0.055954791605472565, 0.0064808279275894165, -0.09675531089305878, -0.008196146227419376, -0.04805286228656769, -0.0011483607813715935, 0.05958724766969681, -0.019075527787208557, 0.07428348809480667, -0.041842054575681686, -0.060756366699934006, 0.03002701699733734, 0.007140914909541607, -0.06159563735127449, 0.020355403423309326, 0.04435180872678757, 0.021447673439979553, 0.05419361591339111, -0.002784314565360546, -0.00891871564090252, -0.064462810754776, -0.009795671328902245, -0.009530776180326939, -0.05058082565665245, 0.06963507831096649, 0.0549112893640995, 0.006540580652654171, -0.03274594992399216, -0.0472659096121788, 0.0343523733317852, -0.003158673644065857, -0.05299406498670578, 0.003882424905896187, 0.03396712988615036, 0.03107248991727829, 0.016747381538152695, -0.026568688452243805, 0.019321031868457794, 0.07263804227113724, 0.02246849238872528, 0.06604690849781036, 0.009432049468159676, 0.06731268018484116, -0.06017673760652542, -0.0484318844974041, -0.07308576256036758, -0.05370398610830307, -0.09470222890377045, -0.022286731749773026, -0.040625736117362976, 0.025563089177012444, 0.018108993768692017, 0.019026681780815125, -0.02081521600484848, 0.06423019617795944], [-0.007012900430709124, 0.07143084704875946, 0.11211355775594711, 0.07228313386440277, -0.05074809119105339, -0.0385376401245594, -0.04398977383971214, 0.11809972673654556, -0.016859978437423706, -0.06645545363426208, 0.12918388843536377, -0.065643809735775, 0.003516863100230694, 0.06448318809270859, 0.05055389180779457, -0.0597531758248806, 0.07678039371967316, -0.012402272783219814, 0.08232767879962921, -0.06110299751162529, -0.010395797900855541, 0.07504266500473022, 0.03481623902916908, 0.054765257984399796, -0.01701626181602478, 0.10420848429203033, -0.12414707988500595, 0.0038045644760131836, -0.06286434829235077, -0.03412412479519844, 0.02066805399954319, -0.04206334799528122, 0.10228333622217178, 0.021784039214253426, -0.05595090612769127, -0.12307489663362503, -0.08978474140167236, -0.1906670778989792, -0.021922625601291656, -0.025389425456523895, 0.016720378771424294, -0.1111498773097992, 0.04001960903406143, 0.1238408163189888, 0.07888152450323105, -0.03728164732456207, -0.07181642949581146, 0.09791059792041779, -0.12251671403646469, -0.081711046397686, 0.07052205502986908, 0.06574132293462753, -0.028873007744550705, -0.014821569435298443, 0.0271028820425272, -0.09365440905094147, -0.029528537765145302, -0.01888127624988556, -0.11188451945781708, 0.07924830913543701, -0.10841379314661026, -0.033098846673965454, -0.05147184804081917, 0.09764815121889114, 0.03813781216740608, -0.18516890704631805, 0.05569466948509216, -0.06337182223796844, -0.08314710110425949, -0.09739420562982559, 0.027770372107625008, 0.05973856523633003, -0.16484510898590088, -0.01100253313779831, -0.06500959396362305, -0.023073170334100723, 0.019546067342162132, -0.0723036602139473, 0.025810839608311653, -0.06896514445543289, 0.10662734508514404, -0.019326915964484215, -0.0018890713108703494, -0.016173385083675385, 0.06105133146047592, -0.03819632902741432, -0.034422848373651505, -0.14718762040138245, -0.08148062974214554, 0.06508689373731613, 0.10629010945558548, 0.04819300025701523, 0.05382780358195305, -0.04589036479592323, 0.012339932844042778, -0.032043490558862686, 0.08724986016750336, 0.0872378945350647, 0.08065635710954666, -0.0723944827914238, -0.03300816938281059, 0.04574776440858841, 0.03328918293118477, -0.07486869394779205, -0.04147283360362053, -0.07073565572500229, -0.11615075916051865, 0.01112532801926136, 0.033986467868089676, -0.026922274380922318, 0.024349242448806763, 0.04683082550764084, -0.11033537983894348, 0.07134507596492767, -0.037659380584955215, -0.013749219477176666, -0.10487595200538635, 0.05283372104167938, -0.020099258050322533, -0.07737328112125397, -0.005385678261518478, 0.003356063039973378, -0.013498072512447834, 0.07901670783758163, -0.08197889477014542, -0.004426316358149052, 0.05059842765331268, -0.07426347583532333], [-0.07928670197725296, 0.012634024024009705, 0.00876588374376297, -0.02580931782722473, -0.02686115726828575, -0.044356174767017365, -0.041050493717193604, 0.05947176367044449, -0.006747975945472717, -0.02669871225953102, -0.07472202181816101, 0.02023071050643921, 0.020864009857177734, -0.06237412989139557, 0.06268122047185898, -0.04306944087147713, -0.08757997304201126, 0.0749838724732399, 0.06653756648302078, -0.03868350386619568, 0.009891152381896973, -0.07058132439851761, 0.02489905059337616, -0.039289187639951706, 0.04727443307638168, -0.008929677307605743, -0.021888189017772675, 0.01755591481924057, 0.034955963492393494, 0.08516838401556015, -0.06505662947893143, 0.05386138707399368, -0.06596577167510986, -0.010009974241256714, 0.008696064352989197, -0.03562876582145691, -0.06025291234254837, 0.086131252348423, 0.06372145563364029, 0.00854480266571045, -0.0807732418179512, 0.03740996867418289, -0.0193253755569458, -0.03210972249507904, 0.037681691348552704, 0.023092247545719147, 0.01629437506198883, 0.08789520710706711, 0.004475995898246765, 0.008075587451457977, 0.06493634730577469, 0.04968259483575821, 0.07803092151880264, 0.02451258897781372, 0.015847280621528625, -0.08343610912561417, -0.030203886330127716, -0.07696778327226639, 0.04961559921503067, 0.06537412852048874, 0.015343651175498962, -0.02848648652434349, -0.0006942227482795715, -0.0696796327829361, -0.0779949426651001, -0.062352247536182404, 0.024769745767116547, -0.023680269718170166, -0.01843360811471939, -0.04163282364606857, -0.07744242250919342, -0.07970739901065826, 0.0017013102769851685, 0.015062801539897919, -0.07277803868055344, -0.036558881402015686, -0.08196774125099182, 0.025441765785217285, 0.0704304650425911, 0.009210780262947083, 0.0608937069773674, 0.03196948766708374, 0.005387745797634125, -0.03731755539774895, -0.06075168773531914, -0.06025777757167816, 0.011777006089687347, -0.006216689944267273, 0.026130005717277527, -0.03340902552008629, 0.08580061048269272, -0.07676365226507187, -0.004851542413234711, -0.04836054518818855, -0.02037743479013443, 0.05951429158449173, 0.04226287454366684, -0.05293554440140724, 0.00962860882282257, 0.07701604813337326, -0.07396680861711502, -0.08118922263383865, -0.016395092010498047, -0.03617199510335922, -0.06313875317573547, 0.07217138260602951, -0.0577540248632431, -0.0801900327205658, -0.07508533447980881, -0.0058026909828186035, 0.03473997116088867, -0.05839810520410538, -0.07893026620149612, 0.035078518092632294, 0.017276853322982788, 0.029948420822620392, -0.06840766966342926, -0.059199027717113495, -0.05735345929861069, 0.03263082355260849, 0.06479799002408981, 0.011567443609237671, -0.0551966093480587, -0.07459893822669983, 0.08632507175207138, 0.0782935842871666, 0.07462132722139359, 0.008141420781612396], [-0.02255680412054062, 0.053537022322416306, 0.03577249124646187, -0.036488525569438934, 0.05188931152224541, -0.051007531583309174, -0.00843103975057602, 0.05326154828071594, -0.017650919035077095, 0.03571992740035057, 0.09590543806552887, 0.09341835230588913, 0.08709525316953659, 0.05364631488919258, -0.050745051354169846, -0.03418021276593208, -0.039692506194114685, 0.024856623262166977, -0.028888683766126633, 0.0798216462135315, 0.044150277972221375, 0.033490557223558426, -0.03253188729286194, -0.057733844965696335, -0.00951199047267437, -0.018393730744719505, 0.012614033184945583, 0.03327932208776474, -0.05522840470075607, -0.05561482906341553, -0.12189772725105286, 0.045559246093034744, 0.014788663946092129, -0.024649711325764656, -0.10789228975772858, -0.1293988972902298, -0.10290474444627762, -0.08838358521461487, -0.05922320485115051, 0.0628090426325798, 0.046950846910476685, -0.1047104150056839, 0.03556453436613083, 0.06910067051649094, 0.00030154205160215497, -0.0035515259951353073, -0.06475254893302917, -0.02521761693060398, -0.09473422914743423, -0.12062111496925354, -0.04843096435070038, 0.07170838862657547, 0.06220255047082901, 0.08239757269620895, -0.03501852601766586, 0.017308613285422325, -0.041982389986515045, 0.032586365938186646, -0.07860139012336731, 0.011383606120944023, 0.009121059440076351, -0.04251378774642944, 0.02033473178744316, 0.09351552277803421, 0.035350900143384933, -0.21728746592998505, 0.04245178401470184, -0.052987731993198395, -0.11029861867427826, 0.004621928092092276, -0.017368316650390625, 0.10155480355024338, -0.042740076780319214, 0.08516591042280197, 0.01052972674369812, 0.02547951228916645, -0.08124606311321259, -0.05233489349484444, -0.05492410436272621, -0.007742053829133511, 0.07277309149503708, 0.001643274212256074, -0.1502491682767868, -0.037390924990177155, 0.02905966155230999, 0.075675368309021, 0.04796251282095909, -0.057714298367500305, 0.03288877755403519, 0.02047962322831154, 0.10740958899259567, 0.0642852783203125, -0.058766789734363556, 0.0012125957291573286, -0.053325045853853226, -0.04237497225403786, 0.10408186912536621, 0.0735045000910759, -0.0016742784064263105, -0.08161987364292145, -0.0030066510662436485, -0.008151568472385406, 0.05906638875603676, -0.028656315058469772, 0.07112278789281845, -0.11273222416639328, 0.009021086618304253, -0.03255324438214302, 0.030752025544643402, -0.14183595776557922, 0.006360326427966356, -0.005792608018964529, -0.13600069284439087, 0.11135018616914749, -0.12130354344844818, -0.03410929813981056, -0.06479046493768692, -0.037366434931755066, -0.13338930904865265, 0.03665465861558914, -0.1249275952577591, -0.0333898589015007, -0.001178256468847394, -0.027254201471805573, 0.00568841677159071, 0.03746211528778076, -0.0232533011585474, -0.12117821723222733], [0.03396894037723541, -0.030712580308318138, -0.00806778110563755, 0.08572570234537125, 0.031195268034934998, -0.11207933723926544, 0.06365098804235458, -3.227533306926489e-05, -0.1547299027442932, -0.05380401015281677, 0.10763444751501083, -0.08369729667901993, 0.10054158419370651, 0.008877371437847614, 0.03178554028272629, -0.11905727535486221, -0.07134551554918289, -0.02447587624192238, -0.06120795011520386, 0.06551358103752136, -0.04632829502224922, 0.046529266983270645, 0.09827234596014023, -0.021711811423301697, -0.04364782199263573, -0.04930253326892853, 0.015925932675600052, -0.07032585144042969, 0.03436693176627159, 0.026431556791067123, -0.08113594353199005, 0.06586550921201706, -0.025884196162223816, -0.010968450456857681, -0.13288331031799316, -0.1217665821313858, 0.01658286340534687, -0.12614183127880096, 0.030868060886859894, -0.025266781449317932, 0.12395640462636948, 0.047255322337150574, 0.06508076936006546, 0.05162009969353676, -0.07488047331571579, -0.020895613357424736, -0.11633063107728958, 0.11929276585578918, -0.0963444635272026, -0.16937200725078583, 0.061874620616436005, 0.09919118881225586, 0.05413200333714485, 0.0006377051468007267, 0.021478470414876938, -0.10101497918367386, -0.08709187060594559, -0.04134303331375122, -0.07441072911024094, 0.0006529025849886239, -0.07485412806272507, -0.01877851039171219, -0.0014855427434667945, 0.058616675436496735, 0.01858053356409073, -0.16474080085754395, 0.05934463441371918, 0.02801109477877617, -0.10820316523313522, 0.04445938766002655, 0.07296827435493469, 0.04061524197459221, -0.13709776103496552, -0.037508219480514526, 0.05414567142724991, 0.016445616260170937, -0.029683098196983337, 0.02010536380112171, -0.07366707175970078, 0.0016813165275380015, 0.062280844897031784, -0.03796758875250816, -0.13006654381752014, -0.00011745285883080214, -0.0036960048601031303, 0.1160753071308136, -0.043962664902210236, -0.1342611461877823, 0.013220828957855701, 0.0705152302980423, 0.07476402074098587, 0.01572827808558941, 0.06174495816230774, -0.033901747316122055, 0.06755651533603668, 0.0651303380727768, -0.041797272861003876, 0.033383630216121674, 0.03246580809354782, -0.12802210450172424, 0.04589838534593582, 0.003102816641330719, -0.022829197347164154, -0.04281967133283615, 0.0873597040772438, -0.027702009305357933, -0.09720779955387115, 0.0021209889091551304, -0.0004913527518510818, -0.08376273512840271, 0.01046079583466053, -0.08530022948980331, -0.08836790174245834, 0.11853153258562088, -0.12932895123958588, 0.07224824279546738, -0.01607116498053074, 0.08876840770244598, -0.08864865452051163, -0.008170170709490776, -0.13387727737426758, -0.031619686633348465, -0.07453876733779907, 0.10998161137104034, -0.07172558456659317, -0.04821757972240448, 0.0072923460975289345, -0.09379246830940247], [-0.013582427054643631, -0.058394014835357666, -0.012372876517474651, -0.016176743432879448, 0.0789872258901596, 0.05348761007189751, -0.04548681154847145, 0.031077804043889046, -0.07180748879909515, -0.030991455540060997, 0.06170011684298515, 0.037004176527261734, 0.00047104305122047663, -0.002200308023020625, -0.008903665468096733, -0.03493684157729149, 0.08030915260314941, -0.07643783092498779, 0.06738068163394928, 0.003266978543251753, 0.05018891766667366, 0.005341478157788515, -0.05945570394396782, 0.1107788011431694, -0.01035059429705143, -0.07268264889717102, 0.027594828978180885, -0.0867653340101242, -0.022171657532453537, -0.06880445778369904, 0.02603510394692421, -0.06394322961568832, 0.018998058512806892, -0.027365591377019882, 0.03613606467843056, -0.01250121183693409, 0.05308832600712776, 0.0072387708351016045, -0.0025427965447306633, -0.05263091251254082, 0.07240746915340424, 0.004629245959222317, 0.01884806714951992, -0.05543354153633118, -0.07969740778207779, 0.004408359527587891, -7.46934674680233e-05, -0.03434382379055023, -0.02400008589029312, -0.0974564179778099, -0.008259743452072144, -0.05306486040353775, 0.02245098352432251, 0.0901322141289711, -0.06750131398439407, 0.021491678431630135, -0.01543730590492487, 0.06311354786157608, -0.0690729096531868, 0.10464321821928024, 0.020986933261156082, 0.0721244290471077, -0.024471642449498177, 0.11085683852434158, -0.032128460705280304, -0.1252562403678894, 0.09530317783355713, 0.05660252273082733, -0.07753823697566986, -0.11227812618017197, -0.04457003250718117, -0.05712457746267319, -0.05591754615306854, -0.05819040536880493, -0.03777667135000229, -0.029061732813715935, -0.11070744693279266, -0.10427497327327728, 0.022218069061636925, 0.025994393974542618, 0.07171912491321564, 0.10780128091573715, 0.0346650592982769, -0.05407188460230827, 0.03692685812711716, -0.010932020843029022, 0.06227080523967743, -0.011833887547254562, -0.13001762330532074, 0.06587487459182739, 0.0932217389345169, 0.041885148733854294, 0.07788924127817154, 0.05036881938576698, 0.05956057831645012, -0.07052989304065704, 0.026215003803372383, 0.0358705073595047, -0.03462038189172745, -0.11074451357126236, -0.012739753350615501, -0.02765936404466629, -0.05137226730585098, -0.04370956867933273, -0.0269656702876091, 0.008404035121202469, -0.05088881030678749, -0.0534617081284523, -0.06184220686554909, -0.01801024004817009, 0.027751395478844643, 0.0674818679690361, -0.10833995044231415, 0.09088250249624252, -0.0048466697335243225, -0.04822049289941788, 0.017438692972064018, 0.04659697413444519, -0.10977034270763397, 0.025851167738437653, -0.014568791724741459, -0.08953916281461716, 0.04357483237981796, 0.08786946535110474, -0.062066804617643356, 0.09650960564613342, -0.020777113735675812, -0.0004976820782758296], [-0.03002607263624668, 0.025281189009547234, 0.0020237418357282877, 0.010047048330307007, -0.016824599355459213, -0.07816597819328308, 0.07403077185153961, 0.07989024370908737, 0.041042260825634, -0.09191077947616577, 0.021046306937932968, -0.04050298407673836, 0.07839491963386536, 0.03870328515768051, -0.05357019230723381, 0.004932686686515808, -0.01735006272792816, -0.10015004873275757, 0.0383615680038929, -0.055417563766241074, -0.0757739320397377, -0.09421714395284653, -0.04211670532822609, 0.01886661909520626, 0.03774401172995567, -0.0097715575248003, -0.07728461921215057, 0.024596229195594788, -0.07454854995012283, -0.007028611376881599, 0.016661323606967926, -0.037525374442338943, 0.06966884434223175, 0.06647802144289017, 0.027127869427204132, 0.015072271227836609, 0.0018162103369832039, -0.04789811372756958, 0.07287811487913132, -0.014686083421111107, 0.06505356729030609, 0.03794198855757713, -0.0664765015244484, 0.0628557801246643, -0.041540056467056274, -0.029269356280565262, -0.01735229790210724, -0.07085242122411728, -0.05884184688329697, -0.039888013154268265, 0.07063653320074081, -0.067705437541008, 0.08078543841838837, -0.027022359892725945, 0.06648005545139313, -0.031442008912563324, 0.017028655856847763, 0.031522639095783234, 0.03019602596759796, 0.0734630823135376, 0.05130508169531822, 0.038957975804805756, 0.056925177574157715, -0.05817442759871483, -0.013722732663154602, 0.024627497419714928, -0.06881874799728394, -0.07016526907682419, -0.02522866427898407, 0.06988295167684555, 0.029698790982365608, 0.010598634369671345, 0.0028565009124577045, -0.012678086757659912, 0.05034928768873215, -0.00908482726663351, -0.05592139810323715, 0.05262599140405655, 0.04390919208526611, -0.038699671626091, -0.01640414446592331, -0.014095460996031761, 0.0598180927336216, 0.06531400978565216, -0.09446047246456146, 0.05108381435275078, 0.08783068507909775, -0.0634344220161438, 0.07890594005584717, -0.045061562210321426, -0.055481936782598495, -0.013303771615028381, -0.06658263504505157, 0.06826175004243851, -0.03808478266000748, 0.06141256168484688, 0.03517980873584747, -0.08719788491725922, -0.04146036133170128, -0.06237473338842392, -0.023616483435034752, -0.03533121943473816, -0.03581796586513519, -0.015249542891979218, 0.06902962177991867, -0.05483100563287735, 0.06659088283777237, -0.002702288329601288, 0.08276420086622238, -0.10997234284877777, -0.06722748279571533, -0.02992512658238411, -0.004846392199397087, 0.0486350916326046, 0.06917767226696014, 0.019777975976467133, 0.06602899730205536, -0.08174951374530792, -0.045000553131103516, 0.029322728514671326, -0.0614539310336113, -0.06985092908143997, -0.006486253812909126, 0.06067846715450287, 0.010677240788936615, -0.019947335124015808, 0.029620395973324776, -0.011870392598211765], [-0.08463475108146667, -0.06950479000806808, 0.00245859706774354, -0.00845848023891449, 0.0015276421327143908, -0.08538620918989182, 0.005277079995721579, 0.02004491724073887, 0.0139581598341465, 0.043749887496232986, 0.06601406633853912, 0.047970645129680634, -0.0633375346660614, 0.006882349960505962, -0.03516019508242607, -0.04191320762038231, 0.033104874193668365, 0.00229586660861969, -0.06697482615709305, 0.05233101546764374, 0.01060408353805542, -0.0632239505648613, 0.07041636109352112, 0.04304791986942291, -0.08990323543548584, -0.04608742892742157, 0.014555245637893677, -0.0003735348582267761, 0.032471273094415665, -0.05279521271586418, -0.0758485347032547, -0.06299640983343124, 0.047774750739336014, -0.021717825904488564, 0.0724823996424675, -0.07181129604578018, -0.005148745141923428, 0.0588420107960701, -0.08274710923433304, 2.4604414647910744e-05, -0.04520672559738159, -0.012147475965321064, -0.022358350455760956, -0.03504829481244087, -0.04103177785873413, 0.053060777485370636, 0.005391052924096584, -0.05697471275925636, -0.06568926572799683, 0.04179522395133972, -0.023406293243169785, -0.08142916113138199, 0.07194893062114716, -0.09514746814966202, -0.09135442972183228, 0.04428789019584656, -0.01326788030564785, -0.043211713433265686, 0.07091812044382095, 0.07080835849046707, -0.03351284936070442, -0.06354065239429474, 0.03644735366106033, 0.02421220764517784, -0.04451887309551239, 0.056663818657398224, -0.054464880377054214, 0.05996590852737427, 0.00425769854336977, -0.01665855199098587, 0.038069479167461395, -0.07231749594211578, -0.03365860879421234, 0.082430399954319, 0.08670829981565475, -0.041281286627054214, -0.00669512152671814, -0.08139746636152267, 0.01254100352525711, -0.062390465289354324, 0.006320633459836245, 0.07208584994077682, -0.011481198482215405, 0.016248203814029694, -0.0325118750333786, 0.03133202716708183, 0.024747267365455627, -0.04048214107751846, 0.007467429153621197, -0.024638785049319267, 0.0688004121184349, 0.04276788979768753, -0.09150973707437515, -0.04809499904513359, 0.06900228559970856, -0.07494501769542694, -0.025632664561271667, 0.07755176723003387, -0.0887535959482193, -0.053429774940013885, 0.04112459346652031, -0.03153160586953163, -0.038597870618104935, 0.07549101859331131, -0.07442061603069305, 0.06466082483530045, 0.06110789254307747, 0.02094806730747223, -0.030133044347167015, -0.09598355740308762, 0.08345735818147659, -0.08222056925296783, 0.07338276505470276, -0.09067639708518982, 0.05794268846511841, -0.00407080352306366, 0.07117258757352829, -0.051768798381090164, -0.06748037785291672, -0.037302929908037186, 0.012388190254569054, 0.02272149920463562, 0.040217600762844086, 0.06573518365621567, 0.0354333221912384, 0.004017964005470276, 0.06365032494068146, 0.06918399035930634], [0.01613394170999527, -0.09636810421943665, -0.025694547221064568, 0.011641246266663074, 0.05944063887000084, 0.014744258485734463, -0.08062110096216202, -0.013058122247457504, 0.0007486939430236816, 0.015237027779221535, -0.08431177586317062, -0.02489917352795601, 0.028760071843862534, -0.05589419603347778, 0.032280050218105316, 0.0490027517080307, 0.010927319526672363, 0.06967799365520477, -0.0595872700214386, -0.08060210198163986, -0.05400189384818077, 0.02075355499982834, -0.01204040739685297, 0.0025823735632002354, -0.047556664794683456, 0.02965589053928852, -0.0428333580493927, 0.024905912578105927, 0.0423615500330925, 0.0642683207988739, 0.01751246117055416, 0.019973941147327423, -0.08713632822036743, -0.013813618570566177, -0.06062745675444603, -0.03867185115814209, 0.033645421266555786, 0.03717559576034546, 0.06729301810264587, -0.06308268755674362, -0.05738452076911926, -0.051135361194610596, 0.05367151275277138, 0.001668448094278574, -0.09528186917304993, 0.0015481500886380672, 0.016261134296655655, 0.019289448857307434, 0.01493343897163868, 0.06799677759408951, -0.025101153180003166, -0.07169404625892639, 0.06586413830518723, 0.010758253745734692, -0.05383821576833725, 0.06156235188245773, 0.008962082676589489, -0.03970523178577423, 0.00966932624578476, -0.008624795824289322, 0.06577643752098083, -0.05457838624715805, -0.03373367711901665, 0.06435495615005493, -0.09170472621917725, 0.06403753161430359, -0.0007550414302386343, -0.009725385345518589, -0.05455460771918297, -0.10131361335515976, -0.07780937850475311, 0.002682505175471306, -0.04613730311393738, 0.007372073829174042, 0.06959035247564316, 0.06764931976795197, -0.07304742932319641, 0.028379645198583603, -0.05054561421275139, 0.07620694488286972, 0.04877203330397606, -0.037514206022024155, -0.04908838868141174, -0.08774906396865845, -0.02839061990380287, -0.06302662193775177, -0.08120349049568176, -0.056868940591812134, 0.05859840661287308, 0.009256955236196518, -0.03536636754870415, 0.054771583527326584, -0.021768931299448013, 0.022414281964302063, 0.04092533141374588, 0.04280342534184456, 0.047843996435403824, -0.023286722600460052, 0.028629658743739128, -0.07511762529611588, -0.031441427767276764, -0.047768764197826385, -0.04930830001831055, -0.037830788642168045, -0.07564151287078857, 0.0053275106474757195, -0.0787128359079361, 0.05727522820234299, -0.07149485498666763, 0.017293371260166168, 0.048469968140125275, -0.05111108720302582, 0.041522249579429626, -0.03323269635438919, -0.07175902277231216, 0.0043195560574531555, -0.024707838892936707, 0.05590520799160004, 0.003048422746360302, -0.03305353224277496, -0.08335158228874207, 0.06920474022626877, -0.0320807583630085, 0.002628512680530548, -0.10976292192935944, 0.00793483853340149, 0.03160201013088226, -0.08969235420227051], [0.011078901588916779, 0.05761147290468216, 0.08187384903430939, 0.019704584032297134, -0.04784025624394417, 0.0003722623223438859, 0.08692388236522675, -0.008974921889603138, -0.03763275220990181, -0.011626450344920158, 0.12672096490859985, -0.041353490203619, 0.11011191457509995, 0.09300465136766434, -0.03237340599298477, 0.02683105692267418, -0.05032506585121155, 0.05115119367837906, -0.053000982850790024, 0.09243591874837875, -0.0743638202548027, -0.005800290033221245, -0.02356838993728161, -0.020675720646977425, 0.025776222348213196, 0.09224804490804672, -0.12055929750204086, -0.014186449348926544, -0.08888184279203415, 0.04230988770723343, 0.038554176688194275, 0.01884334906935692, 0.10222025960683823, 6.973958807066083e-05, 0.0034217853099107742, -0.003195008495822549, -0.07663503289222717, -0.05733255669474602, -0.04448710381984711, 0.0513073205947876, 0.0784899890422821, -0.06851264834403992, 0.12696251273155212, 0.039051420986652374, -0.06611543148756027, 0.036684826016426086, -0.11109939962625504, 0.011735665611922741, -0.11997861415147781, -0.02877618744969368, -0.00830383226275444, -0.029808875173330307, 0.10019545257091522, 0.011849209666252136, -0.041384126991033554, -0.0557558536529541, -0.02329096570611, 0.012311797589063644, 0.019129306077957153, 0.02789359539747238, -0.07085610181093216, -0.02930384874343872, -0.05036675184965134, 0.1343744844198227, -0.10037457197904587, -0.1023552194237709, 0.11687847226858139, 0.07602141052484512, -0.030866891145706177, -0.02659142203629017, 0.08677002787590027, 0.03534266725182533, -0.13879023492336273, -0.06051640212535858, 0.04423191398382187, 0.13709154725074768, 0.038959745317697525, -0.10211560130119324, -0.055791258811950684, 0.005520148668438196, 0.032003253698349, 0.11817160993814468, -0.12592169642448425, -0.005929653532803059, 0.01854059100151062, 0.12477637827396393, -0.07221696525812149, -0.07486742734909058, -0.013933504931628704, -0.0412299744784832, -0.03648233413696289, 0.038863182067871094, 0.04226674139499664, -0.013149178586900234, -0.029835214838385582, -0.024022646248340607, 0.029024338349699974, 0.022379232570528984, -0.026781775057315826, -0.18142180144786835, -0.038747139275074005, 0.024885088205337524, 0.10019595921039581, 0.07666958123445511, 0.050959549844264984, -0.09974324703216553, -0.029910050332546234, 0.008249282836914062, 0.061242468655109406, -0.10193908214569092, -0.029977118596434593, -0.07153820991516113, -0.13668812811374664, 0.12326072156429291, -0.05541269853711128, -0.0015657544136047363, -0.05737067386507988, 0.06995747983455658, -0.09731562435626984, -0.017787769436836243, -0.09777848422527313, -0.06980285048484802, -0.04694265127182007, 0.053009066730737686, 0.045805156230926514, 0.055841658264398575, -0.03715285286307335, -0.022884754464030266], [0.032626114785671234, 0.014655468985438347, 0.03880883380770683, 0.05442999675869942, -0.030607476830482483, 0.06715439260005951, 0.041920825839042664, 0.029079917818307877, -0.01955314725637436, 0.06165372207760811, 0.049976006150245667, 0.07323647290468216, -0.05972696840763092, -0.07482171803712845, 0.0008509978652000427, -0.06180699169635773, -0.030446913093328476, -0.028332127258181572, -0.09173756837844849, 0.02880038134753704, -0.03064732253551483, -0.08733637630939484, -0.0529680959880352, -0.03609437122941017, 0.06307200342416763, -0.016880419105291367, 0.05124901980161667, -0.034481231123209, -0.09162747114896774, -0.04290928691625595, 0.08696439862251282, 0.035387247800827026, 0.038160987198352814, 0.07984104007482529, 0.057823680341243744, 0.04579963535070419, 0.02001664973795414, 0.0973801389336586, 0.007219657301902771, -0.09671998023986816, -0.06612512469291687, 0.03705952689051628, -0.08179144561290741, -0.01583777740597725, -0.04634246602654457, -0.0819551944732666, 0.0659642294049263, 0.06098947674036026, -0.009484559297561646, 0.04076062887907028, 0.009257161989808083, 0.013934374786913395, 0.07574551552534103, 0.02635762095451355, -0.05161157622933388, -0.007749610114842653, 0.00015198998153209686, -0.047544267028570175, 0.016118232160806656, -0.022285044193267822, 0.06894763559103012, -0.026415031403303146, -0.054254863411188126, -0.02700263448059559, -0.06300286203622818, 0.04828962683677673, -0.018382007256150246, -0.06339828670024872, -0.08313765376806259, 0.062072716653347015, -0.08631891012191772, 0.021308166906237602, -0.04291694983839989, 0.007127776741981506, 0.03052348643541336, 0.061492763459682465, -0.011951088905334473, -0.08362526446580887, -0.06860646605491638, -0.031135963276028633, -0.05334283411502838, 0.07474695891141891, -0.04805047810077667, 0.05169809237122536, -0.04552797973155975, 0.011817453429102898, 0.02057459205389023, -0.05613052845001221, 0.019944816827774048, 0.062177710235118866, -0.044953472912311554, 0.02365032583475113, -0.050255320966243744, -0.019122585654258728, -0.07795779407024384, -0.024092739447951317, 0.041055746376514435, -0.0376940481364727, -0.026042699813842773, 0.004462801851332188, -0.07487142831087112, -0.04594794660806656, -0.014432910829782486, 0.07775721698999405, -0.02888944000005722, -0.038953498005867004, 0.026673372834920883, 0.016536787152290344, -0.0750601589679718, 0.005823628976941109, 0.029561202973127365, -0.042544059455394745, -0.028675375506281853, 0.056620627641677856, 0.006734966300427914, -0.07381679117679596, -0.021074872463941574, -0.05538076534867287, -0.0856056660413742, 0.04791652411222458, 0.056122273206710815, 0.008953750133514404, -0.07854538410902023, 0.02516988292336464, 0.04868937283754349, 0.0325479656457901, 0.039465516805648804, 0.05755221098661423], [-0.023623712360858917, -0.0013623049017041922, 0.08279788494110107, 0.020864274352788925, -0.008176957257091999, -0.06521019339561462, -0.004733094479888678, 0.0380193367600441, -0.12997634708881378, -0.03303692489862442, 0.1369604766368866, 0.03239814564585686, 0.08455029875040054, 0.10656394064426422, -0.006904722657054663, -0.10038895159959793, -0.0634237676858902, 0.052988551557064056, 0.027279343456029892, 0.041692741215229034, -0.06055105850100517, 0.10492091625928879, 0.04343526065349579, 0.10965321213006973, 0.011732148937880993, 0.07609536498785019, -0.14568690955638885, -0.01905759423971176, -0.024530678987503052, -0.05722423642873764, 0.0017867053393274546, 0.08058883994817734, 0.06551451236009598, 0.13932250440120697, -0.03927818313241005, -0.19207598268985748, -0.04105269908905029, -0.06758024543523788, -0.08947540074586868, 0.01657678559422493, 0.10628098994493484, 0.012082375586032867, 0.014150058850646019, 0.15948736667633057, 0.038207121193408966, 0.000763476244173944, -0.06904678791761398, 0.10667972266674042, -0.18527129292488098, -0.05416208133101463, 0.00689105736091733, 0.011262987740337849, 0.0086988415569067, 0.028756259009242058, 0.037214819341897964, -0.18038415908813477, -0.022068286314606667, 0.08318677544593811, -0.13701753318309784, 0.00890572089701891, -0.1257467418909073, -0.04784056171774864, -0.08219091594219208, 0.12431316822767258, -0.04831390827894211, -0.2402019053697586, 0.14761266112327576, -0.03291412815451622, -0.22808583080768585, 0.03139946609735489, 0.050228774547576904, 0.006966634653508663, -0.22903841733932495, -0.07246430963277817, 0.037554241716861725, 0.03558606281876564, 0.008373145014047623, -0.12147089838981628, -0.053386930376291275, 0.04923044517636299, -0.027424389496445656, 0.04756765067577362, -0.028424151241779327, -0.14646902680397034, 0.032858751714229584, -0.004965008236467838, -0.006084251217544079, -0.15949316322803497, -0.13913846015930176, 0.11564268916845322, 0.07861286401748657, -0.09489542990922928, -0.018927820026874542, -0.146831214427948, 0.13364072144031525, 0.0024814310017973185, 0.04020035266876221, 0.09929610788822174, 0.07703682035207748, -0.21837230026721954, 0.11388485878705978, 0.05243838578462601, -0.01563945785164833, 0.06883049756288528, -0.04514731466770172, -0.05656413733959198, -0.11108049750328064, -0.04837622120976448, 0.06076238676905632, -0.08486303687095642, -0.05591648072004318, 0.0399361290037632, -0.13584542274475098, 0.027448244392871857, 0.011134829372167587, -0.025617003440856934, -0.12087559700012207, 0.08278866112232208, -0.14417585730552673, -0.06683581322431564, -0.09317032247781754, 0.01155801396816969, 0.0564751923084259, 0.12560486793518066, -0.05644278600811958, -0.08525749295949936, 0.04312441870570183, -0.14133726060390472], [0.061470020562410355, 0.01839100755751133, 0.06940735131502151, 0.09405317157506943, 0.08283817023038864, 0.002879416337236762, -0.05671975016593933, 0.13768179714679718, -0.03859969228506088, -0.059770096093416214, 0.035215310752391815, 0.01858516037464142, 0.0714646652340889, -0.015701880678534508, 0.011744304560124874, -0.042821452021598816, 0.06674908846616745, -0.0023048664443194866, -0.009647928178310394, 0.007850444875657558, 0.04102780669927597, 0.0015969807282090187, -0.025504421442747116, 0.055747002363204956, -0.012828126549720764, 0.007546721026301384, -0.12158756703138351, -0.07014796882867813, -0.026418477296829224, -0.039384566247463226, -0.04214564338326454, 0.07290004938840866, 0.0023648615460842848, 0.027077605947852135, -0.018521199002861977, -0.03912713751196861, 0.03941657766699791, -0.13561755418777466, 0.013745995238423347, 0.040703848004341125, 0.04534871131181717, -0.09314274042844772, 0.08834004402160645, -0.0029862341471016407, 0.043529197573661804, 0.06707905232906342, 0.02657410502433777, 0.10954436659812927, -0.060054779052734375, -0.11934228241443634, 0.1203751266002655, -0.0016699046827852726, 0.0641571655869484, 0.06314540654420853, 0.026689276099205017, -0.07777027040719986, 0.019090721383690834, 0.07502289116382599, 0.03988717123866081, 0.02017703838646412, -0.016109032556414604, -0.08048035204410553, -0.12259089946746826, 0.09550119936466217, 0.01881076954305172, -0.1271466165781021, 0.04158450663089752, 0.09406840056180954, -0.13531562685966492, 0.04668730869889259, 0.12785334885120392, 0.12319943308830261, -0.17946217954158783, 0.04047825187444687, 0.0623597577214241, 0.09855370223522186, -0.0808778777718544, -0.07055544853210449, 0.03361184522509575, -0.06002102792263031, -0.014173552393913269, 0.1483529657125473, -0.08840678632259369, -0.11964219808578491, 0.027070539072155952, 0.1102285385131836, -0.06743033230304718, -0.05746854096651077, -0.08645213395357132, 0.11335782706737518, 0.08089804649353027, 0.004610593430697918, 0.10550209879875183, -0.11038557440042496, 0.12766383588314056, -0.04676133766770363, 0.13851583003997803, 0.015032194554805756, -0.02699330449104309, -0.06369740515947342, -0.027220163494348526, -0.0026507973670959473, -0.020045386627316475, -0.005366474390029907, 0.0859515592455864, -0.13153418898582458, -0.0026633485686033964, 0.020374653860926628, 0.06013873219490051, -0.008007621392607689, -0.0631064623594284, -0.04263406619429588, -0.05348552018404007, 0.13646332919597626, -0.1855057328939438, -0.030407022684812546, -0.030203338712453842, -0.037026431411504745, -0.10559940338134766, -0.07509934902191162, -0.11104495078325272, -0.06697891652584076, -0.1047271117568016, 0.10455294698476791, 0.057292912155389786, 0.07741766422986984, 0.06272664666175842, -0.12747623026371002], [-0.07486565411090851, -0.08555833250284195, -0.013430178165435791, -0.02924828976392746, -0.07897672057151794, 0.008954890072345734, 0.04917267709970474, 0.041116125881671906, -0.07635927945375443, -0.07710054516792297, 0.05777161568403244, -0.011626176536083221, -0.04737596586346626, 0.04496372491121292, -0.07755478471517563, -0.018795788288116455, 0.0014239698648452759, -0.07937569916248322, -0.06512543559074402, 0.08728484064340591, 0.03506302833557129, 0.02875388413667679, -0.027243323624134064, -0.005381427705287933, 0.004199214279651642, -0.051806189119815826, 0.05049877613782883, 0.03603615611791611, -0.07643269747495651, 0.017700515687465668, -0.000738285481929779, -0.01257287710905075, 0.06468207389116287, -0.02873479202389717, -0.0879351943731308, -0.06431013345718384, -0.07090820372104645, -0.06476552039384842, -0.011110253632068634, 0.034971147775650024, -0.011055760085582733, 0.03765370696783066, -0.080922931432724, -0.03915257751941681, -0.06350395083427429, -0.08443422615528107, 0.06362318247556686, -0.06486020982265472, 0.05672619491815567, -0.03999314457178116, -0.04112286865711212, -0.058127038180828094, 0.01724199205636978, 0.0005024001002311707, 0.015922769904136658, -0.006233200430870056, 0.01637812703847885, 0.004620462656021118, -0.0710250586271286, -0.02233051508665085, 0.03902784734964371, -0.021700382232666016, -0.030068866908550262, 0.030328527092933655, -0.042959071695804596, -0.01902720332145691, 0.06682493537664413, -0.0004755929112434387, -0.00345456600189209, 0.00029999762773513794, -0.08014708012342453, 0.040906064212322235, -0.009325958788394928, 0.05945279449224472, -0.05553567782044411, 0.0016096606850624084, -0.007488355040550232, 0.06764384359121323, -0.07259317487478256, -0.012403585016727448, 0.017422430217266083, -0.06904240697622299, -0.06898445636034012, -0.009173296391963959, 0.05701170116662979, -0.05216845124959946, -0.061166729778051376, 0.0845121517777443, -0.07387512177228928, -0.006659075617790222, -0.06453682482242584, -0.029844678938388824, 0.024016045033931732, 0.04122918099164963, 0.0672391727566719, -0.08546800166368484, 0.03687389940023422, -0.01930972933769226, 0.0452994629740715, -0.05248866230249405, 0.07862970978021622, -0.041449010372161865, -0.08689755201339722, 0.007428400218486786, 0.025567278265953064, 0.07065663486719131, 0.018500640988349915, -0.06344705075025558, -0.04782658815383911, -0.0803130641579628, -0.023432254791259766, -0.07395295798778534, -0.0009284317493438721, 0.009010650217533112, 0.049415700137615204, 0.08259560912847519, -0.08048126101493835, 0.020202599465847015, 0.011833220720291138, 0.039367206394672394, 0.050854288041591644, 0.00011230260133743286, 0.06632690876722336, -0.06500813364982605, 0.08030382543802261, -0.04469683766365051, -0.007030703127384186, 0.08307389169931412], [-0.07005391269922256, 0.07399032264947891, -0.01045267004519701, 0.07052480429410934, 0.04248911514878273, 0.034734487533569336, 0.05668925121426582, -0.034581005573272705, -0.1510993242263794, 0.003969031386077404, 0.12782740592956543, -0.04517906904220581, 0.04561583325266838, 0.09161223471164703, 0.047791630029678345, -0.04358668625354767, 0.014249203726649284, -0.06355501711368561, -0.058907076716423035, 0.08968053013086319, 0.02782163955271244, 0.10201627016067505, 0.0832902193069458, 0.0251314714550972, -0.026375368237495422, 0.012541426345705986, -0.1048845648765564, 0.06667161732912064, 0.0276923980563879, -0.004940536338835955, -0.06998980790376663, -0.0329110249876976, 0.06517750769853592, -0.02297535538673401, -0.038231492042541504, -0.04061633348464966, 0.008098187856376171, -0.09564599394798279, -0.07942630350589752, -0.005026090890169144, -0.021926533430814743, -0.047404784709215164, 0.02541438117623329, 0.025736158713698387, 0.008706680499017239, 0.009830246679484844, -0.10102403908967972, 0.031998150050640106, -0.017784358933568, -0.03728676214814186, -0.026900187134742737, -0.012278025969862938, 0.0636516883969307, 0.09137243032455444, 0.02795224077999592, -0.06767769902944565, -0.05323023721575737, 0.1191272884607315, -0.05558891221880913, -0.020244350656867027, -0.06166175752878189, -0.0750725120306015, -0.12602567672729492, 0.04580521583557129, 0.04418284818530083, -0.2657671570777893, 0.07140559703111649, 0.008497812785208225, -0.14991410076618195, 0.024670016020536423, 0.07713695615530014, 0.001963596325367689, -0.04986412450671196, 0.06888369470834732, 0.03454001247882843, 0.0020261043682694435, -0.09537778794765472, -0.011624534614384174, 0.062070492655038834, -0.09255626052618027, 0.008261739276349545, 0.06785810738801956, 0.005788739304989576, -0.13187570869922638, 0.041539017111063004, 0.05507989600300789, 0.031988438218832016, -0.05639834702014923, -0.013574018143117428, 0.09909457713365555, 0.023528996855020523, 0.005616521462798119, -0.04748699069023132, -0.05401705950498581, -0.047890063375234604, 0.04714968055486679, 0.004653672222048044, 0.06899221241474152, -0.046465542167425156, -0.15778754651546478, 0.07232757657766342, 0.02149491012096405, 0.01041998341679573, -0.04702158272266388, -0.03633078187704086, -0.07197971642017365, -0.07005073130130768, -0.07170276343822479, 0.12767213582992554, 0.03271262347698212, -0.0028304713778197765, 0.011484140530228615, -0.004315497353672981, -0.005067710764706135, 0.024962231516838074, 0.03752443939447403, -0.042517077177762985, 0.06940874457359314, -0.06756105273962021, -0.020450398325920105, -0.03534463793039322, 0.04463948309421539, 0.039030566811561584, -0.052670203149318695, 0.05535676330327988, -0.07334845513105392, 0.01610739715397358, -0.12400370836257935], [0.05778704956173897, -0.03825772553682327, 0.033764082938432693, 0.007206255570054054, 0.06922796368598938, -0.0999072715640068, -0.017699014395475388, 0.03986747935414314, -0.11599813401699066, 0.01541865523904562, -0.04082852229475975, -0.04769323766231537, 0.04475902393460274, 0.030567659065127373, -0.09675860404968262, 0.0035655885003507137, 0.06030604988336563, 0.0773034542798996, 0.02305082604289055, 0.061497464776039124, -0.008059663698077202, -0.009087981656193733, 0.11772461980581284, 0.03515475615859032, -0.025834044441580772, -0.03168826177716255, -0.028091058135032654, -0.050751831382513046, -0.08181363344192505, -0.017992936074733734, -0.005904180463403463, 0.06624247133731842, 0.04977690055966377, 0.002770016435533762, -0.03538383170962334, -0.11746255308389664, 0.0602472648024559, -0.16444319486618042, -0.07666736096143723, 0.07453539222478867, 0.08818616718053818, -0.1126825213432312, -0.020043281838297844, 0.002574465936049819, 0.007211081217974424, 0.0797995999455452, -0.009767180308699608, 0.0507928729057312, -0.08863316476345062, -0.1229519248008728, 0.08339706808328629, -0.013323364779353142, 0.1081993356347084, 0.11646872013807297, -0.014787264168262482, -0.06859320402145386, -0.06528604030609131, 0.10141798853874207, -0.011665284633636475, 0.05001651868224144, -0.11103729903697968, -0.0343412309885025, -0.12386641651391983, -0.008968857116997242, -0.07633361220359802, -0.23144474625587463, 0.11389482766389847, 0.09267494082450867, -0.09668433666229248, -0.11609064042568207, 0.02767459861934185, 0.09705521911382675, -0.12432414293289185, 0.007282525300979614, -0.042093414813280106, 0.1109803095459938, -0.09793873131275177, -0.12108387798070908, -0.07793009281158447, 0.08125333487987518, 0.08791439980268478, 0.12417943775653839, -0.07027344405651093, -0.03694671764969826, 0.007316569332033396, 0.06273546814918518, -0.04512866213917732, -0.08778887987136841, -0.03759121149778366, -0.03279959410429001, 0.11832065880298615, -0.024173209443688393, -0.06093669682741165, -0.045100513845682144, 0.09154808521270752, -0.028698915615677834, 0.07277131825685501, 0.10158165544271469, 0.06469956040382385, -0.04495762661099434, 0.04713163152337074, -0.004198029637336731, 0.04724839702248573, -0.007058203220367432, -0.07361868023872375, 0.025761369615793228, 0.00981580838561058, -0.09018214792013168, 