{"SEQL.0.weight": [[0.3884848654270172, 0.6037371158599854, 0.20949330925941467, -0.35296952724456787], [0.2703826427459717, 0.07897929847240448, 0.4839373528957367, -0.10574164986610413], [0.24906833469867706, -0.026757454499602318, -0.386392742395401, -0.45780235528945923], [0.10210706293582916, 0.07978454977273941, 0.18019166588783264, -0.5405641794204712], [0.14761871099472046, -0.22635023295879364, 0.17389951646327972, -0.3222340941429138], [0.5619109272956848, -0.3251728117465973, 0.16159385442733765, -0.34894266724586487], [-0.13201512396335602, -0.07421845197677612, 0.5768121480941772, 0.3093864321708679], [-0.10521364212036133, -0.8030449748039246, 0.16439668834209442, 0.1780872941017151]], "SEQL.0.bias": [0.40090954303741455, 0.9250873923301697, -0.19713322818279266, 0.3156011700630188, 0.8549410104751587, 0.8589149713516235, 0.5639275312423706, 0.2901526093482971], "SEQL.2.weight": [[0.3663369119167328, 0.4587458372116089, -0.16980919241905212, 0.10349606722593307, 0.5408636331558228, 0.3292992115020752, 0.6330502033233643, 0.6772192716598511], [-0.4180833697319031, 0.02189444936811924, 0.02758502960205078, -0.12567314505577087, -0.2522965371608734, -0.18532603979110718, -0.020204830914735794, 0.21872268617153168], [0.44568005204200745, 0.4364803433418274, -0.37276050448417664, 0.5114023089408875, 0.603943943977356, 0.3456101715564728, 0.5986867547035217, 0.43189749121665955], [0.7045099139213562, 0.5059857368469238, -0.2889941334724426, 0.5675779581069946, 0.5740327835083008, 0.681637167930603, 0.5468902587890625, 0.6757718324661255], [0.15955033898353577, -0.23586291074752808, -0.05692651867866516, 0.14488565921783447, -0.2151593565940857, -0.06961444020271301, -0.1332925707101822, -0.1602945774793625], [0.3401666283607483, 0.36236441135406494, -0.14868910610675812, 0.15715622901916504, 0.632071852684021, 0.7218518853187561, 0.5182194113731384, 0.7016962170600891], [0.4365721642971039, 0.6901615262031555, 0.03126794099807739, 0.22621750831604004, 0.48463720083236694, 0.2132994681596756, 0.6858777403831482, 0.5263099670410156], [0.15430761873722076, 0.44251516461372375, -0.3531666696071625, 0.391336053609848, 0.5334354639053345, 0.6677659749984741, 0.49127498269081116, 0.5523589849472046]], "SEQL.2.bias": [0.6591348648071289, 0.24312619864940643, 0.6090039610862732, 0.22253020107746124, -0.13607455790042877, 0.6227598786354065, 0.03250085934996605, 0.46206119656562805], "SEQL.4.weight": [[-0.20676426589488983, 0.14403888583183289, -0.003462374210357666, -0.23552155494689941, 0.28824707865715027, 0.08466413617134094, -0.3316895067691803, 0.3233390748500824], [0.13158491253852844, -0.22515448927879333, -0.2770926058292389, 0.286292165517807, 0.2680089771747589, -0.29675236344337463, -0.2264036387205124, -0.06665608286857605], [0.7385896444320679, -0.08242897689342499, 0.5531126856803894, 0.6913551688194275, 0.1998327076435089, 0.7159854769706726, 0.19805173575878143, 0.30304035544395447], [-0.002959814388304949, 0.18973301351070404, 0.11137929558753967, 0.21556231379508972, -0.06571030616760254, -0.3550124168395996, 0.0016245543956756592, -0.3503318727016449], [-0.22230619192123413, 0.16104944050312042, 0.2381291538476944, -0.1264522671699524, 0.24146327376365662, -0.0696786567568779, -0.08026186376810074, 0.08389823138713837], [0.3570384085178375, -0.31493470072746277, 0.35145026445388794, 0.3449135720729828, 0.2526644170284271, 0.07498453557491302, 0.6349214315414429, 0.5159150958061218], [0.28424736857414246, -0.33719879388809204, 0.5609986782073975, -0.09357283264398575, 0.33575698733329773, 0.1083778589963913, 0.5143796801567078, 0.4373158812522888], [0.7304783463478088, -0.16575050354003906, 0.592783510684967, 0.7217735648155212, 0.26843371987342834, 0.7437577843666077, 0.4327161908149719, 0.6363601684570312]], "SEQL.4.bias": [-0.08756223320960999, -0.3253103196620941, 0.1862768530845642, 0.000593711796682328, -0.0006997325108386576, 0.0905684381723404, 0.13836078345775604, 0.27906104922294617], "SEQL.6.weight": [[-0.17583057284355164, -0.10782580077648163, 0.6538448333740234, 0.25155338644981384, -0.04597869887948036, 0.36093589663505554, 0.4013192653656006, 0.34423762559890747], [-0.15931828320026398, -0.2266758233308792, 0.26144644618034363, -0.25401970744132996, -0.25537410378456116, 0.5073570609092712, 0.5091403126716614, 0.5680451393127441]], "SEQL.6.bias": [0.9912128448486328, 1.1185822486877441]}