{"SEQL.0.weight": [[0.1465715914964676, 0.11024458706378937, 0.8443685173988342, 0.6246330142021179], [-0.25166386365890503, 0.6153927445411682, 2.4159460067749023, 1.1819161176681519], [0.19533587992191315, -0.0766645297408104, -0.3177136480808258, 0.4119991660118103], [-0.5870044231414795, 0.681545078754425, 1.1933706998825073, -0.0392339825630188], [-0.5091162919998169, 0.7043671011924744, 2.7500312328338623, 0.9944083094596863], [-0.13497209548950195, 0.8760088682174683, 1.5860166549682617, -0.34512898325920105], [-0.22111719846725464, 0.49488306045532227, 0.8974161744117737, 0.5901505947113037], [0.8673979043960571, -0.07913535833358765, -2.9156408309936523, -1.2043201923370361], [0.05615295469760895, 0.41907766461372375, 0.6738343238830566, 0.39426979422569275], [-0.3205845057964325, -0.2924845218658447, 0.3670545816421509, -0.2530418038368225], [0.4516473412513733, -0.7494571805000305, -2.4212899208068848, -1.210133671760559], [-0.8383640050888062, 0.6650470495223999, 2.59134840965271, 0.8548074960708618], [0.49360713362693787, -0.22150734066963196, 0.3359081745147705, 0.24497584998607635], [0.3067168593406677, -0.3857971429824829, -0.5357850193977356, -0.3530886769294739], [0.6916060447692871, -0.010994670912623405, -2.5749332904815674, -0.5945658087730408], [0.1232834905385971, -0.12933115661144257, -3.0538816452026367, -0.8398703336715698], [-0.3394261598587036, 0.6761670708656311, 1.013327717781067, -0.05876133218407631], [0.12204351276159286, -0.10692006349563599, -2.6096975803375244, -0.8297858238220215], [0.11890440434217453, 0.17335328459739685, 0.23460187017917633, 0.16971193253993988], [0.011294310912489891, -0.11966824531555176, -2.733287811279297, -1.0366765260696411], [-0.5535827875137329, 0.6861839890480042, 1.9951400756835938, 1.236169457435608], [-0.49893996119499207, 0.6657574772834778, 2.2034356594085693, 1.14915132522583], [0.1971321702003479, -0.270698606967926, -1.0978938341140747, -0.7616595029830933], [0.47453078627586365, -0.346763551235199, -0.8930919766426086, -0.6688287854194641], [-0.8592591881752014, 0.15633924305438995, 2.8453569412231445, 0.8361248970031738], [-0.8732829689979553, -0.016274863854050636, 2.499241828918457, 1.0756500959396362], [-0.001239483943209052, 0.4047303795814514, 2.9241530895233154, 1.2233163118362427], [0.6945359706878662, 0.1540861576795578, -2.0246505737304688, -0.7139272093772888], [0.5152783393859863, -1.0099012851715088, -0.5775240659713745, -0.10866842418909073], [0.43422821164131165, 0.05984599515795708, -0.5727225542068481, -0.0063756476156413555], [-0.18568241596221924, 0.20867465436458588, -0.4361496865749359, -0.21920472383499146], [0.34946680068969727, -0.6621250510215759, -0.7356506586074829, -0.0008755741873756051], [1.0643442869186401, -1.227254033088684, -4.7500810623168945, -3.1154673099517822], [0.08528924733400345, 0.13792555034160614, 0.5414432287216187, -0.3997478187084198], [-0.19038940966129303, 0.8760131001472473, 1.3478347063064575, -0.23456349968910217], [0.43152719736099243, -0.6611317992210388, -2.6387524604797363, -1.1916251182556152], [0.058023009449243546, -0.9897601008415222, -1.1580959558486938, 0.2683953642845154], [0.8901129364967346, -0.16516871750354767, -3.0524752140045166, -1.0879157781600952], [0.15298114717006683, -0.024782853201031685, -0.01570924185216427, 0.18839842081069946], [0.2913587987422943, 0.5420235395431519, 0.19880901277065277, 0.2196604162454605], [0.6149027347564697, -0.037756096571683884, -2.945183277130127, -1.3292474746704102], [-0.015576380304992199, 0.5001565217971802, 0.37298810482025146, 0.3815460205078125], [-0.4198143482208252, 0.19727665185928345, 2.2972822189331055, 0.9309483170509338], [0.5741199254989624, -0.30290183424949646, -3.207716703414917, -1.368651032447815], [0.02184516377747059, 0.1906435638666153, 2.6440951824188232, 0.6094318628311157], [-0.05691077187657356, 0.21240167319774628, 2.660176992416382, 0.735593318939209], [-0.9446246027946472, 0.26217570900917053, 2.5285446643829346, 1.0108312368392944], [-0.11207178980112076, -0.12120798975229263, -2.586148977279663, -0.851167619228363], [0.4284888803958893, -0.95099937915802, -1.2850561141967773, 0.4259622395038605], [-1.0212230682373047, 0.1733953356742859, 2.5597190856933594, 1.3138427734375], [-0.19257766008377075, 0.2516627609729767, -0.07042725384235382, -0.5775488018989563], [0.5961129665374756, -0.5228374004364014, -3.76409649848938, -2.0051848888397217], [0.23606815934181213, -0.4588170051574707, -0.14395244419574738, 0.18955650925636292], [0.1691223680973053, 0.2113807499408722, 0.2966412901878357, -0.3002144992351532], [0.17230641841888428, 0.560215950012207, 0.5628929138183594, 0.06807125359773636], [-0.5525295734405518, 0.31065040826797485, 0.5195363163948059, 0.7143306732177734], [-0.4166354537010193, 0.48857471346855164, 0.9038589596748352, 0.5157358646392822], [0.44195348024368286, -1.0926175117492676, -1.4025214910507202, 0.25790882110595703], [-0.031363241374492645, 0.3880457878112793, -0.1429687738418579, 0.0814494788646698], [-0.5100947022438049, -0.11257795989513397, 0.79537034034729, -0.14653180539608002], [-1.0017277002334595, 0.2813583314418793, 2.494692802429199, 1.1567848920822144], [-0.3850327730178833, 0.11458001285791397, 0.4238787889480591, -0.36245009303092957], [0.015574510209262371, -0.2572149634361267, -2.973022937774658, -1.075858473777771], [-0.2346380054950714, 0.607474148273468, 2.761193037033081, 1.2026097774505615], [-0.3432566225528717, 0.840701162815094, 1.460019588470459, -0.36668455600738525], [-0.05597320571541786, -0.09152744710445404, -1.931321620941162, -0.7349406480789185], [0.4256439805030823, -0.45816153287887573, -0.02026853896677494, 0.1921069324016571], [0.2264155149459839, -0.20258945226669312, 0.3984045386314392, -0.08898943662643433], [0.46654391288757324, -0.45902758836746216, -1.1494663953781128, -0.879818320274353], [0.5064667463302612, -0.18630613386631012, -0.30875569581985474, 0.10701997578144073], [0.20759274065494537, 0.16298456490039825, 0.6247427463531494, 0.4915510416030884], [0.026382481679320335, -0.4598149359226227, 0.08063261210918427, 0.03555694967508316], [0.034666817635297775, 0.504258930683136, -0.20471738278865814, -0.339663028717041], [-0.6194272041320801, 0.2777898609638214, 0.822929322719574, -0.1990201473236084], [0.46305161714553833, 0.09353578090667725, -1.0105791091918945, -0.31755000352859497], [0.4060298800468445, -0.17543034255504608, 0.4319460093975067, 0.07787786424160004], [-0.5054325461387634, 0.44450029730796814, 0.6382586359977722, -0.0680573582649231], [-0.1947249472141266, -0.07742729783058167, 0.366719126701355, 0.3622473478317261], [-0.4939999580383301, 0.29750698804855347, 0.5878724455833435, 0.6830754280090332], [-0.27027326822280884, 0.4689355790615082, -0.405599981546402, 0.32753482460975647], [-0.06057228147983551, -0.43915438652038574, -0.8838200569152832, 0.22059527039527893], [0.07759793847799301, 0.26217374205589294, 0.051121026277542114, -0.235450878739357], [-1.0151071548461914, 0.4188520610332489, 3.42204213142395, 1.2789939641952515], [-0.379732221364975, 0.30715128779411316, 0.37255164980888367, 0.6375197172164917], [0.38287264108657837, -0.09544050693511963, -0.5697048306465149, -0.6863608360290527], [0.7749733924865723, -0.32071784138679504, -2.739996910095215, -1.0669580698013306], [-0.08365517109632492, 0.22225899994373322, 2.6915855407714844, 1.009434700012207], [0.2007567286491394, 0.03246959671378136, 0.9486415982246399, 0.17264661192893982], [0.3802504241466522, -0.5466663837432861, -1.9806536436080933, -1.101979374885559], [-0.5681902170181274, 0.24496684968471527, 0.7548118829727173, 0.3363545835018158], [0.4677000641822815, -0.7324379682540894, -2.865842580795288, -1.3218803405761719], [-0.1391335278749466, 0.5434872508049011, 2.039154529571533, 1.0887459516525269], [-0.05981121584773064, 0.3643372058868408, -0.1250704675912857, 0.4542570114135742], [0.44604504108428955, -0.42466577887535095, 0.19016286730766296, -0.131979838013649], [-0.2598409056663513, 0.41486498713493347, 2.6188642978668213, 1.0281956195831299], [-1.0732108354568481, 0.20713450014591217, 2.3954086303710938, 0.7535839080810547], [-0.01896444894373417, 0.2822038233280182, 2.850557327270508, 1.1995925903320312], [0.39959046244621277, -0.4639362692832947, 0.20222055912017822, 0.42240628600120544], [0.5067234039306641, -0.4709326922893524, -0.38540932536125183, 0.06263284385204315], [-0.7775070667266846, 0.6060922741889954, 2.7048873901367188, 1.0025688409805298], [-0.10696330666542053, 0.1246534138917923, 0.7312559485435486, 0.2486618161201477], [0.5604668855667114, -0.7785493731498718, -2.8985323905944824, -1.2943966388702393], [-0.5053726434707642, 0.5411693453788757, 0.9068784713745117, 0.015023722313344479], [-0.6724527478218079, 0.10038641095161438, 2.74320125579834, 1.0464823246002197], [0.6053504347801208, -0.33580711483955383, -0.19388741254806519, -0.6839534044265747], [-0.19074375927448273, -0.1563003957271576, 0.45635440945625305, 0.27860453724861145], [-0.04476096108555794, 0.34483736753463745, 0.13337460160255432, -0.04280860349535942], [0.4185129702091217, -0.4657914936542511, 0.292255699634552, -0.41820111870765686], [0.18205663561820984, -0.773147702217102, -3.111604690551758, -1.2497198581695557], [0.3872166574001312, -0.4315699636936188, -2.5205681324005127, -0.9870457053184509], [-0.2161894589662552, 0.29826289415359497, 2.055469036102295, 0.8513580560684204], [0.5459761619567871, -0.7006620764732361, -0.7444329857826233, 0.3169081509113312], [-0.8298805356025696, 0.8387987613677979, 1.9492672681808472, 1.1308523416519165], [-0.5714985728263855, 0.8691108822822571, 1.5527889728546143, -0.44769224524497986], [0.0027671651914715767, 0.03645075857639313, 0.4426363408565521, 0.12206375598907471], [0.1755685955286026, 0.20928363502025604, 0.5003008246421814, 0.1344721019268036], [0.19600556790828705, -0.20929959416389465, -0.9718385934829712, 0.3119659125804901], [-0.040113143622875214, 0.2581774592399597, 0.7158112525939941, 0.12061253190040588], [0.05260205641388893, 0.2061186134815216, 3.060732364654541, 1.154038429260254], [0.3509719669818878, -0.027018554508686066, 0.06903946399688721, 0.06561940908432007], [0.918630063533783, 0.0010031415149569511, -2.011561870574951, -0.7773777842521667], [0.8716799020767212, -0.8855994939804077, -2.731858730316162, -1.327265977859497], [-0.015696628019213676, 0.5126914381980896, 2.9940714836120605, 1.216219186782837], [-0.7014445066452026, 0.833155632019043, 3.7474148273468018, 1.8034076690673828], [-0.5015295147895813, 0.7879081964492798, 2.0223400592803955, 1.0899101495742798], [0.21929584443569183, 0.0842270776629448, -0.6299383640289307, 0.16132034361362457], [0.22245270013809204, -0.3255782723426819, -0.1386561542749405, -0.5708509087562561], [0.2763911187648773, -0.11162164807319641, 0.3916076421737671, 0.48210811614990234]], "SEQL.0.bias": [1.4344028234481812, -0.4423399269580841, 1.3027623891830444, 1.1825767755508423, 0.07165100425481796, 0.42969244718551636, 1.3330014944076538, 0.02582560107111931, 1.4362058639526367, 1.3093210458755493, 0.11012878268957138, -0.006030016113072634, 1.360093116760254, 1.534558653831482, -0.36166295409202576, -0.46691909432411194, 0.9708350896835327, -0.4605710506439209, 1.5055288076400757, -0.3610493242740631, -0.49131426215171814, -0.40714290738105774, 1.4410631656646729, 1.5270881652832031, -0.45287761092185974, -0.16061493754386902, -0.0027291253209114075, -0.4849529266357422, 0.8828036189079285, 1.4425995349884033, 1.4483864307403564, 0.11395491659641266, 1.4668853282928467, 1.6067759990692139, 0.27683746814727783, -0.3211043179035187, 0.609682559967041, 0.20489788055419922, 1.5759117603302002, -0.23356276750564575, -0.22353000938892365, 1.538682222366333, -0.49378857016563416, -0.11547653377056122, -0.3006780445575714, -0.37147530913352966, 0.10527385026216507, -0.44469189643859863, 1.0245269536972046, 0.05451016128063202, 1.5928064584732056, 0.8592579364776611, 1.3631762266159058, 1.4628887176513672, 0.19226640462875366, 1.4210782051086426, 1.2379045486450195, 0.6057283878326416, -0.5547386407852173, 1.3371164798736572, -0.3032183349132538, 1.6755452156066895, -0.1188369169831276, 0.15256954729557037, 0.5815394520759583, -0.3826911151409149, 1.5099306106567383, -0.45807379484176636, 1.4931799173355103, 1.4744181632995605, 1.6248817443847656, 1.3469268083572388, 1.5383893251419067, 1.3466824293136597, 1.3179124593734741, 1.5319541692733765, 1.3958944082260132, 1.269657015800476, 1.3590196371078491, -0.43072065711021423, 1.0537199974060059, 1.609762191772461, 0.5643683075904846, 1.2685661315917969, 1.6746383905410767, -0.511835515499115, -0.25903502106666565, 1.2023712396621704, -0.42050009965896606, 1.2961028814315796, -0.5014734268188477, -0.2889867424964905, 1.3712379932403564, 1.5996736288070679, -0.39208564162254333, -0.36904850602149963, -0.1690177470445633, 1.434291958808899, 1.390513300895691, -0.31684333086013794, 1.655181646347046, -0.3332959711551666, 1.0244734287261963, -0.5858659148216248, 1.3085167407989502, 1.5007201433181763, 1.4724829196929932, -0.4960949718952179, 0.08436558395624161, -0.40945255756378174, -0.3983997106552124, 1.4002846479415894, -0.2781810164451599, 0.9476388096809387, -0.348004549741745, 1.4592353105545044, 1.0682778358459473, 1.6211715936660767, 0.012045543640851974, 1.353377103805542, -0.4764883518218994, -0.31289419531822205, 0.35387060046195984, 0.7856581807136536, -0.11561212688684464, 1.409987211227417, 1.2825982570648193, 1.5192850828170776], "SEQL.2.weight": [[0.7702214121818542, -2.0072145462036133, 0.9317947626113892, 0.966164767742157, -1.2938868999481201, 0.8813178539276123, 0.9546747803688049, -0.8788275718688965, 1.0444117784500122, 1.072405457496643, -1.2297368049621582, -1.6113712787628174, 0.8738661408424377, 1.0945618152618408, -1.7672542333602905, -1.8632487058639526, 0.980377197265625, -1.7769368886947632, 0.9828172326087952, -1.5605723857879639, -2.236738920211792, -2.20041823387146, 0.8909191489219666, 0.960006594657898, -2.163914203643799, -0.9152337908744812, -1.0472463369369507, -1.2762532234191895, 0.8420677185058594, 1.007157564163208, 0.9528616666793823, 0.3063756227493286, -0.22015640139579773, 0.9441325664520264, 0.7376877665519714, -2.0113284587860107, 0.816839873790741, -0.8367723226547241, 1.073867678642273, -0.13753162324428558, -1.0504156351089478, 1.0829122066497803, -1.7782479524612427, -1.2666531801223755, -2.1283106803894043, -2.0717997550964355, -0.9528536796569824, -1.7460112571716309, 0.7673822045326233, -0.7720209360122681, 0.9249120950698853, -0.4178023338317871, 0.915736198425293, 0.9749925136566162, 0.2879643142223358, 0.8403343558311462, 0.9084404706954956, 0.976300835609436, 0.04227778688073158, 1.0746177434921265, -1.4159268140792847, 1.0288931131362915, -1.276747226715088, -0.9900429248809814, 0.9150720834732056, -1.3692660331726074, 0.9687690734863281, -0.0845683217048645, 1.0277217626571655, 0.9903552532196045, 1.024105191230774, 0.9904752969741821, 0.8682283759117126, 0.9876452088356018, 0.8468286395072937, 1.0484256744384766, 0.9791101217269897, 0.8518838882446289, 0.8516063094139099, 0.01807171292603016, 0.8470123410224915, 0.9950493574142456, -0.5851980447769165, 0.9666631817817688, 0.9165427088737488, -1.8542028665542603, -1.3149356842041016, 0.922275185585022, -1.9399189949035645, 1.0246338844299316, -2.4574456214904785, -1.6021428108215332, 0.9532645344734192, 0.9541662335395813, -1.909375548362732, -1.9918951988220215, -1.2044912576675415, 0.7472339272499084, 0.9202391505241394, -2.0935232639312744, 1.0523051023483276, -2.0222244262695312, 1.141890525817871, -1.7641711235046387, 0.9138345122337341, 0.8780374526977539, 1.091213583946228, 0.081719771027565, -1.3712915182113647, -2.0507171154022217, -1.7770251035690308, 0.8432290554046631, -2.05845308303833, 0.898083508014679, 0.022779790684580803, 1.017958641052246, 0.8796108365058899, 0.9886200428009033, -0.9837555289268494, 1.074916958808899, -1.5239404439926147, -2.0063297748565674, -0.7856063842773438, -0.6805492639541626, -1.6276979446411133, 1.0694389343261719, 0.9493550062179565, 0.9116572141647339], [0.8198792338371277, -2.165632724761963, 0.8455682396888733, 1.0068085193634033, -1.350961446762085, 0.8585045337677002, 1.0140472650527954, -0.7693606615066528, 0.9695608019828796, 1.013119101524353, -1.1664807796478271, -1.6841908693313599, 0.8840346932411194, 1.0728672742843628, -1.7609599828720093, -1.8657735586166382, 0.9074143171310425, -1.7482752799987793, 1.0757617950439453, -1.4731454849243164, -2.3326594829559326, -2.2108802795410156, 0.9578425884246826, 1.1030495166778564, -2.112644672393799, -0.92490154504776, -1.1031838655471802, -1.4368170499801636, 0.8660200834274292, 1.0265294313430786, 1.1423238515853882, 0.23216699063777924, -0.05304822325706482, 1.1184076070785522, 0.7014833092689514, -1.8729578256607056, 0.7308549284934998, -0.7375143766403198, 1.1141833066940308, -0.12253259122371674, -1.0913196802139282, 1.0523149967193604, -1.70322585105896, -1.149057388305664, -2.1614608764648438, -1.927492380142212, -0.9920609593391418, -1.7723942995071411, 0.8373667597770691, -0.8688452243804932, 0.8842326402664185, -0.25083935260772705, 0.9457259774208069, 1.0540019273757935, 0.27708926796913147, 0.9525607228279114, 0.92839115858078, 1.064610481262207, -0.04783190041780472, 0.9698851108551025, -1.465228796005249, 1.1601223945617676, -1.333881139755249, -1.0340327024459839, 0.8387165069580078, -1.5063731670379639, 0.9590449333190918, 0.021577678620815277, 1.1013416051864624, 0.9762576222419739, 0.9596211910247803, 0.9090498089790344, 0.9570969343185425, 1.070228099822998, 0.9259675741195679, 0.9969711303710938, 1.0361504554748535, 0.7697991132736206, 0.9610896706581116, -0.04299795255064964, 0.8295738101005554, 1.0636603832244873, -0.5730995535850525, 0.9213070869445801, 1.0781457424163818, -1.8342828750610352, -1.3878048658370972, 0.9442632794380188, -1.987895131111145, 0.9337447881698608, -2.2800471782684326, -1.7201629877090454, 0.9162326455116272, 1.025515079498291, -1.848602533340454, -1.9324382543563843, -1.1381231546401978, 0.6137486100196838, 0.9902358651161194, -2.144289493560791, 1.0389801263809204, -1.971868634223938, 0.9991692304611206, -1.7857130765914917, 1.1162495613098145, 1.0387929677963257, 0.9941827058792114, 0.06684844195842743, -1.258363127708435, -2.0900840759277344, -1.7391434907913208, 0.9056429266929626, -2.0786173343658447, 0.9321035742759705, -0.044830527156591415, 1.0425705909729004, 0.9698367714881897, 1.043440341949463, -1.0314900875091553, 1.0936081409454346, -1.4634686708450317, -2.045374631881714, -0.8981700539588928, -0.6900402307510376, -1.5638867616653442, 1.0250880718231201, 1.1523785591125488, 0.8772027492523193], [-0.01533455029129982, 0.006333016790449619, 0.007937456481158733, -0.07589425146579742, -0.07358481734991074, 0.04770154878497124, -0.0776614248752594, -0.011255642399191856, -0.05806681886315346, -0.02638869546353817, 0.06919208914041519, 0.038389530032873154, 0.01485960092395544, 0.00744254793971777, -0.01490872073918581, 0.003554865252226591, 0.05590410530567169, 0.05259333550930023, 0.01154516264796257, -0.05393344536423683, 0.03242078796029091, -0.02570703811943531, -0.02887784130871296, 0.03975881263613701, -0.07105999439954758, -0.013012786395847797, 0.086787648499012, -0.03694244846701622, -0.045617327094078064, 0.06487710773944855, -0.06624963879585266, 0.003552346955984831, -0.05414891242980957, -0.009826199151575565, -0.07571721076965332, -0.05048784613609314, -0.08617990463972092, -0.05215490236878395, 0.05287653207778931, 0.056322190910577774, 0.04733768478035927, -0.004044892732053995, -0.08355037122964859, -0.020182587206363678, -0.06816762685775757, 0.06213836371898651, -0.08572335541248322, 0.0065663838759064674, 0.07189356535673141, -0.03486821427941322, -0.042938049882650375, 0.015013128519058228, -0.05694200098514557, -0.041407376527786255, -0.021675996482372284, -0.001858394593000412, 0.0010418911697342992, -0.03932579234242439, 0.06837762147188187, 0.04924483224749565, -0.04545075073838234, 0.04688676446676254, 0.04725838452577591, -0.015554357320070267, -0.036830201745033264, -0.02301204204559326, 0.012949934229254723, 0.0459788478910923, -0.05516144260764122, -0.03715136647224426, 0.007220091298222542, 0.03049585223197937, 0.04645519703626633, 0.03232639655470848, 0.06780441105365753, 0.014390596188604832, -0.07999856770038605, -0.03546438366174698, -0.09360988438129425, 0.03820265084505081, 0.026713326573371887, 0.021184677258133888, -0.026832958683371544, -0.08877690136432648, 0.05461020767688751, -0.040210969746112823, -0.03704100102186203, -0.060509782284498215, 0.08822087198495865, 0.020217452198266983, -0.021301522850990295, 0.026880521327257156, 0.01624118536710739, -0.09413295239210129, 0.035148732364177704, -0.0250620748847723, 0.027782011777162552, -0.07111548632383347, 0.008596731349825859, 0.014067227020859718, -0.049248211085796356, 0.025454262271523476, -0.0381934717297554, 0.021185144782066345, 0.043442100286483765, 0.010692555457353592, -0.09693492949008942, 0.04290318489074707, -0.06774122267961502, -0.06274677067995071, 0.024622198194265366, 0.07244199514389038, -0.08436068892478943, -0.051385268568992615, -0.038228750228881836, -0.08908632397651672, -0.05185045301914215, 0.049822501838207245, 0.06535154581069946, -0.042119212448596954, -0.04876697063446045, -0.05357102304697037, -0.010988222435116768, 0.06666504591703415, -0.06703563779592514, -0.08344017714262009, -0.024263422936201096, -0.04010283574461937], [0.7825124859809875, -2.0571463108062744, 0.9527140259742737, 1.0316014289855957, -1.2744537591934204, 0.7886646389961243, 1.017841100692749, -0.8271145820617676, 0.9250872731208801, 1.077757716178894, -1.2040729522705078, -1.5985513925552368, 0.8249399662017822, 1.0127055644989014, -1.6278969049453735, -1.9246948957443237, 1.0294703245162964, -1.793210744857788, 1.0832068920135498, -1.4400603771209717, -2.3098270893096924, -2.163224697113037, 1.045383095741272, 1.0466963052749634, -2.162407875061035, -0.9570193290710449, -0.9618569016456604, -1.322953701019287, 0.9436469674110413, 1.081637978553772, 1.1280449628829956, 0.36142411828041077, -0.0843459963798523, 0.9874467253684998, 0.7213348150253296, -1.8852518796920776, 0.8130887150764465, -0.7518742084503174, 1.1081920862197876, -0.15068590641021729, -1.1103585958480835, 1.0552774667739868, -1.8469417095184326, -1.0880204439163208, -2.0568044185638428, -2.0170390605926514, -0.9518494009971619, -1.7701268196105957, 0.8646944165229797, -0.8884612917900085, 0.9975712895393372, -0.2465091496706009, 0.8997281789779663, 1.0051929950714111, 0.17557492852210999, 0.9306177496910095, 1.0066094398498535, 0.984380841255188, 0.05278432369232178, 1.0124783515930176, -1.502506971359253, 1.049128770828247, -1.361272931098938, -1.0621893405914307, 0.872133195400238, -1.5058434009552002, 1.0240806341171265, 0.04738593101501465, 1.0546729564666748, 0.9907931685447693, 0.9768617153167725, 0.9361658692359924, 0.9498714208602905, 1.102186679840088, 0.9225775599479675, 1.0681527853012085, 0.9978908896446228, 0.940099835395813, 0.9839208722114563, -0.021115317940711975, 0.8822133541107178, 1.1104503870010376, -0.6248138546943665, 0.9068460464477539, 1.005379319190979, -1.8377106189727783, -1.4669058322906494, 1.013053297996521, -2.0711591243743896, 1.059096097946167, -2.421764373779297, -1.676447868347168, 1.0851444005966187, 1.0798794031143188, -1.963476538658142, -1.9312667846679688, -1.1084959506988525, 0.7323731184005737, 1.0373740196228027, -2.0278213024139404, 0.973777711391449, -1.9375420808792114, 1.1230189800262451, -1.9402540922164917, 1.0769826173782349, 0.9960113763809204, 1.1290017366409302, -0.02772095426917076, -1.2705309391021729, -2.1582541465759277, -1.7920280694961548, 0.8007566928863525, -1.9578580856323242, 0.9526140689849854, -0.020414698868989944, 0.9862102270126343, 0.9641925096511841, 1.1030628681182861, -0.9498677849769592, 0.9724612832069397, -1.4987847805023193, -2.0619587898254395, -0.8819702863693237, -0.6563713550567627, -1.6739729642868042, 1.1167874336242676, 1.138535737991333, 0.8391664028167725], [-0.021545303985476494, -0.018471848219633102, -0.04474228248000145, -0.0356997512280941, 0.061428967863321304, -0.071803517639637, -0.062122516334056854, 0.024600820615887642, -0.03282507508993149, -0.015149394050240517, -0.05572326481342316, 0.02096327394247055, -0.05466578155755997, 0.048649370670318604, 0.03835885599255562, 0.0465969555079937, -0.06578180193901062, -0.019722891971468925, -0.006162971258163452, -0.006520075257867575, 0.06396311521530151, -0.0090559097006917, -0.014259553514420986, 0.04292646795511246, 0.07723157852888107, 0.00011116918176412582, 0.005711467936635017, -0.03279229253530502, -0.0697396844625473, 0.026313047856092453, -0.022816188633441925, -0.01727609895169735, -0.03670738637447357, -0.027091868221759796, -0.07292702794075012, 0.04963012412190437, -0.09434346109628677, 0.04908854886889458, -0.03327460214495659, -0.038297418504953384, 0.06187059357762337, -0.013646144419908524, 0.04846610873937607, -0.08069557696580887, 0.02825971692800522, 0.052321191877126694, -0.07080279290676117, -0.03838743269443512, -0.08574873954057693, 0.07290063798427582, -0.024455254897475243, -0.0670476034283638, -0.04873601347208023, -0.022879131138324738, -0.03322678431868553, 0.058736652135849, -0.059415362775325775, 0.030515165999531746, 0.06757307052612305, -0.0813455581665039, 0.011040126904845238, 0.050075795501470566, 0.010994805954396725, -0.0628979355096817, -0.039458248764276505, -0.07482654601335526, 0.046070922166109085, -0.047811079770326614, 0.017202425748109818, -0.08852901309728622, -0.06476052105426788, 0.07338929176330566, -0.06216125935316086, -0.0003438445273786783, -0.08408834785223007, 0.020504651591181755, -0.0371357761323452, -0.029411334544420242, 0.02330070361495018, 0.04719885438680649, 0.030974753201007843, -0.01221832912415266, -0.0578128844499588, 0.027034446597099304, 0.05825648829340935, -0.060518164187669754, -0.04365281015634537, -0.021082431077957153, 0.03362572565674782, 0.0001753736287355423, -0.03186701983213425, -0.02654309943318367, -0.05222691223025322, 0.049964725971221924, -0.09254167973995209, 0.0288209468126297, -0.05394064635038376, 0.006795923225581646, -0.04798756167292595, 0.01666005700826645, 0.04777980595827103, 0.06222394108772278, -0.058753423392772675, 0.06210178881883621, -0.04535960033535957, -0.0823754146695137, 0.05979321524500847, 0.03329929709434509, 0.04722438380122185, -0.0733066201210022, 0.054256681352853775, -0.06509727239608765, 0.03066076524555683, -0.00973788183182478, 0.005424520466476679, -0.04517275094985962, -0.010317862033843994, 0.019036870449781418, 0.022903773933649063, 0.07739546149969101, 0.05164619907736778, -0.011999302543699741, -0.04855088144540787, 0.03581816703081131, 0.04234016314148903, -0.05958084389567375, 0.009099289774894714, -0.05221918225288391], [0.8739624619483948, -1.972277045249939, 0.9107348918914795, 1.0796566009521484, -1.1584641933441162, 0.9028066992759705, 1.1336636543273926, -1.06981360912323, 1.005784034729004, 0.9940434694290161, -1.3862934112548828, -1.4842478036880493, 1.0116256475448608, 0.9482977390289307, -1.6597496271133423, -1.926430344581604, 1.0598604679107666, -1.6821212768554688, 1.0977622270584106, -1.5168676376342773, -2.231555223464966, -1.9491723775863647, 0.7564223408699036, 0.9339452981948853, -2.068981647491455, -0.9346952438354492, -0.8809581398963928, -1.3804395198822021, 0.9236918687820435, 1.0596020221710205, 0.9492607116699219, 0.33814629912376404, -0.4576931297779083, 1.0259817838668823, 0.8735890984535217, -2.0244808197021484, 0.7749622464179993, -1.007156252861023, 1.115403413772583, -0.061252135783433914, -1.2106716632843018, 1.1150158643722534, -1.7085644006729126, -1.3697395324707031, -2.1044557094573975, -1.99087655544281, -0.7566308379173279, -1.7644703388214111, 0.7372370958328247, -0.7555624842643738, 0.7802764773368835, -0.473568856716156, 0.8789841532707214, 0.9609319567680359, 0.29897138476371765, 0.9975178241729736, 1.0794618129730225, 0.9788731336593628, 0.07150004804134369, 1.0003652572631836, -1.353090524673462, 1.058545708656311, -1.3296968936920166, -0.8912351727485657, 0.9027169942855835, -1.3929808139801025, 0.9925726652145386, 0.07311935722827911, 0.8866428136825562, 0.9874329566955566, 1.057264804840088, 0.9196221828460693, 0.7801832556724548, 1.094834327697754, 0.8870242238044739, 1.1132737398147583, 0.9513059258460999, 0.9245509505271912, 0.9928879141807556, 0.04359457641839981, 0.8866924047470093, 1.0457483530044556, -0.3767382502555847, 0.95915287733078, 1.0047013759613037, -1.997313380241394, -1.3910515308380127, 1.1151922941207886, -1.9835314750671387, 1.0980733633041382, -2.403003454208374, -1.6102849245071411, 1.0811597108840942, 0.9569882154464722, -1.7856937646865845, -1.9528748989105225, -0.986628532409668, 0.6745576858520508, 0.9830172061920166, -1.9647161960601807, 1.0335928201675415, -2.1181271076202393, 1.1572543382644653, -1.7610723972320557, 0.8251528143882751, 1.0542041063308716, 1.0752524137496948, 0.052632007747888565, -1.5480707883834839, -2.095728874206543, -1.6988240480422974, 0.8070875406265259, -1.8109066486358643, 0.9451189041137695, -0.017220908775925636, 1.1315357685089111, 0.8909779787063599, 1.1290758848190308, -0.8078296780586243, 0.9990292191505432, -1.4224944114685059, -2.085646152496338, -0.6672953963279724, -0.3762616813182831, -1.46390700340271, 0.9358871579170227, 1.012624979019165, 0.8808242678642273], [0.0022155228070914745, -0.046339333057403564, 0.0053510162979364395, 0.043701738119125366, 0.07104247063398361, 0.05260944366455078, 0.04076946899294853, -0.06881523132324219, -0.055726855993270874, -0.07439985871315002, 0.010144535452127457, -0.08372917026281357, -0.00947383139282465, -0.04690433293581009, -0.06598128378391266, -0.05508069321513176, -0.05747758597135544, -0.020786656066775322, -0.06215419992804527, -0.019964898005127907, -0.05456584692001343, 0.07363437861204147, -0.004612087272107601, 0.054030708968639374, 0.03192997723817825, -0.021521413698792458, 0.029107149690389633, -0.010815366171300411, 0.06958649307489395, 0.0791143849492073, 0.03977673128247261, -0.028495514765381813, 0.060178712010383606, -0.024407165125012398, -0.0718153640627861, 0.00021186166850384325, 0.06993647664785385, 0.01043929997831583, -0.06889262795448303, 0.04049251973628998, 0.011353801935911179, -0.04163132980465889, 0.015616439282894135, 0.00376963522285223, 0.044590964913368225, -0.01399816945195198, 0.04349960386753082, -0.07325927168130875, 0.022379839792847633, -0.040746644139289856, 0.07269152998924255, -0.01405549980700016, 0.029094653204083443, -0.054867587983608246, -0.00977479200810194, -0.03141356259584427, -0.07454536110162735, 0.06572985649108887, -0.07182776182889938, 0.0023136090021580458, 0.00682411203160882, -0.06883963942527771, -0.08084113895893097, 0.05298655480146408, -0.045068319886922836, -0.07063265144824982, -0.06069900467991829, -0.021636927500367165, -0.02191033400595188, 0.04481222480535507, -0.08311338722705841, -0.03864910081028938, -0.08078211545944214, 0.004033917095512152, -0.06500548869371414, -0.0056333160027861595, 0.06618721783161163, 0.04042172431945801, -0.06056265905499458, -0.009108629077672958, -0.024098346009850502, 0.0240571778267622, 0.021240778267383575, 0.050258420407772064, -0.06583736091852188, -0.03883142024278641, 0.02096090279519558, -0.07099797576665878, 0.08472485095262527, 0.055882442742586136, 0.007537278812378645, 0.03126600757241249, 0.011346226558089256, -0.036116160452365875, -0.06536857783794403, 0.004563513211905956, -0.08452942222356796, -0.08309909701347351, -0.06829758733510971, 0.015673115849494934, 0.06229934096336365, -0.04628608003258705, 0.009568125009536743, -0.06572277098894119, -0.023168954998254776, -0.005424910224974155, -0.02143973298370838, 0.020143864676356316, 0.04704264551401138, 0.033669136464595795, -0.005863532889634371, -0.025333037599921227, -0.020211542025208473, -0.05688702315092087, -0.08791926503181458, 0.07934095710515976, 0.014222685247659683, -0.04129941016435623, 0.011720068752765656, -0.07669369876384735, 0.0736873671412468, -0.05414452776312828, -0.04804985225200653, -0.03579958528280258, -0.008243091404438019, 0.05807685852050781, -0.05158541351556778, -0.024637402966618538], [0.912302553653717, -2.0043911933898926, 0.9627702832221985, 0.9799063205718994, -1.1663129329681396, 0.9297013878822327, 1.0438374280929565, -0.9327026009559631, 1.133847713470459, 0.9910956025123596, -1.3842978477478027, -1.4915244579315186, 0.9631893038749695, 1.076586365699768, -1.6276642084121704, -1.920064091682434, 0.9300071597099304, -1.6756750345230103, 1.122141718864441, -1.4450750350952148, -2.3365142345428467, -2.0855798721313477, 0.8812059164047241, 0.9631242752075195, -2.1577253341674805, -0.9154518842697144, -0.8893033266067505, -1.3051403760910034, 0.8760719895362854, 0.9592858552932739, 0.9674302339553833, 0.342855840921402, -0.31098672747612, 1.006927251815796, 0.8017956614494324, -2.0233030319213867, 0.8305975198745728, -0.8942434191703796, 0.9867863059043884, -0.1776704341173172, -1.1457198858261108, 1.042724370956421, -1.883319616317749, -1.3131333589553833, -2.043346881866455, -1.9206997156143188, -0.840034544467926, -1.8740005493164062, 0.7732729315757751, -0.7463396191596985, 0.8676496744155884, -0.4659583270549774, 0.8871732950210571, 0.8962299227714539, 0.1901862770318985, 1.0863618850708008, 1.0504974126815796, 0.9854793548583984, 0.006432789843529463, 0.9579300880432129, -1.423474669456482, 1.0500456094741821, -1.4198659658432007, -0.9058957099914551, 0.9161690473556519, -1.4409313201904297, 1.0030792951583862, -0.03787052258849144, 0.8841400742530823, 0.9808664917945862, 0.9835861325263977, 1.0262173414230347, 0.8329723477363586, 1.0198843479156494, 0.8572931885719299, 1.0146733522415161, 1.0985517501831055, 1.0100927352905273, 1.0423649549484253, -0.016015049070119858, 0.9122406244277954, 0.9512420892715454, -0.38227128982543945, 1.0129224061965942, 0.9507060647010803, -1.9228392839431763, -1.401976466178894, 1.0461102724075317, -2.071704626083374, 1.1346591711044312, -2.4682700634002686, -1.554458737373352, 1.0851656198501587, 1.1085121631622314, -1.847983479499817, -2.004258394241333, -1.070251703262329, 0.674558162689209, 0.9037054181098938, -1.9384254217147827, 1.015589952468872, -2.138897657394409, 1.0499541759490967, -1.841104507446289, 0.8891556859016418, 1.0474590063095093, 1.045546531677246, 0.01585465297102928, -1.41432523727417, -2.201176881790161, -1.6835041046142578, 0.7887495756149292, -1.9757823944091797, 0.9358206391334534, 0.06396733224391937, 1.014447808265686, 0.9840231537818909, 1.1214046478271484, -0.7989603281021118, 1.0805668830871582, -1.392613172531128, -2.258854627609253, -0.6565166115760803, -0.4480709135532379, -1.3932605981826782, 1.107261061668396, 0.9868236780166626, 0.9423328638076782], [0.8106563687324524, -2.1908247470855713, 0.9021499156951904, 1.0409952402114868, -1.2862398624420166, 0.91814786195755, 0.8869858384132385, -0.9902722835540771, 0.9772501587867737, 1.0849614143371582, -1.0855565071105957, -1.6887091398239136, 0.9533283114433289, 1.0557680130004883, -1.7521864175796509, -1.8935623168945312, 0.9998782277107239, -1.8000632524490356, 1.0896170139312744, -1.449870228767395, -2.3074951171875, -2.2261099815368652, 1.035516619682312, 1.0174221992492676, -2.086660861968994, -1.0377535820007324, -0.9915233254432678, -1.3522356748580933, 0.9206275343894958, 1.069453239440918, 1.0453917980194092, 0.27489301562309265, -0.1502847671508789, 1.0702534914016724, 0.8381991386413574, -1.8982000350952148, 0.812066912651062, -0.8134724497795105, 1.068820834159851, -0.04350834712386131, -1.0974054336547852, 1.0693848133087158, -1.748467206954956, -1.2539819478988647, -2.166555643081665, -1.9561042785644531, -0.8250150680541992, -1.8075222969055176, 0.8497697710990906, -0.7193520665168762, 0.8338528871536255, -0.3842603862285614, 0.8603770136833191, 1.0548352003097534, 0.25793278217315674, 0.9455869197845459, 1.0307799577713013, 1.1154088973999023, -0.032024554908275604, 1.1067495346069336, -1.5552318096160889, 1.1418195962905884, -1.2661633491516113, -0.908217191696167, 0.8174946904182434, -1.4123104810714722, 0.8940211534500122, 0.06477543711662292, 0.9790483117103577, 0.9744658470153809, 0.9222742915153503, 0.8752787113189697, 0.8239647746086121, 1.0458760261535645, 0.9374051094055176, 1.0549678802490234, 1.0859864950180054, 0.8201466202735901, 0.9622337222099304, -0.06922929733991623, 0.8450374007225037, 1.1067826747894287, -0.5927508473396301, 0.8434110879898071, 1.0129822492599487, -1.9448530673980713, -1.4690577983856201, 0.9695408344268799, -1.9630645513534546, 1.0292489528656006, -2.362558126449585, -1.7463001012802124, 1.020419955253601, 1.0353037118911743, -1.9292994737625122, -1.9973868131637573, -1.1570134162902832, 0.7406460046768188, 0.8804844617843628, -2.014291524887085, 1.0128669738769531, -2.088545799255371, 1.0380207300186157, -1.83885657787323, 0.9518138766288757, 0.9803844690322876, 0.9706079363822937, -0.016901753842830658, -1.3668487071990967, -2.0871431827545166, -1.6916472911834717, 0.8983350396156311, -2.0322489738464355, 0.847650945186615, -0.06759029626846313, 1.0253188610076904, 0.9146052002906799, 1.094964623451233, -0.8945741653442383, 0.9262856841087341, -1.5296651124954224, -2.0616865158081055, -0.8120056390762329, -0.5815536975860596, -1.6380085945129395, 1.074033498764038, 1.0270527601242065, 0.9237096905708313], [3.1574325561523438, 2.9631078243255615, 2.275866746902466, 1.9336918592453003, 4.369697570800781, 0.15381227433681488, 3.2635912895202637, -5.286445140838623, 2.644001007080078, 0.9362776279449463, -5.99729585647583, 4.373961925506592, 2.1759140491485596, -0.11784376949071884, -2.4007530212402344, -4.365961074829102, 1.3462761640548706, -3.6589643955230713, 1.8722437620162964, -4.886845111846924, 2.806478261947632, 3.3287672996520996, -2.5842971801757812, -1.6682908535003662, 2.589275360107422, 3.7270710468292236, 4.005679130554199, -1.0559858083724976, 0.55523282289505, 0.761931836605072, 0.26952844858169556, -0.7633661031723022, -5.5000200271606445, 0.5773071050643921, 0.21734674274921417, -5.481333255767822, 1.1991679668426514, -5.383822917938232, 1.902487874031067, 0.5618144273757935, -5.26871395111084, 2.4300336837768555, 1.964834213256836, -5.818612575531006, 2.939311981201172, 2.7880003452301025, 4.35546350479126, -3.5123813152313232, 1.8565562963485718, 4.15826940536499, -1.066749930381775, -5.438708305358887, 1.9606175422668457, 0.4827706515789032, 0.7616994380950928, 3.2542648315429688, 3.2309672832489014, 0.7490501403808594, 0.3844320774078369, 1.5979653596878052, 3.714185953140259, 0.6737087368965149, -5.6214375495910645, 4.23048210144043, 0.03588992357254028, -3.024109125137329, 1.9670088291168213, -0.06317529827356339, -2.8152506351470947, 1.2887611389160156, 2.715532064437866, 1.8109326362609863, -0.6504782438278198, 1.1942074298858643, -1.2025039196014404, 1.884242296218872, 1.5369471311569214, 2.7682530879974365, 3.277660846710205, -0.02263079211115837, 1.4997518062591553, 0.5521529912948608, 4.4928083419799805, 3.1636345386505127, -1.245410680770874, -3.8677825927734375, 3.7330846786499023, 2.6965460777282715, -4.434341907501221, 2.901674270629883, -4.776310920715332, 3.3712315559387207, 2.4236817359924316, 1.2797974348068237, 3.357009172439575, 2.6755006313323975, 3.8647561073303223, 2.764676332473755, 1.328919768333435, 3.7297091484069824, 2.415144681930542, -5.574229717254639, 2.0140650272369385, 2.099374532699585, -1.4942917823791504, 2.381197690963745, 1.3106471300125122, -0.010658021084964275, -5.7209882736206055, -4.8499579429626465, 2.23327374458313, 1.9348164796829224, 3.7325305938720703, 0.1159685030579567, 0.005668411962687969, 2.028995990753174, 1.5139192342758179, 2.092543840408325, 4.123929023742676, 1.5204823017120361, -1.2653099298477173, -5.528854846954346, 4.307408332824707, 4.777490615844727, 4.049866676330566, 1.156627893447876, -1.0665240287780762, 2.5828053951263428], [0.054370418190956116, 0.07762078195810318, 0.055244699120521545, -0.027103863656520844, -0.07865329086780548, -0.017970141023397446, -0.0436234176158905, -0.08454075455665588, -0.0029493062756955624, -0.0036562131717801094, 0.024535078555345535, -0.06611797958612442, 0.01149714644998312, -0.08075359463691711, 0.0010035396553575993, -0.08846403658390045, -0.035352952778339386, -0.07744769006967545, -0.036115966737270355, 0.07310743629932404, 0.04542062059044838, 0.0659504309296608, 0.06339237093925476, -0.08915961533784866, -0.08306021988391876, 0.03823282569646835, 0.0760001391172409, -0.09344467520713806, -0.08709796518087387, 0.018647167831659317, -0.07059569656848907, 0.014085381291806698, 0.010293614119291306, -0.09512358158826828, -0.04852278158068657, -0.09229769557714462, -0.08311599493026733, 0.007644476369023323, -0.03620804101228714, -0.005944559816271067, -0.0005485676229000092, -0.07692088931798935, -0.033461764454841614, -0.08560547977685928, 0.02036341279745102, 0.022808322682976723, -0.08723084628582001, 0.02704893983900547, 0.03749658539891243, -0.04080147668719292, -0.0666382908821106, -0.07391910254955292, 0.06855351477861404, 0.05878333002328873, -0.044052012264728546, -0.06465815007686615, -0.05103834718465805, -0.09789648652076721, -0.029551401734352112, -0.014560772106051445, -0.027335457503795624, 0.04021531715989113, -0.038782525807619095, 0.03650891035795212, 0.0644422322511673, 0.0885411873459816, -0.08173644542694092, -0.023087063804268837, -0.04385907202959061, -0.01688164845108986, 0.03017021343111992, 0.04792563617229462, 0.07270859181880951, 0.043546926230192184, -0.08422507345676422, -0.03377804160118103, -0.029505664482712746, -0.03293933346867561, 0.014396569691598415, -0.06605744361877441, 0.052089303731918335, 0.021152842789888382, -0.09306398034095764, -0.082609623670578, -0.09153053909540176, 0.042713407427072525, -3.2597221434116364e-05, 0.003519780468195677, 0.0788174644112587, 0.0472562275826931, -0.051280438899993896, -0.0070674968883395195, 0.06582599878311157, -0.014386145398020744, 0.036491528153419495, 0.038516510277986526, 0.01876119151711464, -0.08868297934532166, -0.09523697197437286, 0.055593278259038925, 0.06640887260437012, 0.025197848677635193, -0.03293932229280472, 0.08163739740848541, -0.019321110099554062, 0.01029673870652914, 0.03675761818885803, 0.08037643134593964, 0.0662766844034195, -0.03388774394989014, 0.0397791713476181, -0.03032594360411167, 0.06704617291688919, -0.003476102836430073, 0.036316633224487305, -0.020887382328510284, -0.011229675263166428, -0.019666915759444237, -0.05686717852950096, 0.041893746703863144, -0.04604699835181236, -0.04711706191301346, -0.044390756636857986, -0.05691808462142944, -0.013004986569285393, -0.04409419000148773, -0.04129539057612419, 0.07492441684007645], [1.129159927368164, -1.764652967453003, 1.1369432210922241, 1.2409480810165405, -0.7479866743087769, 1.0151621103286743, 1.274546504020691, -1.0836164951324463, 1.2776490449905396, 0.9937487840652466, -1.5346437692642212, -1.127276062965393, 1.1375056505203247, 0.9562495350837708, -1.6151278018951416, -1.950950026512146, 1.1443456411361694, -1.7200943231582642, 1.234176754951477, -1.49924635887146, -2.0242137908935547, -1.938499927520752, 0.6166042685508728, 0.714478611946106, -1.8936407566070557, -0.669745922088623, -0.5237644910812378, -1.239126443862915, 0.9182324409484863, 0.99054354429245, 0.9180623888969421, 0.16126377880573273, -0.7060986757278442, 0.9350664019584656, 1.0050609111785889, -2.184347152709961, 0.7551913261413574, -1.165350317955017, 1.1728813648223877, 0.05755579099059105, -1.1728743314743042, 1.241680383682251, -1.7819371223449707, -1.4812225103378296, -1.9849014282226562, -1.7797679901123047, -0.4624277651309967, -1.6308237314224243, 0.9799705743789673, -0.3559192717075348, 0.7979146838188171, -0.6784800291061401, 1.1153162717819214, 1.0373704433441162, 0.30780160427093506, 1.174865484237671, 1.3870397806167603, 1.0101631879806519, 0.06116656959056854, 1.0623120069503784, -1.2274030447006226, 1.1100059747695923, -1.5538243055343628, -0.575903058052063, 0.9463346600532532, -1.2453407049179077, 1.1231498718261719, -0.008795573376119137, 0.618364155292511, 1.0006966590881348, 1.168617844581604, 1.0031732320785522, 0.6744956970214844, 1.0233726501464844, 0.7642604112625122, 1.1900817155838013, 1.0445164442062378, 1.096207618713379, 1.3127554655075073, 0.03292680159211159, 0.869652509689331, 0.9643608331680298, -0.009618963114917278, 1.2891193628311157, 0.8133801221847534, -1.9971790313720703, -1.1836812496185303, 1.2130889892578125, -1.9816150665283203, 1.3235914707183838, -2.6315367221832275, -1.396655797958374, 1.1263971328735352, 1.1419144868850708, -1.5619065761566162, -1.7737466096878052, -0.8295193910598755, 1.0199687480926514, 1.0313912630081177, -1.5961216688156128, 1.237234115600586, -2.3427672386169434, 1.180357575416565, -1.721114158630371, 0.7619651556015015, 1.18716299533844, 1.0091159343719482, -0.03835451975464821, -1.798148274421692, -2.137221336364746, -1.5598204135894775, 1.0271435976028442, -1.5928245782852173, 0.8701672554016113, 0.022453419864177704, 1.2379169464111328, 0.9137256145477295, 1.2437191009521484, -0.49975964426994324, 1.1443358659744263, -1.4108859300613403, -2.283985137939453, -0.31760433316230774, -0.0011984524317085743, -1.1775552034378052, 1.0039643049240112, 0.9031354188919067, 1.128239393234253], [0.0580565519630909, -0.001731247641146183, 0.04349768906831741, -0.028838247060775757, -0.060837194323539734, 0.0032949671149253845, 0.07634568214416504, 0.06940394639968872, 0.0010379415471106768, -0.001767545472830534, -0.01264573261141777, 0.052259430289268494, 0.05610395595431328, 0.048733536154031754, -0.03512708470225334, 0.06306101381778717, 0.07847586274147034, 0.046375129371881485, 0.018575921654701233, -0.023238658905029297, 0.009441820904612541, -0.05989350751042366, -0.03321102261543274, -0.04774715006351471, 0.01784205250442028, 0.06208972632884979, 0.04533760994672775, 0.0008539939299225807, 0.06938556581735611, -0.0837729424238205, 0.0472896471619606, 0.013102601282298565, -0.01048014871776104, -0.07288093864917755, -0.03989191725850105, -0.030767571181058884, -0.08940581977367401, -0.053867973387241364, -0.0835079774260521, -0.052578382194042206, 0.05054432898759842, 0.0630715936422348, 0.013142780400812626, -0.08890038728713989, -0.03530088812112808, 0.009346113540232182, -0.054973650723695755, -0.05900958925485611, 0.017042094841599464, 0.07940436899662018, 0.023798750713467598, 0.009164639748632908, 0.0773109644651413, 0.06808505207300186, 0.041792452335357666, -0.0346788689494133, -0.057716287672519684, -0.03541616350412369, 0.0740731805562973, 0.05644482746720314, 0.052006546407938004, -0.07631421089172363, 0.052415214478969574, -0.07739546149969101, -0.021552331745624542, -0.008401187136769295, -0.046319298446178436, -0.040247511118650436, -0.09736425429582596, -0.025649840012192726, 0.030463695526123047, 0.018810968846082687, -0.0781126618385315, 0.06596386432647705, 0.012989998795092106, -0.005113931838423014, 0.013603955507278442, -0.04298323392868042, -0.010183807462453842, 0.06825543940067291, -0.04632948338985443, -0.02938016504049301, 0.013182239606976509, 0.05033647641539574, 0.017173942178487778, 0.0658966526389122, 0.01263545360416174, -0.08824801445007324, 0.08330921828746796, -0.04340805113315582, 0.02791484259068966, 0.0790068581700325, 0.014512896537780762, -0.08015557378530502, -0.02012806013226509, -0.054062243551015854, -0.05749537795782089, 0.06928521394729614, -0.060891568660736084, -0.08751235902309418, 0.015331702306866646, -0.021601201966404915, 0.024792104959487915, 0.04685042425990105, -0.0620146170258522, 0.06083381175994873, -0.025060148909687996, 0.08723993599414825, -0.06765185296535492, 0.012219781056046486, -0.0851895660161972, -0.08076697587966919, 0.015910159796476364, -0.0336301214993, 0.027810154482722282, 0.026744049042463303, -0.052066680043935776, -0.0374353788793087, -0.011375060304999352, 0.019827792420983315, -0.012619001790881157, -0.039388738572597504, -0.003478928469121456, -0.06422341614961624, -0.06698693335056305, -0.0849251002073288, -0.01510659884661436, -0.04646896570920944], [0.03198949992656708, 0.07968737185001373, 0.037271302193403244, -0.05952376127243042, 0.02939002960920334, 0.028736721724271774, -0.011787557043135166, -0.07948516309261322, 0.012936816550791264, 0.0642561987042427, 0.050670698285102844, -0.02048187144100666, -0.04650025814771652, -0.03600923344492912, 0.07820604741573334, 0.023035729303956032, -0.016209572553634644, 0.007982623763382435, 0.029075972735881805, 0.07035559415817261, -0.043274056166410446, -0.05746259167790413, -0.004906261805444956, 0.04824252426624298, -0.0016643579583615065, 0.03772445395588875, -0.08807449787855148, 0.04748495668172836, 0.036852676421403885, 0.04396888613700867, -0.05022522807121277, 0.0853688195347786, -0.03943824768066406, 0.02551218308508396, 0.07488362491130829, 0.06986275315284729, -0.024403540417551994, -0.036422327160835266, 0.042915597558021545, -0.05697071552276611, -0.01661336049437523, -0.0752791240811348, -0.06594471633434296, -0.05533965304493904, -0.03935790807008743, -0.03442259505391121, 0.04450231045484543, -0.025995289906859398, -0.054018232971429825, 0.059033993631601334, -0.006657632067799568, -0.07803961634635925, -0.06768638640642166, 0.006791279651224613, -0.02139284461736679, -0.022438939660787582, -0.0020596005488187075, -0.048051588237285614, 0.05196521058678627, -0.06388760358095169, -0.028802428394556046, -0.050513237714767456, 0.028787434101104736, -0.008594711311161518, -0.037722449749708176, 0.019835149869322777, 0.0829005241394043, -0.06589210778474808, -0.04267217591404915, -0.055958960205316544, -0.079506516456604, 0.0079848887398839, 0.08396001905202866, -0.0584016852080822, -0.04328111559152603, 0.053249601274728775, 0.0027862333226948977, -0.027500491589307785, 0.03328194469213486, -0.06936315447092056, 0.04283168166875839, -0.07562952488660812, -0.04962638393044472, -0.06482288241386414, 0.05128264054656029, 0.003770046168938279, -0.02945362962782383, -0.05281950533390045, 0.03498651087284088, 0.04576747119426727, 0.004503812175244093, -0.07413726300001144, 0.031459785997867584, -0.017571505159139633, -0.009661005809903145, 0.08760979771614075, 0.04209224507212639, 0.0027312948368489742, 0.01416246872395277, -0.04725850000977516, 0.05128565430641174, -0.022033022716641426, -0.054016053676605225, 0.021458551287651062, 0.02449805475771427, -0.04642656445503235, -0.05573888123035431, 0.013456097804009914, -0.08619682490825653, 0.00805724412202835, -0.016636351123452187, 0.0019240141846239567, -0.08019989728927612, 0.011603321880102158, -0.05694571137428284, -0.08253069221973419, 0.03598104789853096, -0.06393459439277649, -0.030662190169095993, 0.00044611384510062635, -0.005238326266407967, 0.07253602892160416, 0.057476162910461426, -0.07167240232229233, -0.02376185543835163, 0.07731392234563828, 0.023334180936217308, 0.07138459384441376], [1.072003960609436, -1.9577804803848267, 1.0080894231796265, 1.138659954071045, -0.9991219639778137, 1.0788602828979492, 1.1520230770111084, -1.090961217880249, 1.01854407787323, 1.0729354619979858, -1.3030924797058105, -1.4177104234695435, 1.001213788986206, 1.023084282875061, -1.7466790676116943, -1.9707423448562622, 0.967540442943573, -1.7454168796539307, 0.9991616010665894, -1.4189913272857666, -2.2129061222076416, -1.9273877143859863, 0.8160921931266785, 0.9565113186836243, -2.0668089389801025, -0.7915551662445068, -0.8555273413658142, -1.2671830654144287, 0.8104157447814941, 0.928638756275177, 1.027246356010437, 0.16849134862422943, -0.427300363779068, 0.9550453424453735, 0.7966520190238953, -2.0406405925750732, 0.8530033230781555, -1.0728113651275635, 1.0447901487350464, -0.07793740183115005, -1.222184181213379, 1.170716404914856, -1.7797825336456299, -1.3159830570220947, -1.9868773221969604, -2.014136552810669, -0.7394293546676636, -1.7077170610427856, 0.789585530757904, -0.6837814450263977, 0.7641319632530212, -0.5563079118728638, 1.0093201398849487, 1.0177315473556519, 0.2958378493785858, 1.1386500597000122, 1.1571780443191528, 0.8554486632347107, 0.010557565838098526, 1.0862555503845215, -1.3903281688690186, 0.9999901652336121, -1.4791207313537598, -0.8057731986045837, 0.8645797967910767, -1.3172314167022705, 0.8988243341445923, 0.08510001003742218, 0.8202762603759766, 1.0774155855178833, 1.0473345518112183, 0.9786847233772278, 0.7129255533218384, 1.1193931102752686, 0.8137850761413574, 1.1380822658538818, 1.1552969217300415, 0.9258632063865662, 1.007070541381836, 0.04461486265063286, 0.9320667386054993, 0.9331926107406616, -0.4326184093952179, 0.9829975962638855, 0.8555602431297302, -1.9002310037612915, -1.220463752746582, 1.0688270330429077, -2.0052411556243896, 1.184411883354187, -2.4254167079925537, -1.4970275163650513, 1.0448405742645264, 1.1142363548278809, -1.8594692945480347, -2.0154507160186768, -0.9223440289497375, 0.7946377396583557, 1.00297212600708, -1.960386037826538, 1.086809754371643, -2.268319606781006, 1.0864920616149902, -1.8953243494033813, 0.9185196757316589, 1.05185067653656, 1.0153717994689941, -0.06001541391015053, -1.5946334600448608, -2.141268253326416, -1.6580475568771362, 0.8593486547470093, -1.7463549375534058, 0.9341209530830383, -0.008919917047023773, 1.0736364126205444, 0.8444008827209473, 1.0810922384262085, -0.7861586809158325, 1.0215762853622437, -1.3724596500396729, -2.3009908199310303, -0.5481024384498596, -0.3846084177494049, -1.4286307096481323, 1.0337579250335693, 0.8867807984352112, 1.0628979206085205], [-0.013170004822313786, -0.030014866963028908, -0.04916228726506233, -0.07564228773117065, -0.025761323049664497, 0.02296219766139984, 0.00604898389428854, 0.035073570907115936, 0.06046672165393829, -0.06381439417600632, -0.049908217042684555, 0.05154731124639511, -0.0696195438504219, -0.08741454035043716, -0.06796328723430634, 0.05331277474761009, -0.07793058454990387, -0.0851564109325409, 0.06832844763994217, 0.034414127469062805, 0.04148964211344719, 0.038546644151210785, 0.01882236637175083, -0.09299752116203308, 0.028912369161844254, -0.08328276127576828, -0.0793292373418808, 0.06422393769025803, 0.024528348818421364, -0.049186982214450836, -0.006434447132050991, -0.0012828657636418939, -0.09092205762863159, -0.06016238406300545, -0.0358683243393898, -0.022038409486413002, -0.0011063864221796393, 0.06655061990022659, -0.04715394601225853, 0.001970396377146244, -0.046177566051483154, 0.03808189928531647, 0.0291095320135355, 0.042406655848026276, -0.04794063791632652, -0.07013881206512451, -0.0254058875143528, -0.016483284533023834, -0.08405338227748871, -0.00048794460599310696, -0.04655066132545471, -0.0363047830760479, -0.03924063220620155, 0.012465943582355976, 0.002775382250547409, -0.0696241483092308, -0.08837749809026718, 0.004106788896024227, 0.032305292785167694, 0.01444045826792717, 0.08595303446054459, -0.06134765222668648, 0.0036240089684724808, 0.014177925884723663, -0.04766052961349487, 0.04776022955775261, 0.04006457328796387, -0.01056117843836546, -0.009098194539546967, -0.07526905089616776, -0.056599970906972885, -0.017157981172204018, -0.07580909878015518, -0.07297375053167343, -0.08500868082046509, 0.0419514961540699, -0.013735949993133545, 0.043911829590797424, -0.08593356609344482, 0.01113633532077074, -0.0685543343424797, 0.0687134712934494, 0.04141939431428909, -0.015513727441430092, 0.032703697681427, 0.03171657770872116, -0.06509007513523102, -0.017984649166464806, 0.03277917206287384, 0.05983138829469681, -0.07199329882860184, 0.0068713584914803505, -0.025729380548000336, 0.046025317162275314, -0.052718162536621094, 0.07209981977939606, -0.006876521743834019, -0.03479130566120148, 0.07596645504236221, 0.05732022970914841, 0.06942927092313766, 0.046913422644138336, 0.023401007056236267, -0.06497792154550552, 0.02100520208477974, -0.04075857251882553, -0.0504763126373291, 0.031162377446889877, -0.006546500604599714, 0.024526681751012802, -0.08615799993276596, -0.0469980463385582, -0.07880453020334244, -0.02896643988788128, 0.04235175624489784, 0.02757377177476883, 0.02042487822473049, 0.017992747947573662, -0.0493660531938076, -0.06773027777671814, 0.07321600615978241, 0.03840775787830353, -0.07564601302146912, -0.06570985168218613, 0.03666488081216812, -0.020170416682958603, -0.022368252277374268, -0.07735295593738556], [-0.003833661787211895, 0.08733132481575012, 0.0427970290184021, -0.09400111436843872, 0.06397770345211029, 0.08188740909099579, 0.05807161703705788, -0.05539416894316673, 0.08128225803375244, 0.005804276093840599, -0.06987527757883072, -0.09327778965234756, -0.051891691982746124, -0.06593387573957443, -0.028556346893310547, -0.014531802386045456, 0.0015216823667287827, -0.09382998943328857, -0.04921291396021843, 0.04551006108522415, -0.0661889910697937, 0.04894983768463135, 0.04813437908887863, -0.0749770998954773, 0.031752511858940125, -0.006059623323380947, 0.04614139348268509, 0.0806417390704155, 0.026499781757593155, 0.06094460189342499, 0.0056905318051576614, -0.007829113863408566, 0.02270558662712574, -0.06584443151950836, -0.06783858686685562, 0.07638299465179443, -0.0196452047675848, 0.04108282923698425, -0.002350039314478636, -0.027724839746952057, -0.03756150230765343, -0.07885047048330307, 0.04850628599524498, -0.08094466477632523, 0.04229409620165825, -0.07929898053407669, 0.04236628860235214, -0.08700055629014969, -0.06540244817733765, -0.04159047454595566, 0.0253602284938097, -0.06434109061956406, -0.08134175837039948, 0.02661944553256035, -0.07142224162817001, 0.03485656529664993, -0.03278297185897827, -0.06696698069572449, 0.029816020280122757, -0.06615763902664185, -0.09505601227283478, -0.04450028017163277, -0.034406937658786774, 0.07058338820934296, -0.0036942448932677507, 0.010068281553685665, 0.055221136659383774, 0.01684609428048134, 0.030786514282226562, 0.0198929775506258, -0.05809813365340233, -0.027102451771497726, -0.08073166012763977, -0.030186157673597336, -0.0633777305483818, -0.087308868765831, -0.09851925820112228, -0.07568934559822083, -0.04929250851273537, -0.0334235355257988, 0.03993924707174301, 0.06422387063503265, 0.010550150647759438, -0.012097370810806751, 0.024429526180028915, -0.10871105641126633, 0.0020176912657916546, -0.019200870767235756, -0.06332646310329437, 0.04427323490381241, -0.05004958063364029, 0.01687217876315117, -0.08935254067182541, -0.06442414224147797, -0.0008176019182428718, -0.07099291682243347, 0.06276095658540726, 0.08518695086240768, -0.07319537550210953, -0.09484190493822098, 0.03607364743947983, 0.05969138815999031, -0.062065042555332184, -0.09474276751279831, 0.06360713392496109, -0.015368097461760044, -0.05315030366182327, -0.022305786609649658, -0.04559498652815819, 0.04884849116206169, 0.03633527457714081, -0.03862553462386131, -0.002557072788476944, -0.08067234605550766, 0.0654262974858284, 0.03953170031309128, -0.058635227382183075, -0.02337631955742836, -0.07125017046928406, 0.07401402294635773, 0.04294511675834656, -0.08192668855190277, -0.056577131152153015, 0.05381917953491211, 0.06513174623250961, 0.07572490721940994, 0.02058018557727337, 0.007735447958111763], [1.122239112854004, -1.9431719779968262, 0.9746752977371216, 1.0916712284088135, -0.9177217483520508, 1.1141010522842407, 1.2816160917282104, -1.128137230873108, 1.2190431356430054, 1.0661109685897827, -1.4442830085754395, -1.1193275451660156, 1.0044939517974854, 1.0154966115951538, -1.6126444339752197, -1.8347864151000977, 1.06136953830719, -1.6715166568756104, 1.1346713304519653, -1.4014310836791992, -2.153534173965454, -1.986993670463562, 0.7133316397666931, 0.8440282940864563, -1.9710237979888916, -0.7003262042999268, -0.7085433602333069, -1.2286609411239624, 0.8390858173370361, 0.9685236811637878, 1.0026826858520508, 0.28339454531669617, -0.6612454652786255, 1.0065327882766724, 0.8543027639389038, -2.1771323680877686, 0.8582239151000977, -1.0065531730651855, 1.0206869840621948, -0.05009462311863899, -1.1411869525909424, 1.0701743364334106, -1.691667914390564, -1.4888771772384644, -1.9360469579696655, -1.8980544805526733, -0.5125397443771362, -1.7163605690002441, 0.9511337280273438, -0.4481685161590576, 0.7013915777206421, -0.5702160000801086, 1.0680439472198486, 1.0048974752426147, 0.3654335141181946, 1.1806038618087769, 1.2167378664016724, 0.9647411704063416, 0.04311200603842735, 1.18696928024292, -1.193616271018982, 0.9989877343177795, -1.5016270875930786, -0.5791570544242859, 0.9025657773017883, -1.2303169965744019, 1.1021348237991333, 0.07550270855426788, 0.8150090575218201, 0.958813488483429, 1.2062958478927612, 1.1009291410446167, 0.7213916182518005, 1.0667555332183838, 0.7107775211334229, 1.0467145442962646, 1.024075984954834, 1.0184400081634521, 1.1918278932571411, -0.04222326725721359, 0.9867879748344421, 0.9617335200309753, -0.13325722515583038, 1.2176560163497925, 0.8658084273338318, -1.9294520616531372, -1.2176836729049683, 1.092761754989624, -2.0304245948791504, 1.1604334115982056, -2.616643190383911, -1.463095784187317, 1.0530762672424316, 1.1134636402130127, -1.7572821378707886, -1.8074339628219604, -0.9061678051948547, 0.8297989368438721, 0.9895877838134766, -1.7628899812698364, 1.1229168176651, -2.1847567558288574, 1.117626428604126, -1.8558861017227173, 0.8839837312698364, 1.2059361934661865, 1.1046273708343506, -0.03876185789704323, -1.6213217973709106, -2.094707489013672, -1.698865294456482, 0.8844859600067139, -1.7808501720428467, 0.8278437256813049, 0.06642696261405945, 1.09255850315094, 0.9586584568023682, 1.1563767194747925, -0.588643491268158, 1.0692925453186035, -1.3625075817108154, -2.3559796810150146, -0.4492795169353485, -0.08923530578613281, -1.3242456912994385, 0.9945208430290222, 0.9725745320320129, 1.1028376817703247], [-0.003959883935749531, -0.07015305757522583, 0.07051528990268707, 0.019965890794992447, 0.007162543013691902, 0.08542328327894211, 0.0652720034122467, 0.045224759727716446, -0.05588744580745697, 0.002429341897368431, -0.09751062095165253, 0.00912469532340765, 0.07279722392559052, -0.05653231590986252, 0.012921927496790886, 0.0016529677668586373, -0.06541423499584198, 0.07228314131498337, -0.010177671909332275, 0.00456621078774333, 0.03792313486337662, 0.044043075293302536, 0.03981252387166023, -0.006744737736880779, -0.011009019799530506, 0.03298024460673332, -0.025056853890419006, -0.03655068948864937, 0.0647936463356018, -0.023104753345251083, 0.04636743292212486, 0.04501160979270935, -0.054485999047756195, 0.04031755030155182, -0.0415276363492012, -0.022450130432844162, 0.07564613968133926, -0.04679912328720093, -0.03894556313753128, 0.01872796192765236, -0.005953419487923384, -0.0815034955739975, 0.009115846827626228, 0.02563706785440445, -0.014226920902729034, 0.018894948065280914, 0.03915281966328621, -0.07648596912622452, -0.06900714337825775, -0.0073666260577738285, -0.08456804603338242, 0.028857752680778503, 0.03714313358068466, 0.06656119227409363, 0.07302258163690567, 0.011636795476078987, -0.0692359134554863, -0.0012198667973279953, -0.00445843068882823, -0.0634092390537262, -0.04017378389835358, -0.017923429608345032, 0.018287930637598038, -0.03343990072607994, 0.017907962203025818, 0.0351770780980587, 0.05357503890991211, -0.039373185485601425, 0.004494578577578068, -0.04414182901382446, 0.05920824036002159, -0.039269812405109406, 0.01791416108608246, 0.04106702283024788, -0.06341234594583511, -0.07607148587703705, -0.09106101095676422, 0.06516841799020767, -0.08790146559476852, 0.07119689136743546, 0.013620315119624138, 0.03962572664022446, -0.0477505624294281, -0.08180607110261917, -0.004879765212535858, 0.04363691806793213, 0.05227208882570267, 0.010665816254913807, -0.07245447486639023, 0.011895857751369476, -0.05059264227747917, 0.006750175729393959, -0.010888125747442245, -0.05099897086620331, -0.053319238126277924, 0.0721227377653122, -0.06172596663236618, -0.07404738664627075, -0.04795484244823456, 0.01700173318386078, -0.022154612466692924, 0.08104736357927322, 0.030127663165330887, -0.0037711840122938156, -0.04400304704904556, -0.0022738357074558735, -0.06483873724937439, 0.04807095602154732, 0.007458292879164219, -0.007596337236464024, 0.02871735580265522, 0.08470501750707626, 0.0036345545668154955, -0.022213783115148544, -0.0004846255178563297, -0.0026374715380370617, -0.014979497529566288, -0.012165280990302563, -0.057409174740314484, -0.061859190464019775, -0.035794295370578766, 0.031092477962374687, 0.09707552194595337, -0.039546817541122437, -0.01182872336357832, -0.022770190611481667, 0.014899732545018196, -0.05252060666680336], [0.8550888895988464, -2.0049924850463867, 0.9662501215934753, 1.0871553421020508, -1.3034554719924927, 0.8766326308250427, 0.8975356221199036, -0.9861344695091248, 0.9658898115158081, 1.080723762512207, -1.241240382194519, -1.6163718700408936, 0.8178684115409851, 1.1185191869735718, -1.6460280418395996, -1.906116008758545, 1.0337733030319214, -1.714996099472046, 1.0518327951431274, -1.5833117961883545, -2.293665885925293, -2.116516351699829, 0.9240785241127014, 1.0939266681671143, -2.0468244552612305, -0.9430264234542847, -0.9680270552635193, -1.2400139570236206, 0.8411568999290466, 1.0839004516601562, 1.0084521770477295, 0.3252585828304291, -0.16614997386932373, 1.0633692741394043, 0.7497040033340454, -1.9669320583343506, 0.7012243866920471, -0.7787966132164001, 1.1187717914581299, -0.18683093786239624, -1.064950942993164, 0.9543460011482239, -1.8704774379730225, -1.2279553413391113, -2.128157377243042, -2.02059006690979, -0.8134516477584839, -1.789988398551941, 0.7518205642700195, -0.8659815788269043, 0.9171431064605713, -0.3918558359146118, 0.9263522624969482, 1.0395556688308716, 0.33556482195854187, 0.9561741948127747, 1.053175687789917, 0.9261451959609985, 0.023543788120150566, 0.9812248349189758, -1.4386547803878784, 1.1004550457000732, -1.2361881732940674, -0.8871412873268127, 0.7966694235801697, -1.481974720954895, 0.9180365204811096, 0.01708032563328743, 0.9313090443611145, 0.934752345085144, 0.9699649214744568, 0.9141073822975159, 0.8184913992881775, 0.9383612275123596, 0.9493550062179565, 1.0679672956466675, 0.9929556250572205, 0.8320218324661255, 0.9854270219802856, -0.01593639887869358, 0.850025475025177, 1.0161383152008057, -0.5411789417266846, 0.9279381036758423, 1.0077868700027466, -1.9039143323898315, -1.4463571310043335, 0.9759491086006165, -1.952857494354248, 0.9644514918327332, -2.5018017292022705, -1.7217003107070923, 0.9353317618370056, 1.0865706205368042, -1.8357646465301514, -1.9602749347686768, -1.0948944091796875, 0.7740126848220825, 1.0029900074005127, -2.116074323654175, 1.1228448152542114, -2.091209650039673, 1.1240098476409912, -1.826015830039978, 1.0712826251983643, 1.0296391248703003, 0.9957974553108215, -0.017492718994617462, -1.3385801315307617, -2.15431547164917, -1.7916326522827148, 0.8660755753517151, -1.9526476860046387, 0.8281707763671875, 0.04665198177099228, 0.9967397451400757, 0.982528805732727, 0.9893165826797485, -0.9571276903152466, 1.0016580820083618, -1.458136796951294, -2.130645275115967, -0.8368877172470093, -0.5666685700416565, -1.6197946071624756, 0.9557299017906189, 0.9781668186187744, 0.8512211441993713], [0.877168595790863, -2.1860063076019287, 0.9689558744430542, 1.1058809757232666, -1.2783336639404297, 0.9581995010375977, 0.9757861495018005, -0.7690491080284119, 1.0408971309661865, 1.038051962852478, -1.0396037101745605, -1.7223001718521118, 0.9079093337059021, 1.1198558807373047, -1.6903290748596191, -1.9728469848632812, 0.9838773012161255, -1.7682734727859497, 0.9590932726860046, -1.4784098863601685, -2.310781955718994, -2.1107614040374756, 1.1003981828689575, 1.0368396043777466, -2.191824197769165, -0.9921213984489441, -1.1116119623184204, -1.3002294301986694, 0.8993938565254211, 1.1330466270446777, 1.1417230367660522, 0.21278996765613556, -0.014870680868625641, 0.9882938861846924, 0.7079522013664246, -1.9478297233581543, 0.7409563660621643, -0.7848970890045166, 0.9905381798744202, -0.17630359530448914, -1.1081401109695435, 0.961376428604126, -1.8287410736083984, -1.0511575937271118, -2.113689422607422, -2.013906955718994, -0.8990799784660339, -1.7646706104278564, 0.765072762966156, -0.8582651019096375, 0.9420580863952637, -0.3306503891944885, 0.8615617156028748, 1.0017063617706299, 0.25694525241851807, 0.8100095987319946, 0.8804048299789429, 1.1467076539993286, -0.021962154656648636, 0.9650265574455261, -1.515087366104126, 1.1591845750808716, -1.1940491199493408, -1.099923849105835, 0.9433881640434265, -1.4531476497650146, 0.9036049842834473, 0.07853692770004272, 1.0768485069274902, 0.9736573696136475, 1.0380444526672363, 0.8701600432395935, 0.8810643553733826, 0.985497772693634, 1.037437081336975, 1.0320085287094116, 0.9839709401130676, 0.7797281742095947, 0.9654046297073364, -0.013478276319801807, 0.8394174575805664, 0.9963740706443787, -0.7074227929115295, 0.9496126770973206, 0.9960058331489563, -1.9098007678985596, -1.3893874883651733, 1.0432277917861938, -2.0176267623901367, 1.0437779426574707, -2.357612133026123, -1.6254916191101074, 1.0633692741394043, 1.098671555519104, -1.909645676612854, -1.957529902458191, -1.1948784589767456, 0.6465364098548889, 0.9760231971740723, -2.079608678817749, 1.0338237285614014, -1.9498156309127808, 1.0651899576187134, -1.880311369895935, 1.107102394104004, 1.0513943433761597, 1.1033769845962524, 0.08536484837532043, -1.1924350261688232, -1.9825782775878906, -1.6659377813339233, 0.9074069261550903, -1.9833157062530518, 0.9624365568161011, -0.07767216116189957, 1.0778053998947144, 0.9674349427223206, 0.9977157115936279, -1.0213580131530762, 1.0730769634246826, -1.5760643482208252, -2.095179557800293, -0.7731761932373047, -0.7468135952949524, -1.7098835706710815, 1.0149412155151367, 1.043763279914856, 0.9337726831436157], [0.8873190879821777, -2.0661585330963135, 0.9724497199058533, 1.058457374572754, -1.2235743999481201, 0.9827239513397217, 1.0752159357070923, -0.8911904692649841, 1.0393478870391846, 0.9626967310905457, -1.3008521795272827, -1.44635009765625, 0.9704084396362305, 0.9324560761451721, -1.6456395387649536, -1.902411937713623, 0.9895126223564148, -1.7392128705978394, 1.1017543077468872, -1.518907070159912, -2.1741058826446533, -2.0723443031311035, 0.9023903012275696, 0.948431134223938, -2.03181529045105, -0.909511923789978, -0.8916707634925842, -1.3077493906021118, 0.8481621146202087, 0.9267129898071289, 0.9854410290718079, 0.20440933108329773, -0.3892018496990204, 1.0706524848937988, 0.7669436931610107, -2.1009960174560547, 0.8039019107818604, -0.8888431191444397, 1.0422781705856323, -0.018858661875128746, -1.0879112482070923, 0.9770946502685547, -1.7130768299102783, -1.3308557271957397, -2.103368043899536, -1.9558426141738892, -0.871376097202301, -1.7284014225006104, 0.713091254234314, -0.8000418543815613, 0.8731868863105774, -0.5200361609458923, 0.9483991265296936, 0.9184086322784424, 0.36392951011657715, 0.9120992422103882, 1.0301215648651123, 1.0549315214157104, 0.06188477575778961, 1.075384497642517, -1.5159863233566284, 1.0048243999481201, -1.29311203956604, -0.8516510725021362, 0.8697992563247681, -1.3282355070114136, 0.918381929397583, -0.07297109067440033, 0.7933419942855835, 1.026901125907898, 1.0130691528320312, 0.9521157741546631, 0.8206040263175964, 1.021104335784912, 0.876706600189209, 1.0117298364639282, 1.0774379968643188, 0.9200680255889893, 0.958437442779541, -0.02770630456507206, 0.806840181350708, 0.9936927556991577, -0.44267621636390686, 0.973033607006073, 0.9520158767700195, -1.9741941690444946, -1.4527634382247925, 0.9836824536323547, -2.082465648651123, 1.066526174545288, -2.4258882999420166, -1.5631088018417358, 0.9301166534423828, 1.0388190746307373, -1.87985360622406, -2.019364833831787, -1.0316359996795654, 0.7471165060997009, 1.0058813095092773, -2.0712766647338867, 0.9848695397377014, -2.071021556854248, 1.0229582786560059, -1.843409538269043, 0.8556877970695496, 1.048013687133789, 1.0776406526565552, 0.002775598783046007, -1.464678168296814, -2.031940460205078, -1.6599611043930054, 0.7593202590942383, -1.903139591217041, 0.7847122550010681, -0.03716311976313591, 1.003205418586731, 0.8428837656974792, 1.0018583536148071, -0.8028039932250977, 0.9371927976608276, -1.4298913478851318, -2.128093719482422, -0.7644878029823303, -0.5252354145050049, -1.4779130220413208, 0.9325840473175049, 1.0030795335769653, 0.8824031352996826], [0.07077045738697052, -0.08934240788221359, 0.02245112881064415, -0.05950845032930374, 0.032220467925071716, 0.02863025851547718, 0.021407201886177063, -0.013904434628784657, 0.008653469383716583, -0.06136268377304077, 0.042659785598516464, 0.040039289742708206, 0.010919054038822651, -0.028765380382537842, 0.020429208874702454, 0.010024849325418472, 0.03799489885568619, 0.007623247802257538, 0.027174951508641243, 0.04337188974022865, -0.01634403131902218, -0.010850399732589722, 0.024823809042572975, -0.08279826492071152, 0.01801326684653759, 0.06343309581279755, -0.038812123239040375, -0.0867217630147934, 0.047070760279893875, -0.07471142709255219, -0.09083422273397446, 0.08101443946361542, 0.06656895577907562, -0.05256102979183197, 0.01093877200037241, -0.07621436566114426, 0.0367254838347435, 0.006781743839383125, 0.06359947472810745, 0.03822794929146767, 0.04867148399353027, -0.07406867295503616, -0.014977814629673958, -0.003337619360536337, 0.0748458132147789, -0.028752949088811874, -0.05829881504178047, -0.05670894309878349, 0.004247667267918587, -0.002559743821620941, 0.04920095577836037, -0.025150835514068604, -0.08649903535842896, 0.040739987045526505, 0.038455069065093994, -0.007747005671262741, -0.09180793166160583, -0.08442619442939758, 0.07181152701377869, 0.047412093728780746, 0.013399750925600529, -0.035378970205783844, 0.06809622049331665, -0.020981572568416595, 0.06805683672428131, 0.04405318200588226, -0.033161748200654984, 0.007200451567769051, -0.014231011271476746, -0.050641536712646484, -0.019699323922395706, 0.03669213131070137, -0.027943074703216553, 0.07777442038059235, -0.03119218721985817, 0.026560097932815552, 0.06304556131362915, 0.038270287215709686, -0.014372887089848518, -0.056622542440891266, -0.07027867436408997, 0.037639766931533813, -0.00511882035061717, -0.060589779168367386, -0.09396309405565262, 0.012947669252753258, -0.011166512966156006, -0.0891038179397583, -0.06572316586971283, -0.0689903199672699, -0.08622264117002487, -0.08206170797348022, -0.028086990118026733, -0.06143668293952942, -0.0820685550570488, -0.05357373133301735, 0.06188224256038666, 0.07551664113998413, -0.03961730748414993, -0.07538439333438873, 0.06802357733249664, 0.06046289950609207, 0.021535560488700867, -0.0484238937497139, -0.07779626548290253, 0.01327197439968586, -0.03541449457406998, -0.08117951452732086, 0.026614448055624962, -0.06254394352436066, -0.09283985197544098, -0.04865756630897522, 0.01017493661493063, -0.05441821739077568, 0.03523258492350578, -0.05117667093873024, 0.013334996066987514, -0.054990608245134354, 0.07654865831136703, 0.07329890131950378, 0.007504004053771496, -0.02194714918732643, -0.08944331109523773, 0.04271349310874939, -0.0023043625988066196, -0.04085036367177963, 0.0025261668488383293, -0.03335460275411606], [-0.0664643868803978, 0.06655415892601013, -0.09142480045557022, 0.002427332103252411, -0.038536734879016876, -0.0795111432671547, -0.04960384964942932, 0.05455984175205231, -0.0733090192079544, -0.039643920958042145, 0.06137814745306969, 0.053948644548654556, 0.04393170028924942, -0.0832008570432663, 0.055230334401130676, -0.03226952254772186, -0.02422236278653145, 0.026965036988258362, 0.03842141851782799, -0.05356211960315704, 0.07689612358808517, -0.09263867139816284, -0.09261942654848099, 0.008107865229249, -0.05786885321140289, -0.07924026250839233, 0.041658367961645126, -0.042699676007032394, -0.04276267811655998, -0.05678470432758331, -0.08372156322002411, -0.013437510468065739, -0.04350662603974342, -0.08269664645195007, -0.023071352392435074, -0.0006402527797035873, -0.004404348786920309, 0.07617781311273575, 0.07465789467096329, 0.07671478390693665, -0.014530104584991932, 0.007754244841635227, 0.02165079489350319, 0.0016453496646136045, 0.05627318099141121, 0.05104446038603783, -0.09113370627164841, 0.0243759136646986, -0.040635984390974045, -0.01481169555336237, 0.007675954140722752, 0.013416332192718983, 0.018649864941835403, -0.060591910034418106, 0.08224062621593475, 0.05358975753188133, -0.08194795250892639, -0.022149210795760155, 0.023399192839860916, 0.027365708723664284, 0.0019475426524877548, 0.07460182160139084, -0.01898151822388172, 0.07135576009750366, 0.04081114009022713, 0.05154749006032944, -0.08256804198026657, 0.052469898015260696, 0.06243664026260376, 0.055560410022735596, -0.05607221648097038, -0.08400903642177582, -0.020400650799274445, -0.09230910241603851, -0.07194351404905319, -0.015295661054551601, -0.03342147916555405, 0.02714681439101696, -0.08382124453783035, 0.027216104790568352, -0.025317929685115814, 0.04455401003360748, -0.014413060620427132, 0.07763682305812836, -0.06252400577068329, -0.043978866189718246, -0.038583625108003616, 0.006605866365134716, 0.05982954800128937, -0.07563122361898422, -0.05786417797207832, 0.005635812878608704, -0.0598423108458519, 0.04029392451047897, 0.004379170946776867, 0.0773121565580368, -0.04411594942212105, 0.012852665036916733, -0.0615440271794796, 0.041098564863204956, 0.019500210881233215, 0.054999370127916336, -0.03258378431200981, -0.016303058713674545, -0.02164386212825775, 0.05738430470228195, 0.0031639067456126213, -0.017350265756249428, -0.08377557247877121, 0.040945347398519516, 0.07733799517154694, -0.018900813534855843, -0.06492890417575836, -0.07698339223861694, 0.005751654040068388, 0.06290552765130997, -0.007565467618405819, -0.059282612055540085, 0.02397397719323635, 0.05823981389403343, 0.011044423095881939, 0.037567202001810074, 0.031345319002866745, 0.03454186022281647, -0.04482021555304527, -0.09589448571205139, -0.06601503491401672, -0.04342799633741379], [0.012409590184688568, 0.060803256928920746, -0.04347081109881401, 0.01643894612789154, 0.013821921311318874, 0.017782270908355713, 0.04633611813187599, 0.0028659540694206953, 0.07162246108055115, -0.034995924681425095, 0.05326059088110924, 0.012670300900936127, 0.004024870693683624, -2.9163435101509094e-05, 0.05591569468379021, -0.06863998621702194, -0.07411707937717438, 0.07152384519577026, -0.04480205103754997, 0.061363913118839264, -0.03154598921537399, -0.06754842400550842, -0.043881986290216446, -0.04806993529200554, -0.07546834647655487, 0.057076580822467804, -0.09690449386835098, 0.06761655956506729, -0.055114053189754486, 0.007077671587467194, -0.08753715455532074, -0.019511515274643898, 0.07190613448619843, -0.004978269804269075, 0.02733934298157692, -0.02295232005417347, -0.06714262068271637, 0.02635820582509041, -0.012758458033204079, -0.06302998960018158, -0.02975533716380596, -0.0058798291720449924, -0.086921826004982, -0.03748711198568344, -0.09768491238355637, -0.09792211651802063, 0.0048469724133610725, -0.020551297813653946, 0.06377362459897995, 0.028612568974494934, -0.012442939914762974, 0.02320186048746109, 0.012205567210912704, 0.05160386115312576, 0.03613178804516792, -0.05986636132001877, 0.04920830950140953, 0.03520976006984711, -0.03426399454474449, -0.08561965078115463, -0.004380500875413418, -0.05314493551850319, -0.005017698276787996, -0.053236961364746094, 0.0671844482421875, -0.03534872829914093, 0.052623409777879715, 0.013098808005452156, -0.0072854552417993546, -0.09564415365457535, -0.059916626662015915, 0.0662291944026947, -0.05122949182987213, 0.029293322935700417, -0.019296711310744286, -0.057800501585006714, -0.07712087035179138, -0.034624870866537094, -0.04622818902134895, 0.08254799246788025, 0.023519253358244896, -0.08202668279409409, -0.05220786854624748, -0.07234311103820801, -0.05578157305717468, -0.07678694278001785, -0.010733175091445446, -0.0065618110820651054, -0.017240600660443306, -0.0066991220228374004, 0.05557366460561752, -0.06971186399459839, 0.051168590784072876, 0.07810570299625397, 0.04314787685871124, -0.03063810244202614, -0.08792272210121155, 0.024172982200980186, 0.017676696181297302, -0.012338068336248398, 0.01643197238445282, 0.049181632697582245, -0.08189807087182999, 0.03917093202471733, 0.06901462376117706, -0.04661370441317558, -0.025407955050468445, 0.0018952805548906326, 0.013956807553768158, 0.03760196268558502, -0.028457898646593094, -0.0025260960683226585, 0.05880171060562134, -0.010953227989375591, 0.07514362782239914, -0.0703449621796608, -0.056848157197237015, -0.0589442141354084, -0.032756272703409195, -0.053485870361328125, 0.015890300273895264, -0.014921627938747406, 0.062355607748031616, -0.07524465024471283, -0.042432960122823715, -0.01684553362429142, -0.06514324247837067, -0.020194120705127716], [1.0391885042190552, -1.9631932973861694, 1.061229944229126, 1.1803499460220337, -1.024729609489441, 0.9587848782539368, 1.1801201105117798, -1.1278458833694458, 1.11586332321167, 1.13787841796875, -1.4120622873306274, -1.2421321868896484, 1.0986982583999634, 0.9693306684494019, -1.6701264381408691, -1.9374241828918457, 1.0064195394515991, -1.8108421564102173, 1.1542332172393799, -1.4625660181045532, -2.1410586833953857, -1.9539598226547241, 0.8097293972969055, 0.9139700531959534, -2.040114402770996, -0.6956934928894043, -0.7733782529830933, -1.265933632850647, 0.8962670564651489, 0.9621954560279846, 1.0629130601882935, 0.30835825204849243, -0.4318803548812866, 1.0076597929000854, 0.816163182258606, -2.0902390480041504, 0.864704430103302, -0.9418303966522217, 1.0726391077041626, -0.11586053669452667, -1.2573845386505127, 1.221529245376587, -1.825021743774414, -1.4171770811080933, -1.964474081993103, -1.922972559928894, -0.7154133319854736, -1.7850233316421509, 0.96863853931427, -0.47572264075279236, 0.7816648483276367, -0.6547180414199829, 1.048527717590332, 1.0640910863876343, 0.27918747067451477, 1.1675825119018555, 1.1736398935317993, 1.0247822999954224, 0.09254725277423859, 1.1393309831619263, -1.2443069219589233, 1.1556928157806396, -1.4488415718078613, -0.6476427316665649, 0.9739481806755066, -1.31245756149292, 0.9523712396621704, -0.024229969829320908, 0.7496273517608643, 1.010900616645813, 1.1427714824676514, 0.991664707660675, 0.7120676040649414, 1.1304869651794434, 0.7657697200775146, 1.082915186882019, 1.0486358404159546, 1.0668865442276, 1.0990585088729858, -0.040486738085746765, 0.9885075688362122, 1.0423102378845215, -0.2940141260623932, 1.160758376121521, 0.9352691173553467, -1.9818899631500244, -1.1694244146347046, 1.1755248308181763, -1.9790972471237183, 1.1933233737945557, -2.481961250305176, -1.4916549921035767, 1.2142325639724731, 1.1660268306732178, -1.6731737852096558, -1.8578065633773804, -0.9431686997413635, 0.9057867527008057, 1.0246905088424683, -1.796653151512146, 1.186346411705017, -2.1334736347198486, 1.270777702331543, -1.748284935951233, 0.957875669002533, 1.0553083419799805, 0.9892253279685974, -0.042780060321092606, -1.5876779556274414, -2.152085781097412, -1.6186546087265015, 0.8898628354072571, -1.7096447944641113, 0.8077375292778015, -0.04097386449575424, 1.187370777130127, 1.0416046380996704, 1.1193679571151733, -0.7583482265472412, 1.157840609550476, -1.4195212125778198, -2.299318313598633, -0.4678908586502075, -0.24061618745326996, -1.3216423988342285, 1.0895658731460571, 0.8926646113395691, 1.1117641925811768], [0.9920266270637512, -2.0564346313476562, 0.9715450406074524, 1.0075833797454834, -1.1325383186340332, 0.9712818264961243, 1.019693374633789, -1.0192835330963135, 1.1110799312591553, 0.9989317059516907, -1.2490010261535645, -1.398772120475769, 0.8396292924880981, 0.9425263404846191, -1.630098581314087, -1.9344624280929565, 1.0283318758010864, -1.6667498350143433, 1.0927566289901733, -1.5715378522872925, -2.2331159114837646, -2.0276381969451904, 0.8592955470085144, 0.9813144207000732, -2.033231496810913, -0.841900110244751, -0.9044975638389587, -1.3737807273864746, 0.7984398007392883, 0.9725608825683594, 0.9423779249191284, 0.31811800599098206, -0.42834827303886414, 0.9258245229721069, 0.8726444840431213, -2.0493104457855225, 0.7724155783653259, -0.8914616703987122, 1.0604640245437622, -0.1133413165807724, -1.204827904701233, 1.1190717220306396, -1.8385612964630127, -1.229483962059021, -2.1020736694335938, -2.0368690490722656, -0.8507561683654785, -1.8263362646102905, 0.8387594223022461, -0.647453248500824, 0.8084019422531128, -0.513801634311676, 0.8588081002235413, 0.980706512928009, 0.22388482093811035, 1.016806721687317, 1.0685131549835205, 1.006740927696228, 0.043988510966300964, 0.9694219827651978, -1.4492197036743164, 1.0788929462432861, -1.4618523120880127, -0.9322336912155151, 0.9602226614952087, -1.4424123764038086, 1.0161486864089966, -0.06320564448833466, 0.9536099433898926, 1.0591505765914917, 0.9400933384895325, 1.0002509355545044, 0.773883044719696, 1.0552809238433838, 0.8653844594955444, 1.0768194198608398, 0.9710396528244019, 0.8967400789260864, 0.9917688965797424, 0.022196369245648384, 0.7702739238739014, 0.9840731024742126, -0.5421643257141113, 1.0185315608978271, 1.0066992044448853, -1.979455590248108, -1.4121237993240356, 1.0580052137374878, -1.951375126838684, 1.0625296831130981, -2.3748366832733154, -1.5271261930465698, 1.0503110885620117, 0.947498083114624, -1.8524580001831055, -2.0031332969665527, -1.075575351715088, 0.6558201313018799, 0.8592312932014465, -1.9626747369766235, 1.0515835285186768, -2.174703598022461, 1.1878348588943481, -1.93207585811615, 0.8674131631851196, 1.0679548978805542, 1.0725375413894653, 0.028393378481268883, -1.5612136125564575, -2.0767483711242676, -1.7077279090881348, 0.9387394785881042, -1.9078420400619507, 0.9402800798416138, 0.020265638828277588, 0.9942696690559387, 0.8762851357460022, 1.0018277168273926, -0.754325270652771, 1.0066636800765991, -1.4273552894592285, -2.2234609127044678, -0.6469815969467163, -0.5306918621063232, -1.4106061458587646, 0.9713938236236572, 0.9773105978965759, 0.9136108756065369], [1.0859804153442383, -1.8622727394104004, 1.1000845432281494, 1.06869637966156, -0.9288114309310913, 1.110343337059021, 1.2364343404769897, -1.145897626876831, 1.2567716836929321, 1.0730328559875488, -1.4806326627731323, -1.2293965816497803, 1.0746976137161255, 0.8948727250099182, -1.768807291984558, -1.9618771076202393, 1.0234546661376953, -1.6532880067825317, 1.172308325767517, -1.4956811666488647, -2.1200294494628906, -1.8827112913131714, 0.7586503624916077, 0.9023475050926208, -2.0196831226348877, -0.7147455215454102, -0.6762038469314575, -1.2140904664993286, 0.8933032751083374, 1.0717638731002808, 1.0055437088012695, 0.1692284643650055, -0.48638269305229187, 1.0687386989593506, 0.9323301911354065, -2.24051833152771, 0.8996152281761169, -1.060462474822998, 1.0480988025665283, -0.0728960707783699, -1.2125343084335327, 1.1663042306900024, -1.77879798412323, -1.3416364192962646, -1.8930562734603882, -1.834952712059021, -0.5320815443992615, -1.659657597541809, 0.8833799362182617, -0.45205622911453247, 0.737137496471405, -0.7191374897956848, 1.116294503211975, 0.98623126745224, 0.27565765380859375, 1.2422010898590088, 1.2679632902145386, 1.0406638383865356, 0.15017946064472198, 1.0557081699371338, -1.2242792844772339, 0.9782944917678833, -1.540520191192627, -0.569766104221344, 0.9947342872619629, -1.227817177772522, 1.0950500965118408, -0.03751051425933838, 0.7862895131111145, 1.123332142829895, 1.2311899662017822, 0.9803547263145447, 0.8007766008377075, 1.0833332538604736, 0.7865099906921387, 1.0795323848724365, 1.02412748336792, 1.1456183195114136, 1.2659955024719238, -0.08444210886955261, 0.9524136781692505, 1.0901410579681396, -0.15469539165496826, 1.1419605016708374, 0.9355994462966919, -1.9478245973587036, -1.191244125366211, 1.158668041229248, -2.0470492839813232, 1.2355530261993408, -2.530839443206787, -1.506653070449829, 1.078063726425171, 1.0535444021224976, -1.6238523721694946, -1.7921192646026611, -0.931027352809906, 0.9504501223564148, 1.067957878112793, -1.7442342042922974, 1.134128212928772, -2.259700298309326, 1.1786249876022339, -1.7459278106689453, 0.8879685401916504, 1.1487092971801758, 1.0297648906707764, -0.08638002723455429, -1.7207359075546265, -2.1783242225646973, -1.7313538789749146, 0.9630512595176697, -1.7098121643066406, 0.8287834525108337, -0.04551061615347862, 1.1903166770935059, 0.9706703424453735, 1.2211834192276, -0.5526284575462341, 1.065185785293579, -1.4554239511489868, -2.3056490421295166, -0.37868601083755493, -0.18261468410491943, -1.29498291015625, 1.0096901655197144, 0.8159874677658081, 1.1273095607757568], [-1.1998854875564575, -3.6537880897521973, 0.3515927195549011, 0.4863209128379822, -5.190709590911865, 0.6482583284378052, -1.261368751525879, 4.057735919952393, -0.21691295504570007, 1.646671175956726, 4.331425666809082, -5.2677741050720215, 0.16815760731697083, 2.3483939170837402, 3.046586275100708, 3.448603391647339, 0.7826372385025024, 3.0636749267578125, 0.7776744365692139, 3.7226431369781494, -3.8753466606140137, -4.449287414550781, 3.08052134513855, 2.8926830291748047, -2.8927183151245117, -3.928417682647705, -4.361026287078857, 2.1807191371917725, 1.473759412765503, 1.8034576177597046, 2.1006529331207275, 1.167598843574524, 4.263100624084473, 1.7498326301574707, 0.34984931349754333, 4.059847831726074, 0.7401242852210999, 4.185283660888672, 0.8688495755195618, -0.8285067677497864, 3.869166612625122, 0.18297435343265533, -2.9589664936065674, 4.252589225769043, -3.9281015396118164, -3.5822622776031494, -4.572227954864502, 3.0766377449035645, 0.5154125690460205, -4.284213066101074, 2.4572246074676514, 4.222430229187012, 0.7207026481628418, 1.7360931634902954, -1.0726076364517212, -1.2150001525878906, -1.224522352218628, 1.111775517463684, -0.45842933654785156, 1.184970498085022, -4.525239944458008, 1.8292152881622314, 4.209078788757324, -4.735670566558838, 1.3542557954788208, 2.6154375076293945, 0.6645385026931763, -0.03564313426613808, 3.294527769088745, 1.2477142810821533, -0.3490368723869324, 0.9314200282096863, 2.2114734649658203, 1.3472580909729004, 2.676299571990967, 0.720550000667572, 1.0836265087127686, -0.11331640928983688, -1.2566182613372803, -0.014880724251270294, 0.9148279428482056, 1.8567349910736084, -4.437140464782715, -1.0863608121871948, 2.6388936042785645, 3.3661680221557617, -4.444769859313965, -0.3398101329803467, 3.601494312286377, -0.31707850098609924, 3.7605066299438477, -4.213314533233643, 0.19067320227622986, 1.5249443054199219, -4.462832927703857, -2.3590447902679443, -4.28135347366333, -0.5825986862182617, 1.3547911643981934, -5.133004188537598, 0.24895131587982178, 4.159943580627441, 0.4189220368862152, -2.7271621227264404, 2.839015483856201, 0.23543240129947662, 1.3559478521347046, -0.011549793183803558, 4.3763885498046875, 3.7757792472839355, -3.3978826999664307, 0.5469384789466858, -4.860788822174072, 1.6404833793640137, 0.04306277260184288, 0.6485452055931091, 0.9856721758842468, 0.6770288348197937, -4.361257553100586, 1.006781816482544, 2.409719705581665, 4.140102863311768, -4.537353038787842, -5.104801654815674, -4.979391574859619, 1.4739370346069336, 2.696340560913086, -0.33271151781082153], [-0.09601633995771408, 0.035145845264196396, -0.0687570720911026, -0.05679100751876831, -0.024525893852114677, 0.012463987804949284, 0.05607388913631439, 0.06585068255662918, 0.01372296828776598, -0.0317864865064621, 0.03485426679253578, 0.013626085594296455, -0.03511194512248039, -0.01922566071152687, -0.09600543230772018, 0.05809973552823067, -0.026980653405189514, 0.014527905732393265, -0.10931102186441422, 0.005664153955876827, 0.00825584027916193, -0.03189479559659958, 0.05432501435279846, 0.01649411767721176, 0.02700115740299225, -0.09500136226415634, 0.07005280256271362, 0.047316454350948334, -0.06607556343078613, -0.09179580956697464, -0.11919207870960236, -0.04324878752231598, -0.032345790416002274, -0.0974217876791954, 0.051928795874118805, -0.006807837635278702, 0.044366177171468735, -0.03731822222471237, 0.03943556547164917, 0.0024238810874521732, 0.05116378888487816, -0.10836685448884964, -0.03908204659819603, 0.05447417125105858, 0.019222281873226166, -0.049441561102867126, -0.030354104936122894, -0.05047030746936798, -0.07631247490644455, -0.04072076827287674, -0.0017693089321255684, 0.03705159202218056, 0.03307373449206352, -0.04350781440734863, -0.055284783244132996, 0.052866335958242416, 0.04561084508895874, 0.04983210563659668, -0.09608934074640274, 0.02803913503885269, -0.016027824953198433, -0.010279245674610138, -0.007415008265525103, 0.0015532169491052628, 0.015262140892446041, 0.03687150031328201, -0.06862040609121323, -0.08150503039360046, 0.00015803612768650055, -0.021587703377008438, 0.0019026265945285559, -0.06964864581823349, -0.11210153996944427, -0.0879710465669632, -0.09007443487644196, 0.024499382823705673, 0.007565324194729328, 0.031690966337919235, -0.09364988654851913, -0.01842791959643364, 0.057813748717308044, -0.04941485822200775, -0.06697362661361694, -0.061223916709423065, 0.002936147153377533, 0.0006600727210752666, 0.004922667518258095, 0.05548448488116264, 0.04670469090342522, -7.697567343711853e-05, 0.048685040324926376, -0.014178420417010784, -0.04440750554203987, -0.02230730839073658, -0.022597474977374077, 0.07579565048217773, -0.03579193726181984, -0.014424849301576614, -0.013763273134827614, -0.017803829163312912, 0.024497075006365776, 0.0013093426823616028, -0.01554663572460413, 0.02470952644944191, -0.07155055552721024, -0.023446867242455482, -0.04106149822473526, -0.009838586673140526, 0.04999455437064171, -0.09358546882867813, 0.0667293518781662, -0.04184649512171745, -0.06806077063083649, 0.031744200736284256, 0.031256385147571564, -0.11680962890386581, 0.06292210519313812, 0.023037251085042953, -0.08001894503831863, -0.07815734297037125, 0.019414298236370087, -0.0999709740281105, -0.02556353621184826, 0.07386400550603867, 0.05784359946846962, -0.09085918962955475, -0.030844569206237793, -0.03780822083353996], [-0.0087753189727664, 0.015086167491972446, 0.006109598092734814, -0.07906394451856613, 0.01558870729058981, 0.028736891224980354, -0.0639701634645462, 0.06086823344230652, 0.048148248344659805, 0.07173514366149902, -0.007834667339920998, -0.011700163595378399, 0.038112811744213104, -0.0938253179192543, 0.0684458464384079, -0.04043513908982277, -0.0035073854960501194, -0.028169309720396996, 0.028677156195044518, -0.06954921036958694, -0.08023197948932648, -0.008188490755856037, 0.003888385370373726, -0.02052401378750801, -0.09739059209823608, 0.01658942550420761, 0.032753609120845795, -0.019917886704206467, -0.02824896201491356, -0.08943451941013336, 0.07395819574594498, -0.05752462148666382, -0.06738370656967163, -0.034835245460271835, 0.06275732815265656, 0.08081559091806412, 0.044779468327760696, -0.0814664214849472, -0.07287339866161346, -0.04557777941226959, -0.08065854012966156, -0.021408235654234886, 0.05520022660493851, -0.04171933978796005, -0.04183159023523331, -0.03327418118715286, 0.049463409930467606, -0.026360398158431053, 0.017945818603038788, -0.02820473536849022, 0.026541750878095627, -0.04280920699238777, 0.0778188481926918, -0.02482391521334648, 0.04002687335014343, 0.03454745560884476, -0.06372963637113571, -0.03296935185790062, -0.017302334308624268, -0.0893857479095459, -0.043227825313806534, 0.05848473682999611, -0.08647044748067856, -0.08025774359703064, -0.05448722094297409, -0.04848203435540199, 0.028178095817565918, 0.006391527131199837, -0.047589052468538284, 0.00019273534417152405, 0.007133945822715759, -0.05211431905627251, 0.014613025821745396, 0.02118505910038948, -0.04258280619978905, -0.014551656320691109, 0.07738640904426575, -0.06825993210077286, 0.07553232461214066, 0.05139439180493355, -0.0783790573477745, 0.06703788042068481, -0.01191254798322916, -0.035853445529937744, 0.06540659815073013, 0.017596520483493805, -0.06722836196422577, 0.057341113686561584, -0.02337583154439926, -0.0718834176659584, -0.08763843774795532, 0.02759634703397751, 0.04047518968582153, -0.0768054947257042, 0.060475222766399384, -0.030771199613809586, 0.004611539654433727, 0.03587169200181961, -0.06556668877601624, -0.08768446743488312, -0.041327815502882004, -0.07970670610666275, -0.06141705438494682, 0.0044456059113144875, -0.020966345444321632, -0.018357548862695694, 0.07684187591075897, 0.06393883377313614, -0.09716477990150452, 0.07262177020311356, 0.013548647053539753, 0.03878149017691612, -0.04775046929717064, 0.023268960416316986, -0.07073364406824112, -0.0835709199309349, -0.004968931898474693, -0.028564052656292915, 0.07764444500207901, 0.07808349281549454, 0.06275378912687302, 0.02581222541630268, 0.006726113148033619, -0.07942504435777664, -0.00043042656034231186, -0.05266739800572395, -0.07234559208154678, 0.06990519165992737], [-0.02049754001200199, 0.046481262892484665, 0.005075323395431042, 0.03175219148397446, -0.0683402568101883, -0.010058587417006493, -0.0040354342199862, 0.012499090284109116, -0.0659254640340805, 0.07678304612636566, -0.0028099408373236656, 0.009501342661678791, -0.023106513544917107, -0.06735686957836151, -0.06068875268101692, 0.003079543821513653, -0.0863003060221672, -0.08094386756420135, -0.07560165971517563, 0.0315217450261116, 0.07124504446983337, -0.052424050867557526, -0.003798779798671603, 0.0859079584479332, 0.004519248381257057, 0.008918536826968193, -0.06574087589979172, -0.04937399923801422, 0.06825266033411026, -0.0033826848957687616, -0.04027630761265755, 0.03820281848311424, -0.052245497703552246, -0.010909869335591793, 0.023482032120227814, -0.08572760224342346, -0.014316325075924397, -0.018323004245758057, 0.07136169075965881, 0.08239901810884476, 0.08011361211538315, 0.04136580228805542, 0.011697552166879177, -0.021981246769428253, -0.008328480646014214, 0.08491013199090958, -0.0815642774105072, -0.05195995047688484, 0.060669176280498505, -0.06342111527919769, 0.07312607765197754, 0.013229199685156345, -0.030775416642427444, 0.030995940789580345, -0.04172161594033241, 0.034265290945768356, -0.07020581513643265, 0.009526146575808525, -0.01754705049097538, -0.035759903490543365, -0.05340699106454849, -0.0848299190402031, -0.045734208077192307, 0.0451246052980423, 0.015272384509444237, 0.03606570139527321, -0.05254111438989639, 0.056316036731004715, 0.029988819733262062, -0.02837980166077614, 0.06215333566069603, -0.06717053800821304, -0.06948241591453552, 0.020417239516973495, -0.0010121881496161222, -0.0337296798825264, -0.04743759334087372, 0.07950795441865921, -0.01280969101935625, -0.06716348975896835, -0.012097051367163658, -0.04143672436475754, -0.07206092774868011, -0.06988432258367538, 0.01617301069200039, -0.06751216948032379, -0.05403457581996918, -0.05162642151117325, -0.00645077507942915, 0.07419244199991226, 0.020344695076346397, -0.07986961305141449, -0.056073147803545, -0.03678330406546593, 0.07563598453998566, 0.06910619139671326, -0.031108703464269638, 0.004390279296785593, -0.06492666155099869, 0.04317503049969673, -0.07994862645864487, -0.04786358401179314, 0.054551128298044205, -0.0210264939814806, -0.05672915279865265, 0.050729863345623016, -0.03507871553301811, -0.003944660536944866, 0.025422019883990288, -0.027286553755402565, 0.08258005976676941, 0.05874747782945633, -0.022014731541275978, -0.0437496192753315, 0.01611853577196598, -0.013177391141653061, 0.04459811747074127, 0.088343046605587, 0.06381519883871078, 0.014167399145662785, -0.06005643308162689, -0.009833060204982758, -0.0821378231048584, 0.05892987176775932, 0.06279024481773376, -0.030625006183981895, -0.018413662910461426, -0.006441639736294746], [0.6839016079902649, -2.085901975631714, 0.8524671792984009, 0.9816663861274719, -1.3771235942840576, 0.8607884049415588, 0.9199299812316895, -0.7260326743125916, 0.9228601455688477, 1.1509824991226196, -0.9453983306884766, 